episode,return
1,-14.0
2,-15.0
3,-15.0
4,-15.0
5,-15.0
6,-10.0
7,-15.0
8,6.0
9,-15.0
10,-15.0
11,-5.0
12,-10.0
13,-3.0
14,-15.0
15,0.0
16,0.0
17,18.0
18,-15.0
19,-10.0
20,-10.0
21,-9.0
22,-14.0
23,-15.0
24,-9.0
25,-10.0
26,-15.0
27,-9.0
28,-15.0
29,-14.0
30,-9.0
31,5.0
32,-9.0
33,-9.0
34,-10.0
35,-5.0
36,-15.0
37,0.0
38,-5.0
39,-15.0
40,-5.0
41,-3.0
42,-15.0
43,-10.0
44,-15.0
45,-4.0
46,-5.0
47,-9.0
48,-10.0
49,-5.0
50,-3.0
51,-5.0
52,-5.0
53,10.0
54,-15.0
55,-15.0
56,-14.0
57,-14.0
58,-15.0
59,-10.0
60,-15.0
61,-5.0
62,-14.0
63,-15.0
64,-5.0
65,-10.0
66,-10.0
67,-10.0
68,-10.0
69,-9.0
70,-10.0
71,-10.0
72,-9.0
73,-10.0
74,-8.0
75,-10.0
76,-4.0
77,-10.0
78,-5.0
79,-10.0
80,-15.0
81,-10.0
82,-9.0
83,0.0
84,-9.0
85,-10.0
86,-15.0
87,-5.0
88,7.0
89,-15.0
90,-10.0
91,-5.0
92,-10.0
93,-15.0
94,-4.0
95,-9.0
96,-14.0
97,-15.0
98,-9.0
99,0.0
100,-10.0
101,-5.0
102,-10.0
103,-9.0
104,-10.0
105,-10.0
106,1.0
107,-10.0
108,-15.0
109,-10.0
110,-4.0
111,-9.0
112,-4.0
113,-9.0
114,-10.0
115,-3.0
116,-15.0
117,-10.0
118,-10.0
119,1.0
120,-10.0
121,-9.0
122,10.0
123,-15.0
124,-4.0
125,-15.0
126,2.0
127,-10.0
128,-5.0
129,-9.0
130,-10.0
131,-10.0
132,-5.0
133,-10.0
134,1.0
135,-10.0
136,-15.0
137,-10.0
138,-9.0
139,-10.0
140,-15.0
141,-15.0
142,-15.0
143,-10.0
144,-10.0
145,-15.0
146,-10.0
147,-10.0
148,-9.0
149,-15.0
150,-9.0
151,-9.0
152,-10.0
153,-10.0
154,-5.0
155,-14.0
156,-10.0
157,-10.0
158,49.0
159,1.0
160,-5.0
161,-15.0
162,-9.0
163,-9.0
164,-15.0
165,-8.0
166,-10.0
167,-10.0
168,-10.0
169,-9.0
170,-10.0
171,16.0
172,22.0
173,-9.0
174,23.0
175,-10.0
176,-15.0
177,0.0
178,-15.0
179,10.0
180,-4.0
181,-10.0
182,-4.0
183,-10.0
184,-10.0
185,0.0
186,26.0
187,0.0
188,-10.0
189,-14.0
190,-10.0
191,-10.0
192,-15.0
193,-10.0
194,-15.0
195,-9.0
196,-15.0
197,1.0
198,-10.0
199,6.0
200,-5.0
201,-15.0
202,-5.0
203,-5.0
204,-14.0
205,5.0
206,-15.0
207,7.0
208,-4.0
209,-9.0
210,25.0
211,12.0
212,-14.0
213,-15.0
214,-10.0
215,-14.0
216,-10.0
217,28.0
218,-10.0
219,-10.0
220,-15.0
221,7.0
222,-5.0
223,0.0
224,65.0
225,-15.0
226,-10.0
227,6.0
228,11.0
229,-10.0
230,47.0
231,7.0
232,-9.0
233,0.0
234,13.0
235,10.0
236,-10.0
237,-10.0
238,-5.0
239,-15.0
240,-9.0
241,-10.0
242,-15.0
243,10.0
244,-15.0
245,11.0
246,0.0
247,-10.0
248,-9.0
249,10.0
250,-5.0
251,-10.0
252,-9.0
253,-5.0
254,11.0
255,-4.0
256,10.0
257,-10.0
258,27.0
259,-15.0
260,5.0
261,-15.0
262,-4.0
263,-9.0
264,-2.0
265,-14.0
266,0.0
267,1.0
268,-4.0
269,0.0
270,0.0
271,20.0
272,-10.0
273,0.0
274,-5.0
275,-15.0
276,-15.0
277,-10.0
278,-10.0
279,-5.0
280,7.0
281,0.0
282,1.0
283,10.0
284,-10.0
285,-5.0
286,-10.0
287,0.0
288,30.0
289,2.0
290,0.0
291,-15.0
292,-10.0
293,-10.0
294,0.0
295,15.0
296,0.0
297,-10.0
298,-15.0
299,-15.0
300,-14.0
301,-9.0
302,-9.0
303,-10.0
304,-10.0
305,-9.0
306,-10.0
307,-4.0
308,7.0
309,1.0
310,2.0
311,-9.0
312,-5.0
313,-4.0
314,-15.0
315,-10.0
316,-15.0
317,-15.0
318,-5.0
319,0.0
320,5.0
321,-5.0
322,-10.0
323,-10.0
324,-9.0
325,22.0
326,12.0
327,-9.0
328,0.0
329,-15.0
330,-15.0
331,-15.0
332,-15.0
333,-14.0
334,-15.0
335,-5.0
336,-15.0
337,25.0
338,-15.0
339,-14.0
340,-10.0
341,-10.0
342,-9.0
343,0.0
344,-15.0
345,-15.0
346,-9.0
347,-14.0
348,-10.0
349,-10.0
350,-14.0
351,5.0
352,25.0
353,0.0
354,-10.0
355,-15.0
356,-15.0
357,-10.0
358,10.0
359,-10.0
360,-10.0
361,37.0
362,-14.0
363,-9.0
364,-8.0
365,-15.0
366,40.0
367,-15.0
368,-14.0
369,-5.0
370,-13.0
371,-5.0
372,5.0
373,21.0
374,-14.0
375,-10.0
376,10.0
377,-5.0
378,-15.0
379,-10.0
380,-10.0
381,-5.0
382,-15.0
383,-9.0
384,-15.0
385,0.0
386,0.0
387,-10.0
388,-14.0
389,-10.0
390,1.0
391,-9.0
392,-15.0
393,-5.0
394,-4.0
395,-15.0
396,-5.0
397,10.0
398,-14.0
399,-10.0
400,-9.0
401,-4.0
402,-9.0
403,5.0
404,-15.0
405,-9.0
406,19.0
407,-10.0
408,-5.0
409,-10.0
410,-10.0
411,-5.0
412,-4.0
413,-9.0
414,1.0
415,-14.0
416,3.0
417,-10.0
418,-15.0
419,-14.0
420,1.0
421,-15.0
422,-14.0
423,10.0
424,-14.0
425,-14.0
426,-15.0
427,-14.0
428,-15.0
429,-10.0
430,20.0
431,0.0
432,-5.0
433,0.0
434,-9.0
435,20.0
436,-15.0
437,-15.0
438,-5.0
439,-9.0
440,-3.0
441,-15.0
442,1.0
443,11.0
444,-15.0
445,15.0
446,-15.0
447,-10.0
448,0.0
449,-10.0
450,30.0
451,-9.0
452,60.0
453,-8.0
454,-14.0
455,3.0
456,-10.0
457,-10.0
458,-5.0
459,-15.0
460,-10.0
461,-10.0
462,-9.0
463,-10.0
464,-15.0
465,-14.0
466,-14.0
467,20.0
468,-4.0
469,20.0
470,10.0
471,-10.0
472,2.0
473,-15.0
474,-9.0
475,23.0
476,25.0
477,13.0
478,1.0
479,-4.0
480,0.0
481,-4.0
482,-15.0
483,8.0
484,-15.0
485,-5.0
486,-9.0
487,0.0
488,0.0
489,-10.0
490,-15.0
491,-14.0
492,12.0
493,23.0
494,5.0
495,-10.0
496,-10.0
497,-9.0
498,-9.0
499,-15.0
500,-9.0
501,-14.0
502,2.0
503,-14.0
504,4.0
505,-9.0
506,-15.0
507,3.0
508,-15.0
509,-5.0
510,-10.0
511,30.0
512,-14.0
513,-15.0
514,-10.0
515,-15.0
516,-15.0
517,6.0
518,-5.0
519,-10.0
520,-10.0
521,0.0
522,-5.0
523,-4.0
524,-5.0
525,-10.0
526,25.0
527,-5.0
528,16.0
529,-14.0
530,-14.0
531,-10.0
532,44.0
533,-15.0
534,0.0
535,1.0
536,11.0
537,-4.0
538,-15.0
539,6.0
540,-10.0
541,-10.0
542,-10.0
543,22.0
544,-14.0
545,-10.0
546,6.0
547,1.0
548,-15.0
549,1.0
550,6.0
551,-15.0
552,6.0
553,15.0
554,-10.0
555,-10.0
556,-15.0
557,-15.0
558,-15.0
559,14.0
560,-10.0
561,-15.0
562,-4.0
563,-9.0
564,-15.0
565,-5.0
566,-10.0
567,1.0
568,-10.0
569,-10.0
570,-10.0
571,-10.0
572,20.0
573,-15.0
574,-9.0
575,-9.0
576,25.0
577,25.0
578,-14.0
579,-15.0
580,-10.0
581,40.0
582,0.0
583,-4.0
584,-15.0
585,-15.0
586,-9.0
587,-15.0
588,-8.0
589,49.0
590,-4.0
591,-5.0
592,-10.0
593,-15.0
594,6.0
595,-9.0
596,-10.0
597,-5.0
598,0.0
599,-10.0
600,-14.0
601,1.0
602,-15.0
603,0.0
604,31.0
605,-10.0
606,0.0
607,-9.0
608,-15.0
609,-5.0
610,15.0
611,4.0
612,-15.0
613,6.0
614,-14.0
615,-4.0
616,3.0
617,-10.0
618,26.0
619,3.0
620,-10.0
621,-15.0
622,-9.0
623,-15.0
624,-15.0
625,-5.0
626,26.0
627,-3.0
628,-15.0
629,-10.0
630,-10.0
631,-9.0
632,-15.0
633,-9.0
634,-15.0
635,-2.0
636,-10.0
637,2.0
638,-5.0
639,0.0
640,-10.0
641,0.0
642,-15.0
643,-14.0
644,25.0
645,-10.0
646,-9.0
647,1.0
648,-14.0
649,11.0
650,-10.0
651,-14.0
652,1.0
653,-15.0
654,-15.0
655,-10.0
656,-9.0
657,44.0
658,-5.0
659,-5.0
660,-9.0
661,15.0
662,-10.0
663,-4.0
664,2.0
665,0.0
666,11.0
667,5.0
668,5.0
669,33.0
670,2.0
671,-5.0
672,-9.0
673,-15.0
674,-15.0
675,-15.0
676,-15.0
677,48.0
678,-2.0
679,11.0
680,11.0
681,0.0
682,-9.0
683,17.0
684,-10.0
685,-15.0
686,-10.0
687,-5.0
688,-15.0
689,0.0
690,37.0
691,-5.0
692,36.0
693,-14.0
694,-9.0
695,-15.0
696,-9.0
697,5.0
698,-9.0
699,-5.0
700,14.0
701,-15.0
702,0.0
703,-9.0
704,34.0
705,5.0
706,11.0
707,-15.0
708,22.0
709,-15.0
710,-10.0
711,-10.0
712,-15.0
713,-9.0
714,2.0
715,0.0
716,-5.0
717,-5.0
718,11.0
719,16.0
720,-10.0
721,-10.0
722,10.0
723,2.0
724,-15.0
725,-14.0
726,-15.0
727,-15.0
728,-15.0
729,16.0
730,-14.0
731,-10.0
732,-5.0
733,-15.0
734,10.0
735,-5.0
736,-15.0
737,-10.0
738,11.0
739,-9.0
740,-15.0
741,-10.0
742,15.0
743,-15.0
744,-10.0
745,-8.0
746,-9.0
747,1.0
748,-9.0
749,6.0
750,20.0
751,2.0
752,-10.0
753,-15.0
754,-10.0
755,0.0
756,-10.0
757,-9.0
758,-5.0
759,5.0
760,-10.0
761,23.0
762,0.0
763,-3.0
764,-15.0
765,-9.0
766,-10.0
767,-15.0
768,-10.0
769,-10.0
770,-5.0
771,-9.0
772,-15.0
773,-15.0
774,-9.0
775,-5.0
776,5.0
777,10.0
778,0.0
779,-9.0
780,-10.0
781,-15.0
782,-15.0
783,-9.0
784,-5.0
785,-15.0
786,6.0
787,-14.0
788,-15.0
789,11.0
790,-10.0
791,0.0
792,-10.0
793,2.0
794,-10.0
795,0.0
796,15.0
797,-3.0
798,-15.0
799,-9.0
800,-5.0
801,-8.0
802,11.0
803,15.0
804,18.0
805,-15.0
806,-15.0
807,-10.0
808,0.0
809,26.0
810,-9.0
811,-15.0
812,0.0
813,-10.0
814,-9.0
815,0.0
816,-9.0
817,-9.0
818,-10.0
819,-10.0
820,-15.0
821,-5.0
822,-10.0
823,0.0
824,32.0
825,-10.0
826,45.0
827,-5.0
828,-10.0
829,-5.0
830,-15.0
831,10.0
832,-5.0
833,6.0
834,-15.0
835,-10.0
836,-5.0
837,-15.0
838,-5.0
839,6.0
840,-14.0
841,2.0
842,21.0
843,0.0
844,15.0
845,-15.0
846,-15.0
847,-5.0
848,0.0
849,-5.0
850,1.0
851,21.0
852,1.0
853,-10.0
854,55.0
855,-5.0
856,1.0
857,2.0
858,-10.0
859,-15.0
860,-15.0
861,-15.0
862,-15.0
863,5.0
864,-8.0
865,1.0
866,-10.0
867,21.0
868,-10.0
869,-15.0
870,-9.0
871,15.0
872,-15.0
873,-10.0
874,-15.0
875,-10.0
876,-10.0
877,21.0
878,-9.0
879,-14.0
880,30.0
881,-5.0
882,10.0
883,21.0
884,15.0
885,-8.0
886,22.0
887,-10.0
888,10.0
889,-9.0
890,-10.0
891,-5.0
892,20.0
893,-5.0
894,57.0
895,10.0
896,-15.0
897,35.0
898,11.0
899,40.0
900,-15.0
901,0.0
902,-10.0
903,-9.0
904,-10.0
905,-4.0
906,11.0
907,-10.0
908,-4.0
909,-5.0
910,0.0
911,0.0
912,15.0
913,-14.0
914,-15.0
915,-15.0
916,20.0
917,5.0
918,-9.0
919,-10.0
920,-15.0
921,-15.0
922,-5.0
923,-5.0
924,-10.0
925,-5.0
926,-15.0
927,-5.0
928,-15.0
929,5.0
930,-10.0
931,-9.0
932,17.0
933,-9.0
934,12.0
935,-14.0
936,-10.0
937,32.0
938,-10.0
939,-5.0
940,-15.0
941,-15.0
942,15.0
943,-10.0
944,-15.0
945,1.0
946,-5.0
947,12.0
948,5.0
949,-14.0
950,0.0
951,24.0
952,0.0
953,-5.0
954,-5.0
955,1.0
956,-9.0
957,-10.0
958,-5.0
959,-10.0
960,30.0
961,6.0
962,-10.0
963,-10.0
964,-9.0
965,-14.0
966,1.0
967,-10.0
968,-4.0
969,12.0
970,5.0
971,-5.0
972,8.0
973,-9.0
974,6.0
975,1.0
976,-9.0
977,-9.0
978,55.0
979,8.0
980,-10.0
981,-10.0
982,-9.0
983,-10.0
984,0.0
985,-4.0
986,5.0
987,-14.0
988,5.0
989,-4.0
990,1.0
991,-10.0
992,-15.0
993,-15.0
994,-14.0
995,0.0
996,-3.0
997,-15.0
998,-10.0
999,-15.0
1000,-10.0
