episode,return
1,-15.0
2,-14.0
3,-9.0
4,-15.0
5,-15.0
6,-15.0
7,-15.0
8,-15.0
9,-15.0
10,-15.0
11,-15.0
12,-15.0
13,-15.0
14,-10.0
15,-10.0
16,-10.0
17,-10.0
18,-10.0
19,-15.0
20,-10.0
21,-14.0
22,-15.0
23,-10.0
24,-9.0
25,-10.0
26,-10.0
27,-10.0
28,-9.0
29,-10.0
30,-9.0
31,-15.0
32,-9.0
33,-10.0
34,-10.0
35,-15.0
36,-15.0
37,-15.0
38,-10.0
39,-10.0
40,-15.0
41,-9.0
42,-10.0
43,-9.0
44,-10.0
45,-5.0
46,-10.0
47,-15.0
48,-15.0
49,-10.0
50,-5.0
51,-5.0
52,-15.0
53,-10.0
54,-15.0
55,0.0
56,-10.0
57,22.0
58,-15.0
59,-15.0
60,-9.0
61,-10.0
62,-9.0
63,-5.0
64,-4.0
65,-15.0
66,-5.0
67,-15.0
68,-15.0
69,7.0
70,-5.0
71,15.0
72,-9.0
73,-9.0
74,-15.0
75,5.0
76,15.0
77,0.0
78,-5.0
79,-5.0
80,-5.0
81,-14.0
82,20.0
83,11.0
84,-10.0
85,-15.0
86,-5.0
87,-15.0
88,-10.0
89,-15.0
90,-10.0
91,0.0
92,-5.0
93,-3.0
94,-15.0
95,-5.0
96,-10.0
97,-4.0
98,-15.0
99,-10.0
100,-10.0
101,-4.0
102,-14.0
103,-14.0
104,-10.0
105,-15.0
106,-14.0
107,0.0
108,-10.0
109,-5.0
110,-10.0
111,-5.0
112,5.0
113,0.0
114,-10.0
115,-4.0
116,-10.0
117,-10.0
118,-5.0
119,-10.0
120,-4.0
121,-10.0
122,20.0
123,-9.0
124,-4.0
125,-15.0
126,-10.0
127,-5.0
128,-9.0
129,-15.0
130,-15.0
131,-5.0
132,-10.0
133,-15.0
134,10.0
135,-5.0
136,20.0
137,-15.0
138,-14.0
139,5.0
140,-10.0
141,56.0
142,-10.0
143,-14.0
144,3.0
145,-14.0
146,-15.0
147,1.0
148,-10.0
149,-15.0
150,10.0
151,-15.0
152,-5.0
153,0.0
154,-15.0
155,1.0
156,-15.0
157,-5.0
158,-9.0
159,-5.0
160,-15.0
161,-9.0
162,-10.0
163,-10.0
164,0.0
165,-10.0
166,6.0
167,15.0
168,-15.0
169,12.0
170,-10.0
171,-14.0
172,5.0
173,-15.0
174,-14.0
175,-15.0
176,-10.0
177,5.0
178,-5.0
179,-9.0
180,16.0
181,-8.0
182,5.0
183,-15.0
184,5.0
185,-15.0
186,-10.0
187,-10.0
188,-9.0
189,-4.0
190,-14.0
191,0.0
192,13.0
193,-4.0
194,-14.0
195,-10.0
196,-10.0
197,-5.0
198,36.0
199,-10.0
200,-8.0
201,-9.0
202,-15.0
203,-5.0
204,-15.0
205,20.0
206,0.0
207,-5.0
208,-5.0
209,-10.0
210,6.0
211,-10.0
212,2.0
213,-10.0
214,10.0
215,7.0
216,-10.0
217,16.0
218,-15.0
219,-10.0
220,0.0
221,-15.0
222,-10.0
223,-10.0
224,-5.0
225,5.0
226,-15.0
227,20.0
228,1.0
229,-15.0
230,-5.0
231,-3.0
232,-10.0
233,10.0
234,26.0
235,-9.0
236,-15.0
237,-5.0
238,-10.0
239,-10.0
240,-10.0
241,5.0
242,-15.0
243,-10.0
244,-2.0
245,-10.0
246,-10.0
247,-10.0
248,-5.0
249,-15.0
250,-5.0
251,-10.0
252,-4.0
253,-5.0
254,-9.0
255,-10.0
256,-8.0
257,-14.0
258,-15.0
259,-8.0
260,0.0
261,-10.0
262,-15.0
263,-14.0
264,-14.0
265,-15.0
266,5.0
267,-9.0
268,11.0
269,-15.0
270,5.0
271,5.0
272,-10.0
273,5.0
274,-10.0
275,0.0
276,-10.0
277,2.0
278,-14.0
279,-9.0
280,-5.0
281,-10.0
282,-15.0
283,-15.0
284,-10.0
285,7.0
286,-10.0
287,-8.0
288,2.0
289,-9.0
290,-14.0
291,1.0
292,0.0
293,-10.0
294,1.0
295,-15.0
296,-4.0
297,-4.0
298,-4.0
299,-10.0
300,37.0
301,-15.0
302,-9.0
303,-5.0
304,-10.0
305,-14.0
306,-10.0
307,-5.0
308,-9.0
309,0.0
310,15.0
311,-5.0
312,-15.0
313,0.0
314,-9.0
315,-9.0
316,-15.0
317,0.0
318,-10.0
319,0.0
320,-10.0
321,-4.0
322,-10.0
323,-5.0
324,1.0
325,-10.0
326,-5.0
327,-15.0
328,-4.0
329,-5.0
330,-4.0
331,-4.0
332,-10.0
333,-4.0
334,-4.0
335,-4.0
336,-10.0
337,-15.0
338,-10.0
339,1.0
340,10.0
341,-10.0
342,31.0
343,-14.0
344,-9.0
345,-15.0
346,50.0
347,-9.0
348,-14.0
349,-9.0
350,-15.0
351,-10.0
352,0.0
353,-10.0
354,-5.0
355,10.0
356,-10.0
357,-15.0
358,-15.0
359,-5.0
360,-10.0
361,0.0
362,-10.0
363,-10.0
364,-15.0
365,-10.0
366,-4.0
367,-10.0
368,-5.0
369,5.0
370,55.0
371,-10.0
372,-9.0
373,0.0
374,-14.0
375,-15.0
376,-5.0
377,3.0
378,-15.0
379,-5.0
380,10.0
381,-10.0
382,11.0
383,6.0
384,-9.0
385,-14.0
386,-10.0
387,-10.0
388,-15.0
389,6.0
390,-5.0
391,1.0
392,5.0
393,-5.0
394,-5.0
395,-5.0
396,-10.0
397,-15.0
398,0.0
399,-5.0
400,-5.0
401,-15.0
402,0.0
403,0.0
404,-15.0
405,1.0
406,15.0
407,-9.0
408,-2.0
409,-14.0
410,15.0
411,-10.0
412,-9.0
413,46.0
414,-10.0
415,-10.0
416,-10.0
417,-5.0
418,5.0
419,-5.0
420,-10.0
421,6.0
422,-10.0
423,-5.0
424,-10.0
425,-5.0
426,-10.0
427,12.0
428,10.0
429,0.0
430,-10.0
431,1.0
432,-10.0
433,-9.0
434,60.0
435,-14.0
436,-9.0
437,-5.0
438,-5.0
439,-10.0
440,-15.0
441,-10.0
442,-10.0
443,5.0
444,-10.0
445,-5.0
446,-4.0
447,-10.0
448,-5.0
449,0.0
450,-10.0
451,-5.0
452,-4.0
453,-15.0
454,0.0
455,1.0
456,-15.0
457,21.0
458,-9.0
459,11.0
460,-4.0
461,-9.0
462,-15.0
463,-9.0
464,0.0
465,0.0
466,-10.0
467,35.0
468,3.0
469,-5.0
470,-5.0
471,-10.0
472,40.0
473,-10.0
474,-15.0
475,-10.0
476,-5.0
477,-15.0
478,30.0
479,-9.0
480,-15.0
481,10.0
482,1.0
483,1.0
484,-5.0
485,5.0
486,-8.0
487,-5.0
488,-10.0
489,-10.0
490,-14.0
491,-8.0
492,11.0
493,20.0
494,-10.0
495,-3.0
496,-9.0
497,-5.0
498,-9.0
499,-10.0
500,-9.0
501,-5.0
502,1.0
503,5.0
504,-9.0
505,-5.0
506,25.0
507,-15.0
508,-15.0
509,2.0
510,-15.0
511,1.0
512,-15.0
513,2.0
514,-15.0
515,-15.0
516,-10.0
517,24.0
518,-9.0
519,-5.0
520,-9.0
521,-10.0
522,0.0
523,-10.0
524,5.0
525,22.0
526,-9.0
527,-5.0
528,15.0
529,-9.0
530,-5.0
531,1.0
532,-10.0
533,16.0
534,-4.0
535,-10.0
536,-15.0
537,-15.0
538,0.0
539,0.0
540,-9.0
541,5.0
542,-15.0
543,6.0
544,6.0
545,-10.0
546,-15.0
547,1.0
548,10.0
549,-15.0
550,-8.0
551,21.0
552,11.0
553,-10.0
554,-10.0
555,1.0
556,-9.0
557,-15.0
558,21.0
559,-14.0
560,-5.0
561,11.0
562,-10.0
563,-10.0
564,-10.0
565,-5.0
566,25.0
567,45.0
568,0.0
569,-9.0
570,-10.0
571,-10.0
572,-5.0
573,1.0
574,-10.0
575,-4.0
576,-10.0
577,15.0
578,20.0
579,-5.0
580,-15.0
581,10.0
582,-9.0
583,2.0
584,0.0
585,5.0
586,-5.0
587,-10.0
588,0.0
589,-5.0
590,-10.0
591,-10.0
592,-9.0
593,-10.0
594,-8.0
595,-9.0
596,-4.0
597,-10.0
598,-15.0
599,10.0
600,1.0
601,20.0
602,25.0
603,0.0
604,1.0
605,15.0
606,0.0
607,10.0
608,-15.0
609,-15.0
610,-10.0
611,-10.0
612,2.0
613,-10.0
614,-14.0
615,-10.0
616,-10.0
617,-10.0
618,-10.0
619,0.0
620,-9.0
621,-10.0
622,-15.0
623,-15.0
624,-5.0
625,0.0
626,-10.0
627,-15.0
628,-10.0
629,-14.0
630,-14.0
631,0.0
632,-9.0
633,-4.0
634,-5.0
635,-14.0
636,-10.0
637,55.0
638,15.0
639,15.0
640,-10.0
641,-14.0
642,-15.0
643,1.0
644,-10.0
645,-10.0
646,6.0
647,-10.0
648,-5.0
649,-14.0
650,1.0
651,-10.0
652,-9.0
653,15.0
654,-5.0
655,-9.0
656,0.0
657,11.0
658,-9.0
659,-4.0
660,-5.0
661,-10.0
662,-15.0
663,-5.0
664,0.0
665,-10.0
666,-5.0
667,-5.0
668,-4.0
669,-15.0
670,1.0
671,-5.0
672,1.0
673,-10.0
674,5.0
675,-10.0
676,-15.0
677,0.0
678,0.0
679,-3.0
680,-15.0
681,-4.0
682,1.0
683,-10.0
684,0.0
685,21.0
686,-5.0
687,-10.0
688,-14.0
689,1.0
690,5.0
691,-15.0
692,1.0
693,-4.0
694,-9.0
695,5.0
696,-10.0
697,0.0
698,5.0
699,-10.0
700,-5.0
701,-10.0
702,-15.0
703,10.0
704,1.0
705,0.0
706,6.0
707,-10.0
708,20.0
709,-5.0
710,1.0
711,-9.0
712,-5.0
713,-10.0
714,-9.0
715,6.0
716,-14.0
717,10.0
718,-3.0
719,2.0
720,5.0
721,10.0
722,-5.0
723,16.0
724,-10.0
725,-10.0
726,-9.0
727,-10.0
728,13.0
729,-5.0
730,-15.0
731,-15.0
732,1.0
733,-10.0
734,-3.0
735,-10.0
736,0.0
737,-9.0
738,3.0
739,-4.0
740,-10.0
741,1.0
742,-15.0
743,-4.0
744,1.0
745,1.0
746,-10.0
747,-5.0
748,-14.0
749,-9.0
750,-5.0
751,-9.0
752,-4.0
753,0.0
754,-10.0
755,11.0
756,-4.0
757,-10.0
758,36.0
759,6.0
760,0.0
761,-10.0
762,-14.0
763,-9.0
764,-10.0
765,10.0
766,-15.0
767,-9.0
768,-10.0
769,-9.0
770,22.0
771,0.0
772,28.0
773,2.0
774,0.0
775,6.0
776,26.0
777,0.0
778,-9.0
779,-10.0
780,-5.0
781,6.0
782,-9.0
783,-10.0
784,-4.0
785,1.0
786,-9.0
787,-3.0
788,-5.0
789,6.0
790,-9.0
791,-9.0
792,-9.0
793,0.0
794,0.0
795,21.0
796,1.0
797,-10.0
798,-10.0
799,-10.0
800,45.0
801,25.0
802,-9.0
803,40.0
804,-9.0
805,-10.0
806,6.0
807,5.0
808,-8.0
809,50.0
810,-10.0
811,-10.0
812,-15.0
813,12.0
814,6.0
815,-8.0
816,15.0
817,-9.0
818,-10.0
819,-10.0
820,0.0
821,-4.0
822,-9.0
823,1.0
824,12.0
825,-15.0
826,-10.0
827,-15.0
828,-10.0
829,2.0
830,10.0
831,15.0
832,1.0
833,0.0
834,0.0
835,-5.0
836,-4.0
837,0.0
838,-10.0
839,11.0
840,-10.0
841,20.0
842,0.0
843,10.0
844,1.0
845,2.0
846,-9.0
847,-5.0
848,-5.0
849,-4.0
850,-3.0
851,-5.0
852,0.0
853,-10.0
854,0.0
855,-4.0
856,-10.0
857,-10.0
858,-10.0
859,-10.0
860,3.0
861,-8.0
862,2.0
863,-2.0
864,10.0
865,-10.0
866,-14.0
867,0.0
868,-8.0
869,-5.0
870,26.0
871,10.0
872,-10.0
873,10.0
874,-15.0
875,20.0
876,17.0
877,1.0
878,-15.0
879,-9.0
880,12.0
881,-8.0
882,11.0
883,10.0
884,-5.0
885,0.0
886,0.0
887,-9.0
888,46.0
889,-9.0
890,-9.0
891,-5.0
892,-15.0
893,-15.0
894,0.0
895,15.0
896,-9.0
897,40.0
898,-10.0
899,-10.0
900,-10.0
901,-5.0
902,-10.0
903,16.0
904,-10.0
905,-9.0
906,0.0
907,-15.0
908,-10.0
909,-10.0
910,2.0
911,-10.0
912,-15.0
913,11.0
914,-9.0
915,-5.0
916,-9.0
917,-14.0
918,-15.0
919,-8.0
920,5.0
921,-10.0
922,-10.0
923,15.0
924,-10.0
925,0.0
926,20.0
927,1.0
928,1.0
929,-9.0
930,40.0
931,-10.0
932,-10.0
933,-10.0
934,0.0
935,-10.0
936,13.0
937,-15.0
938,-10.0
939,15.0
940,0.0
941,0.0
942,-15.0
943,-14.0
944,-8.0
945,-10.0
946,-5.0
947,-15.0
948,-15.0
949,21.0
950,1.0
951,0.0
952,-3.0
953,-10.0
954,23.0
955,-10.0
956,-5.0
957,10.0
958,-10.0
959,46.0
960,60.0
961,0.0
962,0.0
963,-10.0
964,-5.0
965,10.0
966,15.0
967,-10.0
968,-9.0
969,1.0
970,-5.0
971,-10.0
972,6.0
973,-5.0
974,30.0
975,-3.0
976,25.0
977,-10.0
978,-10.0
979,0.0
980,-10.0
981,-10.0
982,-15.0
983,-14.0
984,25.0
985,-10.0
986,1.0
987,32.0
988,25.0
989,1.0
990,5.0
991,-14.0
992,-10.0
993,-10.0
994,-10.0
995,31.0
996,-10.0
997,29.0
998,42.0
999,-10.0
1000,16.0
1001,7.0
1002,-14.0
1003,-10.0
1004,0.0
1005,-5.0
1006,-9.0
1007,5.0
1008,0.0
1009,10.0
1010,45.0
1011,-14.0
1012,-10.0
1013,11.0
1014,42.0
1015,20.0
1016,-10.0
1017,10.0
1018,-10.0
1019,-3.0
1020,-10.0
1021,0.0
1022,13.0
1023,-10.0
1024,-14.0
1025,-9.0
1026,11.0
1027,-9.0
1028,10.0
1029,-5.0
1030,30.0
1031,15.0
1032,-10.0
1033,-10.0
1034,-4.0
1035,-9.0
1036,-15.0
1037,-10.0
1038,-9.0
1039,15.0
1040,-10.0
1041,-9.0
1042,-10.0
1043,10.0
1044,-10.0
1045,40.0
1046,-9.0
1047,0.0
1048,-10.0
1049,0.0
1050,10.0
1051,20.0
1052,0.0
1053,-9.0
1054,16.0
1055,-5.0
1056,0.0
1057,-14.0
1058,26.0
1059,-5.0
1060,5.0
1061,-10.0
1062,0.0
1063,-3.0
1064,0.0
1065,-9.0
1066,-10.0
1067,5.0
1068,0.0
1069,-9.0
1070,12.0
1071,-10.0
1072,20.0
1073,-10.0
1074,-3.0
1075,-9.0
1076,-10.0
1077,-15.0
1078,15.0
1079,-4.0
1080,-9.0
1081,0.0
1082,10.0
1083,-10.0
1084,1.0
1085,2.0
1086,-10.0
1087,0.0
1088,-15.0
1089,-9.0
1090,-10.0
1091,-14.0
1092,-10.0
1093,-14.0
1094,-10.0
1095,-10.0
1096,-15.0
1097,-10.0
1098,-15.0
1099,-15.0
1100,-14.0
1101,10.0
1102,-10.0
1103,15.0
1104,7.0
1105,10.0
1106,15.0
1107,0.0
1108,10.0
1109,30.0
1110,-10.0
1111,-8.0
1112,30.0
1113,21.0
1114,-14.0
1115,0.0
1116,-10.0
1117,-10.0
1118,-10.0
1119,41.0
1120,1.0
1121,-15.0
1122,-15.0
1123,-10.0
1124,-10.0
1125,-9.0
1126,-5.0
1127,26.0
1128,-10.0
1129,62.0
1130,-9.0
1131,-10.0
1132,0.0
1133,6.0
1134,-9.0
1135,0.0
1136,22.0
1137,-9.0
1138,0.0
1139,20.0
1140,-4.0
1141,-10.0
1142,-15.0
1143,-15.0
1144,-10.0
1145,1.0
1146,-10.0
1147,-10.0
1148,-10.0
1149,25.0
1150,1.0
1151,-15.0
1152,-10.0
1153,-14.0
1154,-10.0
1155,-15.0
1156,-5.0
1157,-15.0
1158,-10.0
1159,11.0
1160,0.0
1161,0.0
1162,-15.0
1163,-14.0
1164,-14.0
1165,5.0
1166,0.0
1167,-10.0
1168,30.0
1169,-15.0
1170,17.0
1171,-15.0
1172,6.0
1173,0.0
1174,-10.0
1175,-15.0
1176,-9.0
1177,-10.0
1178,25.0
1179,-10.0
1180,-15.0
1181,-10.0
1182,-10.0
1183,-14.0
1184,30.0
1185,20.0
1186,-9.0
1187,-5.0
1188,0.0
1189,1.0
1190,1.0
1191,-5.0
1192,-10.0
1193,-10.0
1194,10.0
1195,-15.0
1196,10.0
1197,-4.0
1198,17.0
1199,-9.0
1200,-10.0
1201,-4.0
1202,-15.0
1203,10.0
1204,-10.0
1205,-15.0
1206,-5.0
1207,11.0
1208,30.0
1209,-10.0
1210,11.0
1211,-4.0
1212,-10.0
1213,-10.0
1214,-10.0
1215,-15.0
1216,-10.0
1217,6.0
1218,0.0
1219,11.0
1220,0.0
1221,10.0
1222,6.0
1223,-10.0
1224,-5.0
1225,-10.0
1226,-3.0
1227,10.0
1228,-10.0
1229,11.0
1230,46.0
1231,-5.0
1232,0.0
1233,22.0
1234,21.0
1235,-9.0
1236,-10.0
1237,-15.0
1238,-9.0
1239,-15.0
1240,-5.0
1241,-10.0
1242,-10.0
1243,-10.0
1244,-5.0
1245,-10.0
1246,-15.0
1247,20.0
1248,-15.0
1249,0.0
1250,3.0
1251,-10.0
1252,0.0
1253,-10.0
1254,-15.0
1255,2.0
1256,1.0
1257,-5.0
1258,20.0
1259,-15.0
1260,10.0
1261,11.0
1262,-15.0
1263,-4.0
1264,1.0
1265,-15.0
1266,-10.0
1267,8.0
1268,-10.0
1269,17.0
1270,1.0
1271,22.0
1272,10.0
1273,-5.0
1274,-10.0
1275,-10.0
1276,0.0
1277,-10.0
1278,20.0
1279,5.0
1280,-5.0
1281,-10.0
1282,-9.0
1283,21.0
1284,-10.0
1285,0.0
1286,10.0
1287,5.0
1288,0.0
1289,-10.0
1290,-15.0
1291,5.0
1292,-15.0
1293,-10.0
1294,-4.0
1295,5.0
1296,10.0
1297,10.0
1298,10.0
1299,-10.0
1300,-5.0
1301,-15.0
1302,20.0
1303,-10.0
1304,-5.0
1305,1.0
1306,-4.0
1307,0.0
1308,-5.0
1309,30.0
1310,31.0
1311,-9.0
1312,-15.0
1313,-4.0
1314,-10.0
1315,6.0
1316,1.0
1317,-5.0
1318,-9.0
1319,-4.0
1320,-15.0
1321,1.0
1322,-10.0
1323,-10.0
1324,10.0
1325,11.0
1326,-14.0
1327,21.0
1328,15.0
1329,-10.0
1330,0.0
1331,25.0
1332,-15.0
1333,-9.0
1334,1.0
1335,-9.0
1336,-9.0
1337,-4.0
1338,-5.0
1339,-10.0
1340,27.0
1341,-10.0
1342,-5.0
1343,-15.0
1344,-5.0
1345,15.0
1346,-5.0
1347,1.0
1348,-5.0
1349,21.0
1350,-9.0
1351,1.0
1352,-10.0
1353,46.0
1354,-15.0
1355,-8.0
1356,-3.0
1357,-10.0
1358,-15.0
1359,1.0
1360,5.0
1361,-9.0
1362,22.0
1363,-15.0
1364,-10.0
1365,-5.0
1366,-15.0
1367,-15.0
1368,-5.0
1369,-9.0
1370,58.0
1371,5.0
1372,35.0
1373,-9.0
1374,-15.0
1375,10.0
1376,-5.0
1377,-10.0
1378,-5.0
1379,3.0
1380,5.0
1381,36.0
1382,5.0
1383,21.0
1384,35.0
1385,1.0
1386,5.0
1387,-9.0
1388,-5.0
1389,-10.0
1390,-4.0
1391,-15.0
1392,12.0
1393,-15.0
1394,-15.0
1395,15.0
1396,-9.0
1397,5.0
1398,0.0
1399,0.0
1400,5.0
1401,-10.0
1402,-15.0
1403,1.0
1404,-5.0
1405,-10.0
1406,-9.0
1407,15.0
1408,31.0
1409,-10.0
1410,16.0
1411,-14.0
1412,25.0
1413,21.0
1414,10.0
1415,-4.0
1416,0.0
1417,-10.0
1418,12.0
1419,-4.0
1420,0.0
1421,3.0
1422,-4.0
1423,-5.0
1424,24.0
1425,29.0
1426,-9.0
1427,-10.0
1428,-10.0
1429,-10.0
1430,-9.0
1431,-9.0
1432,0.0
1433,-9.0
1434,44.0
1435,-14.0
1436,0.0
1437,15.0
1438,5.0
1439,10.0
1440,-14.0
1441,22.0
1442,-10.0
1443,-15.0
1444,-5.0
1445,-10.0
1446,1.0
1447,-10.0
1448,12.0
1449,2.0
1450,21.0
1451,0.0
1452,-10.0
1453,-10.0
1454,-4.0
1455,-10.0
1456,-10.0
1457,0.0
1458,-4.0
1459,23.0
1460,-5.0
1461,-15.0
1462,23.0
1463,-10.0
1464,28.0
1465,-10.0
1466,10.0
1467,-9.0
1468,-15.0
1469,30.0
1470,-10.0
1471,-14.0
1472,-4.0
1473,0.0
1474,-10.0
1475,6.0
1476,-10.0
1477,0.0
1478,-15.0
1479,-9.0
1480,-10.0
1481,4.0
1482,-15.0
1483,-5.0
1484,-15.0
1485,38.0
1486,10.0
1487,-15.0
1488,-10.0
1489,-5.0
1490,-10.0
1491,-8.0
1492,-4.0
1493,-14.0
1494,-10.0
1495,-15.0
1496,0.0
1497,0.0
1498,5.0
1499,-4.0
1500,-10.0
1501,10.0
1502,-15.0
1503,10.0
1504,10.0
1505,-4.0
1506,-4.0
1507,-15.0
1508,35.0
1509,40.0
1510,-10.0
1511,-15.0
1512,20.0
1513,-9.0
1514,-15.0
1515,-9.0
1516,-10.0
1517,-15.0
1518,1.0
1519,0.0
1520,10.0
1521,20.0
1522,1.0
1523,-10.0
1524,34.0
1525,-10.0
1526,-14.0
1527,0.0
1528,0.0
1529,-4.0
1530,-10.0
1531,-5.0
1532,-10.0
1533,0.0
1534,-10.0
1535,0.0
1536,11.0
1537,-10.0
1538,20.0
1539,-15.0
1540,-14.0
1541,1.0
1542,2.0
1543,10.0
1544,41.0
1545,-9.0
1546,0.0
1547,15.0
1548,55.0
1549,0.0
1550,-10.0
1551,-10.0
1552,-15.0
1553,0.0
1554,-4.0
1555,-9.0
1556,-5.0
1557,-10.0
1558,27.0
1559,6.0
1560,-5.0
1561,0.0
1562,0.0
1563,-15.0
1564,-9.0
1565,-9.0
1566,30.0
1567,25.0
1568,-14.0
1569,-10.0
1570,-10.0
1571,-10.0
1572,7.0
1573,0.0
1574,-10.0
1575,-5.0
1576,-15.0
1577,15.0
1578,-5.0
1579,15.0
1580,-9.0
1581,-10.0
1582,0.0
1583,20.0
1584,-15.0
1585,-5.0
1586,-10.0
1587,-15.0
1588,20.0
1589,43.0
1590,-9.0
1591,-9.0
1592,-8.0
1593,-14.0
1594,-5.0
1595,6.0
1596,-14.0
1597,6.0
1598,-5.0
1599,-10.0
1600,-10.0
1601,1.0
1602,21.0
1603,-5.0
1604,-14.0
1605,20.0
1606,-15.0
1607,1.0
1608,-10.0
1609,-15.0
1610,1.0
1611,5.0
1612,-5.0
1613,37.0
1614,-10.0
1615,-10.0
1616,-9.0
1617,10.0
1618,42.0
1619,-10.0
1620,-5.0
1621,10.0
1622,45.0
1623,21.0
1624,35.0
1625,22.0
1626,-15.0
1627,43.0
1628,-10.0
1629,-4.0
1630,-8.0
1631,-10.0
1632,2.0
1633,-9.0
1634,13.0
1635,-10.0
1636,-5.0
1637,11.0
1638,1.0
1639,26.0
1640,10.0
1641,-15.0
1642,-5.0
1643,66.0
1644,1.0
1645,-9.0
1646,-14.0
1647,-10.0
1648,15.0
1649,-15.0
1650,-15.0
1651,-15.0
1652,-15.0
1653,1.0
1654,-10.0
1655,0.0
1656,1.0
1657,-10.0
1658,20.0
1659,-15.0
1660,49.0
1661,1.0
1662,-10.0
1663,-10.0
1664,0.0
1665,-10.0
1666,-10.0
1667,13.0
1668,-10.0
1669,-15.0
1670,31.0
1671,5.0
1672,0.0
1673,-15.0
1674,6.0
1675,-5.0
1676,-15.0
1677,-14.0
1678,-15.0
1679,10.0
1680,20.0
1681,12.0
1682,-4.0
1683,-15.0
1684,5.0
1685,-4.0
1686,-10.0
1687,10.0
1688,-5.0
1689,-15.0
1690,0.0
1691,20.0
1692,-5.0
1693,5.0
1694,-4.0
1695,-4.0
1696,0.0
1697,5.0
1698,3.0
1699,25.0
1700,-10.0
1701,11.0
1702,-10.0
1703,1.0
1704,17.0
1705,-10.0
1706,1.0
1707,2.0
1708,2.0
1709,-10.0
1710,36.0
1711,-5.0
1712,30.0
1713,34.0
1714,-4.0
1715,0.0
1716,-5.0
1717,0.0
1718,1.0
1719,32.0
1720,-10.0
1721,-9.0
1722,22.0
1723,-15.0
1724,-10.0
1725,-10.0
1726,-15.0
1727,26.0
1728,-4.0
1729,-5.0
1730,20.0
1731,0.0
1732,-9.0
1733,-5.0
1734,-15.0
1735,-9.0
1736,2.0
1737,1.0
1738,15.0
1739,7.0
1740,-15.0
1741,-10.0
1742,30.0
1743,53.0
1744,26.0
1745,-4.0
1746,-10.0
1747,11.0
1748,0.0
1749,-15.0
1750,1.0
1751,-10.0
1752,-10.0
1753,31.0
1754,42.0
1755,5.0
1756,-8.0
1757,0.0
1758,-10.0
1759,-5.0
1760,-9.0
1761,-15.0
1762,8.0
1763,0.0
1764,-9.0
1765,-9.0
1766,11.0
1767,-9.0
1768,10.0
1769,40.0
1770,5.0
1771,11.0
1772,10.0
1773,0.0
1774,31.0
1775,-9.0
1776,22.0
1777,1.0
1778,-10.0
1779,30.0
1780,11.0
1781,1.0
1782,12.0
1783,1.0
1784,6.0
1785,-8.0
1786,30.0
1787,-10.0
1788,27.0
1789,-15.0
1790,-14.0
1791,17.0
1792,7.0
1793,8.0
1794,20.0
1795,-3.0
1796,51.0
1797,25.0
1798,-5.0
1799,-9.0
1800,25.0
1801,22.0
1802,-10.0
1803,0.0
1804,0.0
1805,0.0
1806,0.0
1807,-15.0
1808,6.0
1809,-10.0
1810,-5.0
1811,10.0
1812,-10.0
1813,-15.0
1814,20.0
1815,6.0
1816,1.0
1817,-5.0
1818,5.0
1819,-9.0
1820,0.0
1821,-15.0
1822,20.0
1823,10.0
1824,-5.0
1825,-9.0
1826,32.0
1827,10.0
1828,-10.0
1829,-5.0
1830,-15.0
1831,-15.0
1832,25.0
1833,-10.0
1834,20.0
1835,11.0
1836,-15.0
1837,6.0
1838,30.0
1839,31.0
1840,0.0
1841,10.0
1842,-4.0
1843,10.0
1844,15.0
1845,21.0
1846,5.0
1847,10.0
1848,-15.0
1849,27.0
1850,20.0
1851,-15.0
1852,-15.0
1853,0.0
1854,10.0
1855,-10.0
1856,10.0
1857,1.0
1858,-4.0
1859,-10.0
1860,-10.0
1861,1.0
1862,94.0
1863,-10.0
1864,0.0
1865,10.0
1866,55.0
1867,1.0
1868,-15.0
1869,-5.0
1870,0.0
1871,10.0
1872,-10.0
1873,-9.0
1874,0.0
1875,-4.0
1876,-10.0
1877,1.0
1878,11.0
1879,6.0
1880,5.0
1881,-5.0
1882,1.0
1883,45.0
1884,-8.0
1885,1.0
1886,-9.0
1887,-15.0
1888,-5.0
1889,-10.0
1890,-10.0
1891,42.0
1892,-5.0
1893,-5.0
1894,21.0
1895,-10.0
1896,1.0
1897,-15.0
1898,-9.0
1899,31.0
1900,5.0
1901,-5.0
1902,-5.0
1903,-5.0
1904,-15.0
1905,-5.0
1906,-10.0
1907,-10.0
1908,-10.0
1909,38.0
1910,-9.0
1911,-15.0
1912,40.0
1913,-4.0
1914,-10.0
1915,-15.0
1916,-10.0
1917,-10.0
1918,20.0
1919,15.0
1920,-5.0
1921,10.0
1922,-14.0
1923,-10.0
1924,-10.0
1925,17.0
1926,-14.0
1927,-10.0
1928,-10.0
1929,10.0
1930,1.0
1931,1.0
1932,0.0
1933,-10.0
1934,16.0
1935,-15.0
1936,5.0
1937,-15.0
1938,-10.0
1939,5.0
1940,-9.0
1941,-10.0
1942,-10.0
1943,10.0
1944,-5.0
1945,-10.0
1946,-15.0
1947,-9.0
1948,-10.0
1949,0.0
1950,20.0
1951,20.0
1952,-4.0
1953,21.0
1954,-9.0
1955,5.0
1956,22.0
1957,20.0
1958,0.0
1959,25.0
1960,42.0
1961,-10.0
1962,10.0
1963,15.0
1964,20.0
1965,-9.0
1966,-10.0
1967,21.0
1968,5.0
1969,31.0
1970,-9.0
1971,-5.0
1972,16.0
1973,-5.0
1974,0.0
1975,10.0
1976,3.0
1977,-15.0
1978,-4.0
1979,-14.0
1980,52.0
1981,-10.0
1982,-9.0
1983,35.0
1984,-15.0
1985,-9.0
1986,-9.0
1987,-4.0
1988,-5.0
1989,-10.0
1990,-10.0
1991,25.0
1992,-9.0
1993,0.0
1994,-9.0
1995,-10.0
1996,-10.0
1997,-9.0
1998,-9.0
1999,1.0
2000,1.0
2001,-5.0
2002,-5.0
2003,0.0
2004,-10.0
2005,-8.0
2006,-15.0
2007,-2.0
2008,-15.0
2009,18.0
2010,31.0
2011,1.0
2012,0.0
2013,55.0
2014,-15.0
2015,-5.0
2016,-14.0
2017,10.0
2018,0.0
2019,-15.0
2020,11.0
2021,11.0
2022,-4.0
2023,1.0
2024,0.0
2025,-10.0
2026,-9.0
2027,-10.0
2028,41.0
2029,-10.0
2030,26.0
2031,2.0
2032,6.0
2033,-15.0
2034,-10.0
2035,-10.0
2036,-9.0
2037,35.0
2038,-5.0
2039,21.0
2040,-9.0
2041,-8.0
2042,40.0
2043,-4.0
2044,0.0
2045,11.0
2046,15.0
2047,15.0
2048,49.0
2049,-10.0
2050,9.0
2051,0.0
2052,16.0
2053,21.0
2054,-4.0
2055,1.0
2056,-15.0
2057,10.0
2058,-10.0
2059,0.0
2060,-15.0
2061,-10.0
2062,-10.0
2063,-4.0
2064,-15.0
2065,2.0
2066,0.0
2067,21.0
2068,-10.0
2069,-5.0
2070,21.0
2071,-10.0
2072,17.0
2073,53.0
2074,-8.0
2075,1.0
2076,-4.0
2077,2.0
2078,-10.0
2079,25.0
2080,-10.0
2081,-15.0
2082,17.0
2083,-10.0
2084,-5.0
2085,-15.0
2086,-4.0
2087,-5.0
2088,-5.0
2089,6.0
2090,-10.0
2091,-10.0
2092,5.0
2093,21.0
2094,6.0
2095,15.0
2096,5.0
2097,0.0
2098,-9.0
2099,44.0
2100,-10.0
2101,24.0
2102,-10.0
2103,15.0
2104,5.0
2105,21.0
2106,-10.0
2107,-10.0
2108,-5.0
2109,-15.0
2110,0.0
2111,56.0
2112,0.0
2113,-4.0
2114,-10.0
2115,5.0
2116,7.0
2117,-15.0
2118,1.0
2119,-10.0
2120,10.0
2121,-10.0
2122,33.0
2123,21.0
2124,-10.0
2125,0.0
2126,15.0
2127,0.0
2128,10.0
2129,0.0
2130,-10.0
2131,10.0
2132,30.0
2133,1.0
2134,-5.0
2135,-14.0
2136,0.0
2137,-10.0
2138,-4.0
2139,-5.0
2140,26.0
2141,-10.0
2142,-5.0
2143,0.0
2144,-10.0
2145,-10.0
2146,-5.0
2147,-10.0
2148,-10.0
2149,-9.0
2150,20.0
2151,0.0
2152,-10.0
2153,-15.0
2154,0.0
2155,-9.0
2156,52.0
2157,-9.0
2158,10.0
2159,1.0
2160,0.0
2161,0.0
2162,5.0
2163,-10.0
2164,-9.0
2165,0.0
2166,2.0
2167,-10.0
2168,-15.0
2169,20.0
2170,21.0
2171,20.0
2172,0.0
2173,20.0
2174,-14.0
2175,0.0
2176,61.0
2177,23.0
2178,2.0
2179,6.0
2180,-10.0
2181,-14.0
2182,-10.0
2183,-9.0
2184,15.0
2185,0.0
2186,-4.0
2187,46.0
2188,-9.0
2189,0.0
2190,25.0
2191,-9.0
2192,-9.0
2193,0.0
2194,-15.0
2195,-15.0
2196,-15.0
2197,-5.0
2198,5.0
2199,16.0
2200,21.0
2201,-4.0
2202,-10.0
2203,2.0
2204,58.0
2205,20.0
2206,5.0
2207,20.0
2208,-10.0
2209,55.0
2210,-5.0
2211,10.0
2212,-9.0
2213,7.0
2214,-9.0
2215,27.0
2216,-10.0
2217,51.0
2218,15.0
2219,1.0
2220,1.0
2221,29.0
2222,-10.0
2223,1.0
2224,-9.0
2225,17.0
2226,-9.0
2227,-4.0
2228,-14.0
2229,5.0
2230,-5.0
2231,-15.0
2232,20.0
2233,0.0
2234,21.0
2235,-10.0
2236,-9.0
2237,-10.0
2238,15.0
2239,0.0
2240,-15.0
2241,-10.0
2242,20.0
2243,5.0
2244,0.0
2245,5.0
2246,-10.0
2247,-10.0
2248,-10.0
2249,1.0
2250,-4.0
2251,22.0
2252,7.0
2253,20.0
2254,6.0
2255,-14.0
2256,-4.0
2257,-15.0
2258,-10.0
2259,1.0
2260,-10.0
2261,-10.0
2262,11.0
2263,-9.0
2264,0.0
2265,6.0
2266,20.0
2267,1.0
2268,20.0
2269,5.0
2270,-5.0
2271,-10.0
2272,-10.0
2273,0.0
2274,-3.0
2275,50.0
2276,-10.0
2277,-10.0
2278,20.0
2279,11.0
2280,-9.0
2281,1.0
2282,17.0
2283,-9.0
2284,25.0
2285,27.0
2286,17.0
2287,6.0
2288,-14.0
2289,43.0
2290,0.0
2291,6.0
2292,0.0
2293,-10.0
2294,33.0
2295,-4.0
2296,-10.0
2297,-4.0
2298,30.0
2299,-10.0
2300,-15.0
2301,-5.0
2302,-5.0
2303,-5.0
2304,26.0
2305,-9.0
2306,-9.0
2307,22.0
2308,26.0
2309,-10.0
2310,-5.0
2311,-9.0
2312,0.0
2313,-10.0
2314,-5.0
2315,-9.0
2316,-14.0
2317,20.0
2318,-15.0
2319,-10.0
2320,15.0
2321,-9.0
2322,0.0
2323,1.0
2324,-4.0
2325,15.0
2326,0.0
2327,6.0
2328,-4.0
2329,-9.0
2330,-4.0
2331,17.0
2332,5.0
2333,11.0
2334,20.0
2335,33.0
2336,20.0
2337,10.0
2338,7.0
2339,5.0
2340,7.0
2341,6.0
2342,0.0
2343,-10.0
2344,2.0
2345,25.0
2346,26.0
2347,-14.0
2348,24.0
2349,26.0
2350,5.0
2351,0.0
2352,-10.0
2353,-9.0
2354,23.0
2355,-10.0
2356,20.0
2357,0.0
2358,-15.0
2359,41.0
2360,15.0
2361,10.0
2362,25.0
2363,11.0
2364,-5.0
2365,25.0
2366,11.0
2367,-9.0
2368,-15.0
2369,10.0
2370,36.0
2371,21.0
2372,-4.0
2373,10.0
2374,53.0
2375,42.0
2376,20.0
2377,-5.0
2378,10.0
2379,-10.0
2380,-5.0
2381,-15.0
2382,-10.0
2383,-15.0
2384,31.0
2385,42.0
2386,21.0
2387,-10.0
2388,-4.0
2389,-15.0
2390,13.0
2391,-4.0
2392,-10.0
2393,6.0
2394,16.0
2395,5.0
2396,48.0
2397,-5.0
2398,-10.0
2399,5.0
2400,0.0
2401,0.0
2402,7.0
2403,-15.0
2404,-9.0
2405,-3.0
2406,-5.0
2407,-4.0
2408,27.0
2409,1.0
2410,-10.0
2411,2.0
2412,-9.0
2413,-10.0
2414,25.0
2415,5.0
2416,-8.0
2417,37.0
2418,0.0
2419,-15.0
2420,-10.0
2421,25.0
2422,25.0
2423,20.0
2424,18.0
2425,27.0
2426,0.0
2427,-5.0
2428,-9.0
2429,-9.0
2430,-14.0
2431,-4.0
2432,26.0
2433,-4.0
2434,-10.0
2435,5.0
2436,5.0
2437,-15.0
2438,15.0
2439,0.0
2440,5.0
2441,30.0
2442,-10.0
2443,37.0
2444,37.0
2445,13.0
2446,21.0
2447,-10.0
2448,-9.0
2449,1.0
2450,1.0
2451,0.0
2452,1.0
2453,10.0
2454,0.0
2455,17.0
2456,-10.0
2457,21.0
2458,-10.0
2459,1.0
2460,-15.0
2461,0.0
2462,-9.0
2463,6.0
2464,37.0
2465,-5.0
2466,5.0
2467,0.0
2468,1.0
2469,-5.0
2470,-4.0
2471,20.0
2472,-9.0
2473,8.0
2474,21.0
2475,25.0
2476,-10.0
2477,-10.0
2478,72.0
2479,26.0
2480,-15.0
2481,-15.0
2482,-10.0
2483,-10.0
2484,-10.0
2485,12.0
2486,-15.0
2487,-10.0
2488,-10.0
2489,0.0
2490,-10.0
2491,31.0
2492,0.0
2493,-10.0
2494,-9.0
2495,41.0
2496,-10.0
2497,-10.0
2498,-5.0
2499,-4.0
2500,5.0
2501,5.0
2502,-4.0
2503,1.0
2504,-9.0
2505,5.0
2506,1.0
2507,-9.0
2508,0.0
2509,-15.0
2510,-14.0
2511,40.0
2512,-5.0
2513,-3.0
2514,12.0
2515,20.0
2516,-15.0
2517,5.0
2518,25.0
2519,-9.0
2520,1.0
2521,10.0
2522,-5.0
2523,-9.0
2524,10.0
2525,11.0
2526,-9.0
2527,7.0
2528,-10.0
2529,-9.0
2530,-10.0
2531,-14.0
2532,15.0
2533,5.0
2534,20.0
2535,-3.0
2536,-4.0
2537,-10.0
2538,-10.0
2539,0.0
2540,-15.0
2541,-10.0
2542,-10.0
2543,-14.0
2544,-10.0
2545,7.0
2546,31.0
2547,-4.0
2548,24.0
2549,-10.0
2550,11.0
2551,-9.0
2552,-9.0
2553,-4.0
2554,22.0
2555,37.0
2556,-10.0
2557,2.0
2558,5.0
2559,0.0
2560,-10.0
2561,10.0
2562,21.0
2563,-10.0
2564,-10.0
2565,0.0
2566,20.0
2567,25.0
2568,-9.0
2569,-10.0
2570,6.0
2571,-9.0
2572,-15.0
2573,-5.0
2574,-14.0
2575,11.0
2576,0.0
2577,6.0
2578,-4.0
2579,40.0
2580,0.0
2581,22.0
2582,25.0
2583,-4.0
2584,47.0
2585,12.0
2586,17.0
2587,7.0
2588,-4.0
2589,-10.0
2590,6.0
2591,-10.0
2592,2.0
2593,30.0
2594,-5.0
2595,-9.0
2596,7.0
2597,-15.0
2598,-3.0
2599,-3.0
2600,-5.0
2601,15.0
2602,-15.0
2603,-10.0
2604,7.0
2605,6.0
2606,15.0
2607,-5.0
2608,16.0
2609,20.0
2610,-10.0
2611,21.0
2612,21.0
2613,-15.0
2614,-9.0
2615,1.0
2616,-10.0
2617,5.0
2618,30.0
2619,33.0
2620,-5.0
2621,-9.0
2622,17.0
2623,-10.0
2624,10.0
2625,0.0
2626,11.0
2627,-15.0
2628,-10.0
2629,0.0
2630,1.0
2631,-4.0
2632,21.0
2633,-5.0
2634,-10.0
2635,-14.0
2636,5.0
2637,23.0
2638,5.0
2639,-15.0
2640,5.0
2641,-5.0
2642,-3.0
2643,0.0
2644,-5.0
2645,-5.0
2646,-10.0
2647,1.0
2648,15.0
2649,6.0
2650,7.0
2651,21.0
2652,-5.0
2653,-15.0
2654,-5.0
2655,-9.0
2656,-9.0
2657,-9.0
2658,-4.0
2659,20.0
2660,16.0
2661,67.0
2662,11.0
2663,-10.0
2664,38.0
2665,31.0
2666,-15.0
2667,32.0
2668,0.0
2669,0.0
2670,36.0
2671,1.0
2672,5.0
2673,-9.0
2674,6.0
2675,0.0
2676,-10.0
2677,-9.0
2678,-9.0
2679,-8.0
2680,10.0
2681,-5.0
2682,3.0
2683,-9.0
2684,5.0
2685,0.0
2686,-5.0
2687,0.0
2688,-15.0
2689,-9.0
2690,32.0
2691,-3.0
2692,-9.0
2693,-15.0
2694,-10.0
2695,-15.0
2696,-10.0
2697,21.0
2698,5.0
2699,5.0
2700,-5.0
2701,-10.0
2702,20.0
2703,0.0
2704,-9.0
2705,37.0
2706,-10.0
2707,-10.0
2708,44.0
2709,-5.0
2710,-15.0
2711,5.0
2712,30.0
2713,32.0
2714,42.0
2715,10.0
2716,12.0
2717,1.0
2718,-10.0
2719,-15.0
2720,0.0
2721,12.0
2722,0.0
2723,-9.0
2724,11.0
2725,-5.0
2726,29.0
2727,-10.0
2728,-9.0
2729,-9.0
2730,-10.0
2731,36.0
2732,11.0
2733,-15.0
2734,-5.0
2735,-10.0
2736,16.0
2737,-10.0
2738,-10.0
2739,17.0
2740,28.0
2741,0.0
2742,2.0
2743,0.0
2744,-10.0
2745,2.0
2746,-3.0
2747,51.0
2748,0.0
2749,1.0
2750,-10.0
2751,15.0
2752,-15.0
2753,7.0
2754,46.0
2755,-10.0
2756,-10.0
2757,-4.0
2758,-15.0
2759,-4.0
2760,6.0
2761,16.0
2762,25.0
2763,0.0
2764,0.0
2765,0.0
2766,25.0
2767,-15.0
2768,25.0
2769,-5.0
2770,-4.0
2771,10.0
2772,20.0
2773,21.0
2774,15.0
2775,-5.0
2776,24.0
2777,-9.0
2778,-9.0
2779,25.0
2780,11.0
2781,-14.0
2782,30.0
2783,1.0
2784,-15.0
2785,0.0
2786,-9.0
2787,11.0
2788,-5.0
2789,16.0
2790,-10.0
2791,5.0
2792,2.0
2793,-5.0
2794,6.0
2795,17.0
2796,-9.0
2797,31.0
2798,60.0
2799,-15.0
2800,-4.0
2801,1.0
2802,6.0
2803,5.0
2804,21.0
2805,16.0
2806,11.0
2807,1.0
2808,-9.0
2809,33.0
2810,35.0
2811,37.0
2812,11.0
2813,-3.0
2814,0.0
2815,25.0
2816,-9.0
2817,1.0
2818,1.0
2819,52.0
2820,46.0
2821,15.0
2822,-10.0
2823,21.0
2824,21.0
2825,17.0
2826,-10.0
2827,10.0
2828,10.0
2829,0.0
2830,2.0
2831,-15.0
2832,-10.0
2833,7.0
2834,41.0
2835,-5.0
2836,-10.0
2837,-10.0
2838,-10.0
2839,-5.0
2840,-15.0
2841,0.0
2842,0.0
2843,-10.0
2844,-4.0
2845,1.0
2846,13.0
2847,-4.0
2848,-9.0
2849,1.0
2850,26.0
2851,1.0
2852,16.0
2853,10.0
2854,46.0
2855,-15.0
2856,30.0
2857,-4.0
2858,25.0
2859,25.0
2860,-9.0
2861,-8.0
2862,21.0
2863,21.0
2864,-15.0
2865,5.0
2866,-5.0
2867,-10.0
2868,-9.0
2869,5.0
2870,0.0
2871,-10.0
2872,10.0
2873,82.0
2874,21.0
2875,0.0
2876,-5.0
2877,-10.0
2878,20.0
2879,12.0
2880,10.0
2881,-10.0
2882,-4.0
2883,-2.0
2884,-10.0
2885,-10.0
2886,3.0
2887,-10.0
2888,-9.0
2889,35.0
2890,26.0
2891,-9.0
2892,-5.0
2893,-5.0
2894,-15.0
2895,-4.0
2896,-10.0
2897,10.0
2898,-15.0
2899,-10.0
2900,-5.0
2901,-10.0
2902,-5.0
2903,-10.0
2904,51.0
2905,-15.0
2906,-10.0
2907,5.0
2908,-9.0
2909,45.0
2910,0.0
2911,36.0
2912,-10.0
2913,20.0
2914,31.0
2915,-9.0
2916,15.0
2917,-10.0
2918,-10.0
2919,-15.0
2920,3.0
2921,-5.0
2922,31.0
2923,-10.0
2924,-10.0
2925,21.0
2926,-15.0
2927,-14.0
2928,15.0
2929,-5.0
2930,-10.0
2931,-10.0
2932,-15.0
2933,4.0
2934,-10.0
2935,-5.0
2936,-10.0
2937,-15.0
2938,28.0
2939,-15.0
2940,-10.0
2941,1.0
2942,-10.0
2943,11.0
2944,-10.0
2945,2.0
2946,0.0
2947,-5.0
2948,-5.0
2949,29.0
2950,11.0
2951,-2.0
2952,51.0
2953,6.0
2954,-15.0
2955,26.0
2956,28.0
2957,-9.0
2958,-10.0
2959,10.0
2960,-10.0
2961,-5.0
2962,11.0
2963,-5.0
2964,-10.0
2965,25.0
2966,0.0
2967,-15.0
2968,-9.0
2969,-9.0
2970,-5.0
2971,-10.0
2972,26.0
2973,-10.0
2974,30.0
2975,0.0
2976,-10.0
2977,1.0
2978,-5.0
2979,10.0
2980,0.0
2981,11.0
2982,7.0
2983,-5.0
2984,-15.0
2985,3.0
2986,26.0
2987,-9.0
2988,0.0
2989,-10.0
2990,-5.0
2991,-10.0
2992,-10.0
2993,-10.0
2994,-5.0
2995,-5.0
2996,-10.0
2997,-3.0
2998,-15.0
2999,0.0
3000,-10.0
3001,-10.0
3002,-4.0
3003,-9.0
3004,7.0
3005,-15.0
3006,15.0
3007,0.0
3008,-10.0
3009,22.0
3010,-15.0
3011,10.0
3012,43.0
3013,20.0
3014,-4.0
3015,32.0
3016,7.0
3017,-5.0
3018,20.0
3019,5.0
3020,-10.0
3021,0.0
3022,-9.0
3023,-15.0
3024,11.0
3025,-10.0
3026,50.0
3027,1.0
3028,-10.0
3029,-10.0
3030,11.0
3031,-9.0
3032,20.0
3033,-5.0
3034,22.0
3035,-15.0
3036,1.0
3037,10.0
3038,-9.0
3039,20.0
3040,-10.0
3041,-10.0
3042,21.0
3043,0.0
3044,30.0
3045,0.0
3046,0.0
3047,10.0
3048,0.0
3049,32.0
3050,16.0
3051,50.0
3052,-14.0
3053,-10.0
3054,-10.0
3055,-15.0
3056,-15.0
3057,-14.0
3058,2.0
3059,-10.0
3060,30.0
3061,-10.0
3062,0.0
3063,0.0
3064,52.0
3065,15.0
3066,-15.0
3067,-9.0
3068,60.0
3069,-14.0
3070,0.0
3071,20.0
3072,-5.0
3073,-10.0
3074,-14.0
3075,33.0
3076,-15.0
3077,-10.0
3078,-15.0
3079,-10.0
3080,-4.0
3081,26.0
3082,-9.0
3083,-10.0
3084,-10.0
3085,0.0
3086,-10.0
3087,-15.0
3088,-14.0
3089,-3.0
3090,10.0
3091,-4.0
3092,10.0
3093,-10.0
3094,-10.0
3095,-5.0
3096,22.0
3097,15.0
3098,1.0
3099,43.0
3100,0.0
3101,15.0
3102,-10.0
3103,-5.0
3104,-14.0
3105,27.0
3106,22.0
3107,-10.0
3108,-10.0
3109,5.0
3110,1.0
3111,27.0
3112,29.0
3113,-14.0
3114,20.0
3115,-15.0
3116,-5.0
3117,15.0
3118,-15.0
3119,-5.0
3120,3.0
3121,-5.0
3122,36.0
3123,12.0
3124,1.0
3125,-5.0
3126,-14.0
3127,-9.0
3128,-10.0
3129,-15.0
3130,25.0
3131,-10.0
3132,1.0
3133,0.0
3134,-3.0
3135,6.0
3136,-9.0
3137,-9.0
3138,-15.0
3139,1.0
3140,-4.0
3141,-5.0
3142,-10.0
3143,-10.0
3144,-15.0
3145,10.0
3146,-10.0
3147,40.0
3148,-8.0
3149,-10.0
3150,5.0
3151,10.0
3152,1.0
3153,-10.0
3154,11.0
3155,-5.0
3156,-10.0
3157,8.0
3158,-4.0
3159,-10.0
3160,-4.0
3161,5.0
3162,-5.0
3163,20.0
3164,-10.0
3165,15.0
3166,-5.0
3167,-4.0
3168,-10.0
3169,0.0
3170,-14.0
3171,-10.0
3172,60.0
3173,-10.0
3174,2.0
3175,0.0
3176,-10.0
3177,-14.0
3178,-5.0
3179,-15.0
3180,26.0
3181,-4.0
3182,0.0
3183,5.0
3184,22.0
3185,-10.0
3186,0.0
3187,-15.0
3188,-10.0
3189,-10.0
3190,-14.0
3191,11.0
3192,15.0
3193,-10.0
3194,1.0
3195,-10.0
3196,-4.0
3197,-15.0
3198,0.0
3199,33.0
3200,0.0
3201,-5.0
3202,10.0
3203,-14.0
3204,-14.0
3205,29.0
3206,31.0
3207,0.0
3208,32.0
3209,40.0
3210,15.0
3211,55.0
3212,-9.0
3213,-3.0
3214,6.0
3215,-10.0
3216,-10.0
3217,21.0
3218,-4.0
3219,11.0
3220,-4.0
3221,2.0
3222,0.0
3223,30.0
3224,14.0
3225,15.0
3226,8.0
3227,0.0
3228,-10.0
3229,-10.0
3230,-5.0
3231,-15.0
3232,0.0
3233,23.0
3234,50.0
3235,12.0
3236,10.0
3237,5.0
3238,12.0
3239,-10.0
3240,0.0
3241,30.0
3242,30.0
3243,-10.0
3244,30.0
3245,-9.0
3246,2.0
3247,1.0
3248,37.0
3249,20.0
3250,0.0
3251,51.0
3252,-10.0
3253,-10.0
3254,11.0
3255,-15.0
3256,0.0
3257,-10.0
3258,-15.0
3259,32.0
3260,10.0
3261,5.0
3262,-10.0
3263,6.0
3264,53.0
3265,2.0
3266,27.0
3267,23.0
3268,-4.0
3269,0.0
3270,31.0
3271,-10.0
3272,15.0
3273,-9.0
3274,-10.0
3275,-9.0
3276,1.0
3277,40.0
3278,-14.0
3279,-9.0
3280,42.0
3281,27.0
3282,-9.0
3283,60.0
3284,50.0
3285,2.0
3286,11.0
3287,0.0
3288,-10.0
3289,40.0
3290,-15.0
3291,10.0
3292,11.0
3293,-15.0
3294,0.0
3295,-15.0
3296,-10.0
3297,0.0
3298,2.0
3299,2.0
3300,-15.0
3301,34.0
3302,11.0
3303,-9.0
3304,0.0
3305,-4.0
3306,16.0
3307,-4.0
3308,-4.0
3309,1.0
3310,-10.0
3311,10.0
3312,-10.0
3313,-9.0
3314,-14.0
3315,10.0
3316,6.0
3317,56.0
3318,27.0
3319,-15.0
3320,-5.0
3321,6.0
3322,10.0
3323,30.0
3324,1.0
3325,1.0
3326,-9.0
3327,-15.0
3328,1.0
3329,0.0
3330,1.0
3331,36.0
3332,-15.0
3333,37.0
3334,0.0
3335,20.0
3336,21.0
3337,-10.0
3338,20.0
3339,36.0
3340,11.0
3341,5.0
3342,35.0
3343,5.0
3344,10.0
3345,-5.0
3346,-5.0
3347,10.0
3348,5.0
3349,-10.0
3350,-3.0
3351,-14.0
3352,11.0
3353,-10.0
3354,13.0
3355,11.0
3356,15.0
3357,-10.0
3358,-9.0
3359,-10.0
3360,15.0
3361,-10.0
3362,5.0
3363,27.0
3364,-10.0
3365,16.0
3366,-10.0
3367,21.0
3368,-15.0
3369,-10.0
3370,31.0
3371,15.0
3372,1.0
3373,-5.0
3374,-15.0
3375,-10.0
3376,10.0
3377,21.0
3378,-4.0
3379,12.0
3380,70.0
3381,7.0
3382,47.0
3383,-10.0
3384,-4.0
3385,-10.0
3386,-10.0
3387,0.0
3388,25.0
3389,10.0
3390,0.0
3391,-14.0
3392,20.0
3393,45.0
3394,21.0
3395,-10.0
3396,5.0
3397,-10.0
3398,58.0
3399,17.0
3400,10.0
3401,-4.0
3402,-10.0
3403,-4.0
3404,-15.0
3405,-9.0
3406,12.0
3407,-10.0
3408,6.0
3409,-10.0
3410,11.0
3411,10.0
3412,-4.0
3413,10.0
3414,16.0
3415,20.0
3416,-15.0
3417,22.0
3418,20.0
3419,-15.0
3420,-15.0
3421,30.0
3422,0.0
3423,20.0
3424,5.0
3425,0.0
3426,10.0
3427,-14.0
3428,-10.0
3429,1.0
3430,-5.0
3431,0.0
3432,-5.0
3433,2.0
3434,1.0
3435,17.0
3436,20.0
3437,0.0
3438,-5.0
3439,0.0
3440,-4.0
3441,-3.0
3442,1.0
3443,-10.0
3444,1.0
3445,-10.0
3446,35.0
3447,1.0
3448,25.0
3449,-9.0
3450,-5.0
3451,-10.0
3452,-2.0
3453,-4.0
3454,25.0
3455,-5.0
3456,12.0
3457,-5.0
3458,-10.0
3459,22.0
3460,20.0
3461,1.0
3462,-4.0
3463,0.0
3464,6.0
3465,7.0
3466,-4.0
3467,-9.0
3468,-14.0
3469,35.0
3470,0.0
3471,41.0
3472,-5.0
3473,1.0
3474,10.0
3475,-5.0
3476,0.0
3477,2.0
3478,1.0
3479,-4.0
3480,-9.0
3481,10.0
3482,-10.0
3483,-10.0
3484,10.0
3485,-10.0
3486,-10.0
3487,20.0
3488,-5.0
3489,-10.0
3490,-10.0
3491,5.0
3492,-10.0
3493,-5.0
3494,-10.0
3495,5.0
3496,-10.0
3497,-9.0
3498,-15.0
3499,-9.0
3500,31.0
3501,-10.0
3502,-3.0
3503,3.0
3504,-9.0
3505,3.0
3506,-9.0
3507,-15.0
3508,30.0
3509,-4.0
3510,-10.0
3511,6.0
3512,-10.0
3513,-10.0
3514,5.0
3515,-15.0
3516,-9.0
3517,20.0
3518,30.0
3519,-10.0
3520,-5.0
3521,-10.0
3522,16.0
3523,-5.0
3524,-15.0
3525,-15.0
3526,23.0
3527,-9.0
3528,10.0
3529,-15.0
3530,-15.0
3531,36.0
3532,0.0
3533,-14.0
3534,-5.0
3535,18.0
3536,11.0
3537,23.0
3538,0.0
3539,-9.0
3540,15.0
3541,-14.0
3542,-4.0
3543,-9.0
3544,11.0
3545,-10.0
3546,-5.0
3547,-5.0
3548,-10.0
3549,10.0
3550,0.0
3551,-5.0
3552,-10.0
3553,1.0
3554,30.0
3555,-14.0
3556,-10.0
3557,7.0
3558,-10.0
3559,-15.0
3560,53.0
3561,-10.0
3562,1.0
3563,-3.0
3564,23.0
3565,11.0
3566,5.0
3567,-9.0
3568,0.0
3569,36.0
3570,16.0
3571,27.0
3572,-4.0
3573,-15.0
3574,75.0
3575,15.0
3576,-10.0
3577,6.0
3578,-10.0
3579,11.0
3580,-14.0
3581,22.0
3582,-10.0
3583,-5.0
3584,-15.0
3585,5.0
3586,-10.0
3587,-10.0
3588,10.0
3589,5.0
3590,-10.0
3591,-5.0
3592,10.0
3593,0.0
3594,-15.0
3595,-2.0
3596,-5.0
3597,-10.0
3598,-10.0
3599,-15.0
3600,0.0
3601,0.0
3602,-10.0
3603,26.0
3604,-15.0
3605,-10.0
3606,20.0
3607,5.0
3608,21.0
3609,-10.0
3610,-14.0
3611,8.0
3612,-4.0
3613,-5.0
3614,-10.0
3615,-5.0
3616,0.0
3617,10.0
3618,54.0
3619,10.0
3620,21.0
3621,0.0
3622,-9.0
3623,-5.0
3624,12.0
3625,-10.0
3626,12.0
3627,6.0
3628,-9.0
3629,-10.0
3630,-15.0
3631,-10.0
3632,-10.0
3633,-10.0
3634,-15.0
3635,10.0
3636,53.0
3637,-10.0
3638,-9.0
3639,21.0
3640,21.0
3641,-15.0
3642,20.0
3643,-15.0
3644,-15.0
3645,-10.0
3646,10.0
3647,11.0
3648,10.0
3649,5.0
3650,-15.0
3651,-9.0
3652,-10.0
3653,1.0
3654,7.0
3655,54.0
3656,-15.0
3657,6.0
3658,11.0
3659,33.0
3660,-10.0
3661,-15.0
3662,-5.0
3663,5.0
3664,0.0
3665,-10.0
3666,-10.0
3667,1.0
3668,-14.0
3669,10.0
3670,-15.0
3671,1.0
3672,10.0
3673,36.0
3674,1.0
3675,-10.0
3676,20.0
3677,30.0
3678,-10.0
3679,-4.0
3680,-15.0
3681,-10.0
3682,41.0
3683,0.0
3684,-15.0
3685,1.0
3686,-9.0
3687,-4.0
3688,-10.0
3689,-9.0
3690,0.0
3691,40.0
3692,1.0
3693,0.0
3694,-10.0
3695,8.0
3696,-15.0
3697,-10.0
3698,-9.0
3699,22.0
3700,21.0
3701,-10.0
3702,37.0
3703,15.0
3704,7.0
3705,-9.0
3706,-14.0
3707,0.0
3708,-15.0
3709,5.0
3710,-9.0
3711,-10.0
3712,-15.0
3713,-10.0
3714,-10.0
3715,-10.0
3716,-15.0
3717,36.0
3718,-10.0
3719,-10.0
3720,-14.0
3721,10.0
3722,0.0
3723,-10.0
3724,-5.0
3725,-4.0
3726,-3.0
3727,-15.0
3728,11.0
3729,1.0
3730,16.0
3731,5.0
3732,37.0
3733,-10.0
3734,6.0
3735,-5.0
3736,7.0
3737,47.0
3738,20.0
3739,15.0
3740,42.0
3741,-10.0
3742,-10.0
3743,-9.0
3744,2.0
3745,30.0
3746,11.0
3747,-15.0
3748,-3.0
3749,7.0
3750,54.0
3751,-4.0
3752,26.0
3753,6.0
3754,-15.0
3755,-5.0
3756,0.0
3757,-10.0
3758,-14.0
3759,50.0
3760,2.0
3761,-10.0
3762,-14.0
3763,-9.0
3764,-4.0
3765,-10.0
3766,23.0
3767,10.0
3768,30.0
3769,-15.0
3770,-10.0
3771,0.0
3772,37.0
3773,5.0
3774,-10.0
3775,10.0
3776,30.0
3777,10.0
3778,-5.0
3779,-5.0
3780,-4.0
3781,11.0
3782,-10.0
3783,-15.0
3784,1.0
3785,-10.0
3786,-5.0
3787,0.0
3788,-15.0
3789,6.0
3790,7.0
3791,1.0
3792,-5.0
3793,12.0
3794,-10.0
3795,-10.0
3796,5.0
3797,11.0
3798,45.0
3799,26.0
3800,0.0
3801,12.0
3802,-10.0
3803,-10.0
3804,25.0
3805,2.0
3806,-15.0
3807,-15.0
3808,23.0
3809,-10.0
3810,-5.0
3811,-10.0
3812,-5.0
3813,0.0
3814,2.0
3815,10.0
3816,0.0
3817,-4.0
3818,-10.0
3819,6.0
3820,1.0
3821,6.0
3822,10.0
3823,26.0
3824,-9.0
3825,-9.0
3826,29.0
3827,-5.0
3828,-15.0
3829,-15.0
3830,-15.0
3831,10.0
3832,-4.0
3833,42.0
3834,-9.0
3835,1.0
3836,-5.0
3837,6.0
3838,0.0
3839,0.0
3840,-15.0
3841,36.0
3842,10.0
3843,0.0
3844,10.0
3845,20.0
3846,32.0
3847,-9.0
3848,30.0
3849,21.0
3850,0.0
3851,6.0
3852,11.0
3853,7.0
3854,-5.0
3855,32.0
3856,0.0
3857,0.0
3858,10.0
3859,-14.0
3860,43.0
3861,25.0
3862,41.0
3863,-10.0
3864,-10.0
3865,-5.0
3866,-3.0
3867,-10.0
3868,-5.0
3869,31.0
3870,30.0
3871,-10.0
3872,20.0
3873,0.0
3874,-10.0
3875,-10.0
3876,1.0
3877,-15.0
3878,10.0
3879,-14.0
3880,26.0
3881,0.0
3882,10.0
3883,0.0
3884,-10.0
3885,-15.0
3886,0.0
3887,13.0
3888,-10.0
3889,0.0
3890,-9.0
3891,-10.0
3892,-9.0
3893,-10.0
3894,0.0
3895,0.0
3896,-15.0
3897,-5.0
3898,10.0
3899,-10.0
3900,-10.0
3901,5.0
3902,30.0
3903,27.0
3904,5.0
3905,0.0
3906,-10.0
3907,5.0
3908,10.0
3909,-15.0
3910,34.0
3911,6.0
3912,0.0
3913,-5.0
3914,-10.0
3915,11.0
3916,16.0
3917,0.0
3918,21.0
3919,1.0
3920,-15.0
3921,-15.0
3922,-10.0
3923,0.0
3924,11.0
3925,-5.0
3926,-10.0
3927,-4.0
3928,-10.0
3929,1.0
3930,-9.0
3931,-5.0
3932,1.0
3933,-9.0
3934,-15.0
3935,-10.0
3936,12.0
3937,1.0
3938,-9.0
3939,-10.0
3940,20.0
3941,-4.0
3942,-15.0
3943,0.0
3944,5.0
3945,11.0
3946,36.0
3947,-9.0
3948,-15.0
3949,25.0
3950,10.0
3951,-10.0
3952,-10.0
3953,0.0
3954,-10.0
3955,22.0
3956,26.0
3957,1.0
3958,35.0
3959,10.0
3960,-9.0
3961,51.0
3962,-9.0
3963,-10.0
3964,-10.0
3965,-10.0
3966,16.0
3967,7.0
3968,5.0
3969,11.0
3970,-5.0
3971,-15.0
3972,0.0
3973,-10.0
3974,1.0
3975,21.0
3976,-10.0
3977,-5.0
3978,71.0
3979,31.0
3980,-15.0
3981,12.0
3982,2.0
3983,-5.0
3984,21.0
3985,0.0
3986,-9.0
3987,-5.0
3988,41.0
3989,-4.0
3990,-9.0
3991,6.0
3992,1.0
3993,45.0
3994,-5.0
3995,-15.0
3996,-10.0
3997,34.0
3998,0.0
3999,0.0
4000,30.0
4001,-10.0
4002,41.0
4003,2.0
4004,5.0
4005,-10.0
4006,-9.0
4007,20.0
4008,-5.0
4009,-8.0
4010,26.0
4011,1.0
4012,25.0
4013,5.0
4014,-5.0
4015,-5.0
4016,-5.0
4017,-4.0
4018,21.0
4019,-15.0
4020,12.0
4021,11.0
4022,-14.0
4023,-10.0
4024,-10.0
4025,-4.0
4026,-9.0
4027,0.0
4028,-10.0
4029,5.0
4030,15.0
4031,-5.0
4032,-10.0
4033,5.0
4034,16.0
4035,6.0
4036,-15.0
4037,-9.0
4038,27.0
4039,15.0
4040,-9.0
4041,-15.0
4042,2.0
4043,-9.0
4044,-15.0
4045,-9.0
4046,52.0
4047,-15.0
4048,0.0
4049,-10.0
4050,0.0
4051,-10.0
4052,-5.0
4053,10.0
4054,-10.0
4055,5.0
4056,-10.0
4057,5.0
4058,-10.0
4059,-9.0
4060,-10.0
4061,-10.0
4062,-14.0
4063,-4.0
4064,-10.0
4065,-4.0
4066,0.0
4067,-5.0
4068,1.0
4069,1.0
4070,0.0
4071,10.0
4072,-15.0
4073,-10.0
4074,20.0
4075,-10.0
4076,0.0
4077,-9.0
4078,10.0
4079,-5.0
4080,-14.0
4081,-15.0
4082,-10.0
4083,22.0
4084,-9.0
4085,23.0
4086,2.0
4087,-10.0
4088,-14.0
4089,22.0
4090,-9.0
4091,0.0
4092,-15.0
4093,-9.0
4094,10.0
4095,-5.0
4096,1.0
4097,-4.0
4098,-10.0
4099,11.0
4100,27.0
4101,2.0
4102,-10.0
4103,1.0
4104,2.0
4105,52.0
4106,-10.0
4107,-10.0
4108,-5.0
4109,-10.0
4110,25.0
4111,0.0
4112,26.0
4113,-4.0
4114,-9.0
4115,-5.0
4116,1.0
4117,-10.0
4118,11.0
4119,20.0
4120,25.0
4121,16.0
4122,-10.0
4123,5.0
4124,26.0
4125,-15.0
4126,-10.0
4127,40.0
4128,-5.0
4129,0.0
4130,-15.0
4131,21.0
4132,12.0
4133,15.0
4134,-10.0
4135,-9.0
4136,0.0
4137,-9.0
4138,0.0
4139,-4.0
4140,15.0
4141,24.0
4142,-10.0
4143,-15.0
4144,40.0
4145,2.0
4146,0.0
4147,-15.0
4148,10.0
4149,0.0
4150,65.0
4151,5.0
4152,-5.0
4153,-15.0
4154,-15.0
4155,15.0
4156,-10.0
4157,11.0
4158,-10.0
4159,-10.0
4160,-10.0
4161,0.0
4162,-10.0
4163,-8.0
4164,50.0
4165,-4.0
4166,-9.0
4167,-10.0
4168,1.0
4169,0.0
4170,-4.0
4171,-5.0
4172,17.0
4173,21.0
4174,-5.0
4175,-14.0
4176,42.0
4177,-15.0
4178,11.0
4179,-4.0
4180,-10.0
4181,-5.0
4182,1.0
4183,7.0
4184,-10.0
4185,2.0
4186,-4.0
4187,16.0
4188,-15.0
4189,31.0
4190,-5.0
4191,1.0
4192,15.0
4193,8.0
4194,-10.0
4195,0.0
4196,0.0
4197,-9.0
4198,-15.0
4199,-15.0
4200,0.0
4201,5.0
4202,-10.0
4203,16.0
4204,13.0
4205,40.0
4206,15.0
4207,10.0
4208,-9.0
4209,15.0
4210,11.0
4211,-10.0
4212,20.0
4213,2.0
4214,-4.0
4215,11.0
4216,-9.0
4217,35.0
4218,-9.0
4219,5.0
4220,10.0
4221,15.0
4222,-3.0
4223,21.0
4224,0.0
4225,0.0
4226,30.0
4227,-9.0
4228,0.0
4229,42.0
4230,20.0
4231,45.0
4232,-15.0
4233,16.0
4234,18.0
4235,5.0
4236,1.0
4237,-5.0
4238,-5.0
4239,-15.0
4240,-9.0
4241,-9.0
4242,-10.0
4243,-10.0
4244,1.0
4245,10.0
4246,-5.0
4247,20.0
4248,6.0
4249,-5.0
4250,16.0
4251,34.0
4252,10.0
4253,-10.0
4254,25.0
4255,15.0
4256,-3.0
4257,21.0
4258,-9.0
4259,-10.0
4260,0.0
4261,0.0
4262,-10.0
4263,5.0
4264,-9.0
4265,-10.0
4266,21.0
4267,16.0
4268,5.0
4269,23.0
4270,-3.0
4271,0.0
4272,-8.0
4273,15.0
4274,27.0
4275,-9.0
4276,6.0
4277,-10.0
4278,1.0
4279,-9.0
4280,-10.0
4281,1.0
4282,35.0
4283,0.0
4284,12.0
4285,25.0
4286,50.0
4287,25.0
4288,-5.0
4289,-10.0
4290,6.0
4291,-4.0
4292,-9.0
4293,31.0
4294,-15.0
4295,-10.0
4296,-10.0
4297,1.0
4298,-9.0
4299,1.0
4300,-5.0
4301,21.0
4302,-10.0
4303,1.0
4304,-9.0
4305,0.0
4306,20.0
4307,15.0
4308,0.0
4309,1.0
4310,0.0
4311,-5.0
4312,10.0
4313,0.0
4314,20.0
4315,36.0
4316,-5.0
4317,37.0
4318,-10.0
4319,-4.0
4320,-10.0
4321,-10.0
4322,-10.0
4323,-14.0
4324,-15.0
4325,-5.0
4326,-5.0
4327,-10.0
4328,22.0
4329,-15.0
4330,6.0
4331,0.0
4332,10.0
4333,12.0
4334,22.0
4335,10.0
4336,-9.0
4337,44.0
4338,17.0
4339,-5.0
4340,-5.0
4341,-9.0
4342,-15.0
4343,20.0
4344,-5.0
4345,-10.0
4346,25.0
4347,-9.0
4348,-10.0
4349,-9.0
4350,45.0
4351,-9.0
4352,-10.0
4353,-10.0
4354,-15.0
4355,0.0
4356,-5.0
4357,5.0
4358,-5.0
4359,-14.0
4360,11.0
4361,0.0
4362,6.0
4363,-5.0
4364,-9.0
4365,-10.0
4366,2.0
4367,5.0
4368,1.0
4369,-15.0
4370,-5.0
4371,1.0
4372,-15.0
4373,23.0
4374,0.0
4375,-14.0
4376,-5.0
4377,-5.0
4378,16.0
4379,0.0
4380,-15.0
4381,-9.0
4382,-9.0
4383,-15.0
4384,6.0
4385,13.0
4386,14.0
4387,5.0
4388,0.0
4389,-10.0
4390,-15.0
4391,-14.0
4392,-10.0
4393,5.0
4394,-15.0
4395,26.0
4396,-5.0
4397,-10.0
4398,36.0
4399,11.0
4400,-15.0
4401,0.0
4402,6.0
4403,-15.0
4404,-15.0
4405,-10.0
4406,26.0
4407,-5.0
4408,16.0
4409,11.0
4410,-9.0
4411,-15.0
4412,-10.0
4413,-10.0
4414,1.0
4415,-15.0
4416,7.0
4417,-15.0
4418,-10.0
4419,30.0
4420,-9.0
4421,-5.0
4422,10.0
4423,-10.0
4424,-10.0
4425,-4.0
4426,5.0
4427,-15.0
4428,1.0
4429,-5.0
4430,-9.0
4431,14.0
4432,-4.0
4433,0.0
4434,-4.0
4435,40.0
4436,31.0
4437,5.0
4438,-10.0
4439,5.0
4440,20.0
4441,25.0
4442,-10.0
4443,-4.0
4444,10.0
4445,0.0
4446,22.0
4447,25.0
4448,20.0
4449,-10.0
4450,-4.0
4451,22.0
4452,20.0
4453,26.0
4454,6.0
4455,-4.0
4456,13.0
4457,15.0
4458,-4.0
4459,-10.0
4460,32.0
4461,0.0
4462,-10.0
4463,0.0
4464,8.0
4465,-9.0
4466,20.0
4467,-14.0
4468,0.0
4469,-15.0
4470,-15.0
4471,6.0
4472,-15.0
4473,-4.0
4474,-10.0
4475,16.0
4476,30.0
4477,-10.0
4478,-8.0
4479,11.0
4480,10.0
4481,-9.0
4482,11.0
4483,-15.0
4484,0.0
4485,16.0
4486,-15.0
4487,-5.0
4488,-10.0
4489,-4.0
4490,-5.0
4491,6.0
4492,10.0
4493,44.0
4494,35.0
4495,-9.0
4496,-10.0
4497,-5.0
4498,20.0
4499,1.0
4500,1.0
4501,18.0
4502,35.0
4503,6.0
4504,23.0
4505,35.0
4506,-9.0
4507,-10.0
4508,35.0
4509,5.0
4510,-5.0
4511,18.0
4512,-15.0
4513,55.0
4514,0.0
4515,0.0
4516,-5.0
4517,6.0
4518,25.0
4519,-14.0
4520,23.0
4521,-10.0
4522,0.0
4523,-14.0
4524,-15.0
4525,-10.0
4526,1.0
4527,6.0
4528,0.0
4529,10.0
4530,16.0
4531,10.0
4532,20.0
4533,10.0
4534,2.0
4535,-9.0
4536,21.0
4537,-4.0
4538,35.0
4539,-3.0
4540,0.0
4541,-15.0
4542,31.0
4543,-10.0
4544,30.0
4545,-10.0
4546,0.0
4547,-10.0
4548,-15.0
4549,30.0
4550,-5.0
4551,27.0
4552,67.0
4553,10.0
4554,32.0
4555,-9.0
4556,-5.0
4557,10.0
4558,-10.0
4559,10.0
4560,-10.0
4561,-15.0
4562,10.0
4563,-5.0
4564,12.0
4565,-14.0
4566,-15.0
4567,-15.0
4568,0.0
4569,-9.0
4570,5.0
4571,-9.0
4572,40.0
4573,21.0
4574,-10.0
4575,-15.0
4576,16.0
4577,-15.0
4578,1.0
4579,-15.0
4580,-9.0
4581,17.0
4582,10.0
4583,-9.0
4584,-3.0
4585,-10.0
4586,-14.0
4587,-5.0
4588,-15.0
4589,13.0
4590,-3.0
4591,-8.0
4592,41.0
4593,-10.0
4594,24.0
4595,-5.0
4596,1.0
4597,-10.0
4598,-10.0
4599,-10.0
4600,-4.0
4601,1.0
4602,7.0
4603,-14.0
4604,-15.0
4605,-9.0
4606,15.0
4607,30.0
4608,22.0
4609,0.0
4610,-10.0
4611,-15.0
4612,-5.0
4613,5.0
4614,-10.0
4615,-5.0
4616,8.0
4617,35.0
4618,0.0
4619,63.0
4620,1.0
4621,-10.0
4622,-15.0
4623,1.0
4624,-9.0
4625,-10.0
4626,-15.0
4627,-9.0
4628,-10.0
4629,25.0
4630,52.0
4631,-10.0
4632,11.0
4633,20.0
4634,-10.0
4635,-5.0
4636,-10.0
4637,-10.0
4638,-10.0
4639,15.0
4640,-10.0
4641,-10.0
4642,-10.0
4643,-9.0
4644,0.0
4645,7.0
4646,6.0
4647,-14.0
4648,5.0
4649,1.0
4650,-4.0
4651,-10.0
4652,-10.0
4653,35.0
4654,27.0
4655,5.0
4656,10.0
4657,-15.0
4658,10.0
4659,-10.0
4660,56.0
4661,6.0
4662,-5.0
4663,-5.0
4664,-9.0
4665,1.0
4666,5.0
4667,-5.0
4668,-10.0
4669,-10.0
4670,-14.0
4671,0.0
4672,35.0
4673,-8.0
4674,10.0
4675,-15.0
4676,5.0
4677,-15.0
4678,26.0
4679,-10.0
4680,-3.0
4681,-10.0
4682,-4.0
4683,-15.0
4684,-5.0
4685,37.0
4686,-9.0
4687,-14.0
4688,-5.0
4689,0.0
4690,10.0
4691,1.0
4692,0.0
4693,1.0
4694,16.0
4695,-5.0
4696,-9.0
4697,6.0
4698,7.0
4699,25.0
4700,0.0
4701,0.0
4702,-10.0
4703,11.0
4704,30.0
4705,-15.0
4706,22.0
4707,-9.0
4708,21.0
4709,-5.0
4710,-10.0
4711,-4.0
4712,-10.0
4713,-10.0
4714,5.0
4715,-5.0
4716,28.0
4717,-5.0
4718,15.0
4719,6.0
4720,5.0
4721,-5.0
4722,-15.0
4723,-15.0
4724,3.0
4725,8.0
4726,-3.0
4727,-15.0
4728,-9.0
4729,-9.0
4730,-5.0
4731,-5.0
4732,15.0
4733,-10.0
4734,5.0
4735,-15.0
4736,-5.0
4737,-10.0
4738,2.0
4739,-15.0
4740,-5.0
4741,1.0
4742,46.0
4743,-4.0
4744,37.0
4745,-4.0
4746,1.0
4747,-5.0
4748,47.0
4749,-9.0
4750,-9.0
4751,7.0
4752,25.0
4753,2.0
4754,5.0
4755,-5.0
4756,-8.0
4757,-9.0
4758,1.0
4759,7.0
4760,11.0
4761,11.0
4762,1.0
4763,-10.0
4764,0.0
4765,-5.0
4766,-4.0
4767,-9.0
4768,-10.0
4769,-15.0
4770,2.0
4771,5.0
4772,-9.0
4773,-9.0
4774,-5.0
4775,34.0
4776,-9.0
4777,-15.0
4778,-10.0
4779,11.0
4780,49.0
4781,0.0
4782,-10.0
4783,2.0
4784,-15.0
4785,15.0
4786,-5.0
4787,-4.0
4788,30.0
4789,-10.0
4790,20.0
4791,-15.0
4792,-10.0
4793,-15.0
4794,-4.0
4795,-10.0
4796,-4.0
4797,23.0
4798,22.0
4799,0.0
4800,15.0
4801,0.0
4802,-15.0
4803,-15.0
4804,5.0
4805,26.0
4806,5.0
4807,-9.0
4808,12.0
4809,-5.0
4810,-15.0
4811,0.0
4812,20.0
4813,0.0
4814,28.0
4815,-15.0
4816,49.0
4817,45.0
4818,-4.0
4819,-10.0
4820,-10.0
4821,15.0
4822,1.0
4823,-9.0
4824,-15.0
4825,-10.0
4826,0.0
4827,5.0
4828,-10.0
4829,-9.0
4830,-10.0
4831,26.0
4832,16.0
4833,37.0
4834,-9.0
4835,-5.0
4836,21.0
4837,10.0
4838,-5.0
4839,21.0
4840,-5.0
4841,1.0
4842,27.0
4843,11.0
4844,55.0
4845,8.0
4846,-15.0
4847,-10.0
4848,-10.0
4849,-9.0
4850,-9.0
4851,-10.0
4852,24.0
4853,-9.0
4854,-10.0
4855,0.0
4856,-14.0
4857,10.0
4858,0.0
4859,-14.0
4860,-10.0
4861,31.0
4862,-10.0
4863,0.0
4864,-10.0
4865,5.0
4866,-5.0
4867,15.0
4868,29.0
4869,20.0
4870,10.0
4871,-15.0
4872,-10.0
4873,-9.0
4874,-10.0
4875,16.0
4876,32.0
4877,-5.0
4878,-10.0
4879,6.0
4880,6.0
4881,-10.0
4882,-9.0
4883,-10.0
4884,-10.0
4885,-9.0
4886,6.0
4887,-10.0
4888,-9.0
4889,-15.0
4890,20.0
4891,10.0
4892,-9.0
4893,-4.0
4894,-10.0
4895,5.0
4896,-4.0
4897,-15.0
4898,-14.0
4899,-14.0
4900,16.0
4901,0.0
4902,1.0
4903,11.0
4904,-9.0
4905,21.0
4906,6.0
4907,22.0
4908,-10.0
4909,32.0
4910,-15.0
4911,-15.0
4912,-4.0
4913,-10.0
4914,5.0
4915,25.0
4916,-5.0
4917,-10.0
4918,30.0
4919,35.0
4920,0.0
4921,-9.0
4922,16.0
4923,-5.0
4924,26.0
4925,5.0
4926,6.0
4927,-7.0
4928,-5.0
4929,5.0
4930,0.0
4931,7.0
4932,0.0
4933,-5.0
4934,-10.0
4935,0.0
4936,10.0
4937,35.0
4938,-15.0
4939,-10.0
4940,-4.0
4941,-15.0
4942,-5.0
4943,20.0
4944,26.0
4945,-10.0
4946,6.0
4947,-15.0
4948,-5.0
4949,-9.0
4950,0.0
4951,-5.0
4952,-10.0
4953,-10.0
4954,-10.0
4955,-9.0
4956,-4.0
4957,-5.0
4958,5.0
4959,-14.0
4960,-10.0
4961,0.0
4962,47.0
4963,-10.0
4964,51.0
4965,-10.0
4966,12.0
4967,21.0
4968,-10.0
4969,-4.0
4970,17.0
4971,-9.0
4972,-5.0
4973,-15.0
4974,-9.0
4975,11.0
4976,-10.0
4977,-9.0
4978,11.0
4979,21.0
4980,-15.0
4981,0.0
4982,-5.0
4983,46.0
4984,20.0
4985,-5.0
4986,-10.0
4987,11.0
4988,1.0
4989,16.0
4990,-15.0
4991,-4.0
4992,-5.0
4993,-15.0
4994,-9.0
4995,-10.0
4996,1.0
4997,-9.0
4998,-5.0
4999,0.0
5000,-4.0
