episode,return
1,-15.0
2,-5.0
3,-15.0
4,-9.0
5,-15.0
6,-15.0
7,-15.0
8,-5.0
9,-15.0
10,-15.0
11,-10.0
12,-15.0
13,-10.0
14,-15.0
15,-10.0
16,-10.0
17,-9.0
18,-15.0
19,-15.0
20,-10.0
21,-10.0
22,-15.0
23,-10.0
24,-14.0
25,-15.0
26,-15.0
27,-15.0
28,-15.0
29,-15.0
30,-15.0
31,-9.0
32,-15.0
33,-15.0
34,-15.0
35,-15.0
36,-15.0
37,-15.0
38,-15.0
39,-15.0
40,-15.0
41,-15.0
42,-15.0
43,-15.0
44,-15.0
45,-15.0
46,-15.0
47,-15.0
48,-15.0
49,-15.0
50,-15.0
51,-14.0
52,-15.0
53,-14.0
54,-14.0
55,-15.0
56,-15.0
57,-15.0
58,-15.0
59,-15.0
60,-15.0
61,-15.0
62,-15.0
63,-15.0
64,-15.0
65,-15.0
66,-15.0
67,-15.0
68,-15.0
69,-15.0
70,-10.0
71,-15.0
72,-10.0
73,-15.0
74,-10.0
75,-10.0
76,-15.0
77,-15.0
78,-15.0
79,-10.0
80,-9.0
81,-10.0
82,-15.0
83,-10.0
84,-9.0
85,-10.0
86,-10.0
87,-10.0
88,-10.0
89,-10.0
90,-10.0
91,-10.0
92,-10.0
93,-15.0
94,-15.0
95,-10.0
96,-15.0
97,-10.0
98,-10.0
99,-15.0
100,-10.0
101,-10.0
102,-10.0
103,-10.0
104,-10.0
105,-15.0
106,-9.0
107,-10.0
108,-15.0
109,-10.0
110,-10.0
111,-10.0
112,-15.0
113,-10.0
114,-10.0
115,-10.0
116,-10.0
117,-15.0
118,-10.0
119,-10.0
120,-9.0
121,-10.0
122,-10.0
123,-10.0
124,-10.0
125,-15.0
126,-15.0
127,-9.0
128,-15.0
129,-14.0
130,-9.0
131,-10.0
132,-10.0
133,-15.0
134,-10.0
135,-10.0
136,-10.0
137,-14.0
138,-9.0
139,-10.0
140,-15.0
141,-15.0
142,-10.0
143,-10.0
144,-9.0
145,-15.0
146,-9.0
147,-15.0
148,-15.0
149,-15.0
150,-10.0
151,-15.0
152,-15.0
153,-10.0
154,-15.0
155,-15.0
156,-15.0
157,-15.0
158,-15.0
159,-15.0
160,-15.0
161,-15.0
162,-15.0
163,-15.0
164,-15.0
165,-15.0
166,-15.0
167,-15.0
168,-15.0
169,-15.0
170,-15.0
171,-15.0
172,-15.0
173,-15.0
174,-15.0
175,-15.0
176,-15.0
177,-15.0
178,-15.0
179,-15.0
180,-15.0
181,-15.0
182,-15.0
183,-15.0
184,-15.0
185,-15.0
186,-15.0
187,-15.0
188,-14.0
189,-15.0
190,-15.0
191,-15.0
192,-15.0
193,-15.0
194,-15.0
195,-15.0
196,-15.0
197,-15.0
198,-15.0
199,-15.0
200,-15.0
201,-15.0
202,-15.0
203,-15.0
204,-15.0
205,-15.0
206,-15.0
207,-15.0
208,-15.0
209,-15.0
210,-15.0
211,-15.0
212,-15.0
213,-15.0
214,-15.0
215,-15.0
216,-15.0
217,-15.0
218,-15.0
219,-15.0
220,-15.0
221,-15.0
222,-15.0
223,-15.0
224,-15.0
225,-15.0
226,-15.0
227,-15.0
228,-15.0
229,-15.0
230,-15.0
231,-15.0
232,-15.0
233,-15.0
234,-15.0
235,-15.0
236,-15.0
237,-15.0
238,-15.0
239,-15.0
240,-15.0
241,-15.0
242,-15.0
243,-15.0
244,-15.0
245,-15.0
246,-15.0
247,-15.0
248,-15.0
249,-15.0
250,-15.0
251,-15.0
252,-15.0
253,-15.0
254,-15.0
255,-15.0
256,-15.0
257,-15.0
258,-15.0
259,-15.0
260,-15.0
261,-15.0
262,-15.0
263,-15.0
264,-15.0
265,-15.0
266,-15.0
267,-15.0
268,-15.0
269,-15.0
270,-15.0
271,-15.0
272,-15.0
273,-15.0
274,-15.0
275,-15.0
276,-15.0
277,-15.0
278,-15.0
279,-15.0
280,-15.0
281,-15.0
282,-15.0
283,-15.0
284,-15.0
285,-15.0
286,-15.0
287,-15.0
288,-9.0
289,-10.0
290,-14.0
291,-10.0
292,-10.0
293,-10.0
294,-10.0
295,-14.0
296,-10.0
297,-15.0
298,-10.0
299,-14.0
300,-14.0
301,-10.0
302,-15.0
303,-9.0
304,-10.0
305,-10.0
306,-15.0
307,-10.0
308,-10.0
309,-10.0
310,-15.0
311,-10.0
312,-10.0
313,-14.0
314,-15.0
315,-10.0
316,-10.0
317,-10.0
318,-14.0
319,-10.0
320,-10.0
321,-10.0
322,-10.0
323,-10.0
324,-10.0
325,-10.0
326,-9.0
327,-10.0
328,-9.0
329,-14.0
330,-10.0
331,-15.0
332,-10.0
333,-9.0
334,-9.0
335,-15.0
336,-10.0
337,-15.0
338,-14.0
339,-15.0
340,-15.0
341,-10.0
342,-14.0
343,-15.0
344,-10.0
345,-15.0
346,-9.0
347,-9.0
348,-10.0
349,-10.0
350,-5.0
351,-10.0
352,-5.0
353,-9.0
354,-5.0
355,-9.0
356,-5.0
357,-5.0
358,-15.0
359,-10.0
360,-5.0
361,-4.0
362,-15.0
363,-10.0
364,-15.0
365,-5.0
366,-10.0
367,-9.0
368,-10.0
369,-10.0
370,-15.0
371,-10.0
372,-15.0
373,-15.0
374,-10.0
375,-5.0
376,-15.0
377,-10.0
378,-10.0
379,-10.0
380,-10.0
381,-5.0
382,-10.0
383,-9.0
384,-15.0
385,-9.0
386,-14.0
387,-4.0
388,-15.0
389,-4.0
390,-10.0
391,-5.0
392,-9.0
393,-4.0
394,-5.0
395,-4.0
396,-15.0
397,-5.0
398,0.0
399,-9.0
400,-15.0
401,-9.0
402,-4.0
403,-5.0
404,-15.0
405,0.0
406,0.0
407,-5.0
408,-5.0
409,-15.0
410,-15.0
411,0.0
412,-15.0
413,-14.0
414,-9.0
415,-10.0
416,-15.0
417,-10.0
418,-4.0
419,-9.0
420,21.0
421,-4.0
422,-15.0
423,-15.0
424,-14.0
425,-15.0
426,-10.0
427,-10.0
428,6.0
429,5.0
430,-5.0
431,0.0
432,-15.0
433,-10.0
434,-10.0
435,-15.0
436,-2.0
437,-10.0
438,-5.0
439,-15.0
440,-15.0
441,-15.0
442,-15.0
443,1.0
444,-5.0
445,-15.0
446,-14.0
447,1.0
448,-4.0
449,1.0
450,1.0
451,-15.0
452,-15.0
453,-5.0
454,-10.0
455,-9.0
456,-15.0
457,-10.0
458,-5.0
459,-10.0
460,-10.0
461,-9.0
462,-14.0
463,-9.0
464,-10.0
465,-9.0
466,-14.0
467,-14.0
468,-15.0
469,-14.0
470,-10.0
471,-4.0
472,3.0
473,-10.0
474,-9.0
475,-10.0
476,-10.0
477,-10.0
478,-15.0
479,-4.0
480,-9.0
481,-10.0
482,-10.0
483,-9.0
484,-15.0
485,-15.0
486,-5.0
487,-10.0
488,-15.0
489,-5.0
490,-15.0
491,-15.0
492,-10.0
493,-10.0
494,-10.0
495,-4.0
496,-10.0
497,-5.0
498,-15.0
499,-10.0
500,-14.0
501,-5.0
502,1.0
503,-15.0
504,-10.0
505,-10.0
506,-10.0
507,-10.0
508,-9.0
509,-5.0
510,-15.0
511,-10.0
512,-15.0
513,-15.0
514,-10.0
515,-10.0
516,-15.0
517,-10.0
518,-5.0
519,-10.0
520,-10.0
521,-15.0
522,-10.0
523,-15.0
524,-15.0
525,-5.0
526,-10.0
527,-10.0
528,-10.0
529,-5.0
530,-15.0
531,1.0
532,-14.0
533,-15.0
534,-10.0
535,-5.0
536,-15.0
537,-15.0
538,-5.0
539,-5.0
540,-14.0
541,-9.0
542,-15.0
543,-14.0
544,-10.0
545,1.0
546,-9.0
547,6.0
548,-15.0
549,-10.0
550,-5.0
551,0.0
552,2.0
553,0.0
554,-10.0
555,-15.0
556,2.0
557,0.0
558,-10.0
559,6.0
560,15.0
561,0.0
562,-10.0
563,-15.0
564,15.0
565,-10.0
566,-10.0
567,0.0
568,-5.0
569,7.0
570,-15.0
571,-15.0
572,-14.0
573,0.0
574,-4.0
575,5.0
576,10.0
577,-5.0
578,-5.0
579,10.0
580,0.0
581,-15.0
582,-10.0
583,0.0
584,3.0
585,-4.0
586,-15.0
587,0.0
588,-14.0
589,-9.0
590,0.0
591,-10.0
592,-15.0
593,5.0
594,-15.0
595,-15.0
596,5.0
597,-8.0
598,-9.0
599,5.0
600,-15.0
601,0.0
602,-15.0
603,-15.0
604,5.0
605,-14.0
606,5.0
607,-10.0
608,1.0
609,-15.0
610,-10.0
611,-5.0
612,-15.0
613,-14.0
614,-15.0
615,-5.0
616,-4.0
617,0.0
618,-5.0
619,0.0
620,-10.0
621,1.0
622,-15.0
623,-10.0
624,1.0
625,-10.0
626,-5.0
627,-9.0
628,-14.0
629,0.0
630,-5.0
631,-14.0
632,0.0
633,-10.0
634,-10.0
635,-15.0
636,-4.0
637,-4.0
638,-9.0
639,-5.0
640,-10.0
641,-10.0
642,-4.0
643,-4.0
644,-9.0
645,-10.0
646,-14.0
647,-5.0
648,-10.0
649,-5.0
650,-10.0
651,-5.0
652,-10.0
653,-5.0
654,-5.0
655,10.0
656,12.0
657,10.0
658,-14.0
659,-10.0
660,1.0
661,-2.0
662,-9.0
663,-15.0
664,6.0
665,-10.0
666,-15.0
667,11.0
668,-4.0
669,-9.0
670,-5.0
671,6.0
672,-15.0
673,2.0
674,-14.0
675,-15.0
676,-10.0
677,-15.0
678,-15.0
679,-10.0
680,11.0
681,-10.0
682,16.0
683,-9.0
684,-9.0
685,-9.0
686,-5.0
687,-10.0
688,-5.0
689,1.0
690,-15.0
691,-10.0
692,10.0
693,-9.0
694,20.0
695,5.0
696,-15.0
697,-5.0
698,-10.0
699,-5.0
700,10.0
701,11.0
702,-10.0
703,-5.0
704,1.0
705,-5.0
706,-10.0
707,-15.0
708,-15.0
709,-5.0
710,-10.0
711,0.0
712,-14.0
713,1.0
714,10.0
715,-15.0
716,0.0
717,-5.0
718,0.0
719,-15.0
720,-10.0
721,-14.0
722,-15.0
723,0.0
724,-10.0
725,0.0
726,-5.0
727,-15.0
728,1.0
729,-10.0
730,0.0
731,5.0
732,-10.0
733,-10.0
734,-5.0
735,-10.0
736,-15.0
737,-10.0
738,-5.0
739,-5.0
740,-15.0
741,5.0
742,-10.0
743,-15.0
744,-9.0
745,-5.0
746,5.0
747,-15.0
748,-15.0
749,-4.0
750,-5.0
751,-15.0
752,1.0
753,-10.0
754,-14.0
755,0.0
756,-10.0
757,1.0
758,-9.0
759,-10.0
760,0.0
761,-10.0
762,1.0
763,-5.0
764,5.0
765,-10.0
766,5.0
767,-5.0
768,-15.0
769,-14.0
770,-5.0
771,-10.0
772,-4.0
773,5.0
774,17.0
775,11.0
776,1.0
777,-10.0
778,20.0
779,13.0
780,0.0
781,-14.0
782,0.0
783,-9.0
784,-15.0
785,-15.0
786,-9.0
787,30.0
788,20.0
789,-10.0
790,-9.0
791,0.0
792,7.0
793,-10.0
794,1.0
795,-4.0
796,-10.0
797,-15.0
798,-15.0
799,10.0
800,0.0
801,-9.0
802,-14.0
803,-5.0
804,12.0
805,-9.0
806,-10.0
807,-5.0
808,20.0
809,-5.0
810,-10.0
811,23.0
812,-10.0
813,-10.0
814,20.0
815,-14.0
816,-10.0
817,25.0
818,0.0
819,-8.0
820,-10.0
821,17.0
822,-5.0
823,0.0
824,1.0
825,11.0
826,11.0
827,-10.0
828,-15.0
829,10.0
830,35.0
831,6.0
832,-14.0
833,25.0
834,-10.0
835,-15.0
836,2.0
837,-3.0
838,-5.0
839,-10.0
840,-10.0
841,0.0
842,-10.0
843,-10.0
844,-3.0
845,-9.0
846,-9.0
847,-15.0
848,-15.0
849,1.0
850,-10.0
851,1.0
852,1.0
853,-14.0
854,-9.0
855,-10.0
856,-14.0
857,40.0
858,-10.0
859,-10.0
860,-5.0
861,11.0
862,-5.0
863,-15.0
864,1.0
865,11.0
866,10.0
867,-15.0
868,5.0
869,20.0
870,7.0
871,-15.0
872,5.0
873,-15.0
874,-10.0
875,5.0
876,-4.0
877,-10.0
878,0.0
879,-14.0
880,-10.0
881,-9.0
882,2.0
883,-5.0
884,-5.0
885,11.0
886,-15.0
887,-15.0
888,2.0
889,-15.0
890,5.0
891,-10.0
892,-3.0
893,-3.0
894,0.0
895,1.0
896,10.0
897,-15.0
898,-5.0
899,-8.0
900,0.0
901,-10.0
902,-10.0
903,-10.0
904,-9.0
905,-9.0
906,-15.0
907,-2.0
908,-8.0
909,-10.0
910,-10.0
911,5.0
912,0.0
913,5.0
914,-10.0
915,-9.0
916,0.0
917,-9.0
918,-5.0
919,-10.0
920,-15.0
921,-10.0
922,-15.0
923,-4.0
924,-15.0
925,2.0
926,-5.0
927,-9.0
928,-15.0
929,-10.0
930,-9.0
931,-15.0
932,0.0
933,-5.0
934,-15.0
935,-15.0
936,0.0
937,5.0
938,-14.0
939,-15.0
940,21.0
941,5.0
942,0.0
943,1.0
944,-9.0
945,1.0
946,-10.0
947,-10.0
948,-10.0
949,0.0
950,-5.0
951,0.0
952,-10.0
953,10.0
954,-5.0
955,-4.0
956,5.0
957,10.0
958,-10.0
959,-15.0
960,-5.0
961,0.0
962,-15.0
963,-10.0
964,5.0
965,-5.0
966,-15.0
967,16.0
968,5.0
969,0.0
970,-14.0
971,-5.0
972,5.0
973,-9.0
974,-15.0
975,-4.0
976,0.0
977,-10.0
978,0.0
979,-10.0
980,0.0
981,-9.0
982,-15.0
983,1.0
984,-10.0
985,5.0
986,-15.0
987,-15.0
988,25.0
989,10.0
990,2.0
991,30.0
992,21.0
993,-10.0
994,-5.0
995,-4.0
996,-10.0
997,15.0
998,-15.0
999,0.0
1000,-15.0
1001,-8.0
1002,1.0
1003,-15.0
1004,1.0
1005,5.0
1006,-4.0
1007,-15.0
1008,20.0
1009,-15.0
1010,-9.0
1011,-15.0
1012,1.0
1013,10.0
1014,1.0
1015,-15.0
1016,0.0
1017,6.0
1018,0.0
1019,-10.0
1020,-15.0
1021,0.0
1022,71.0
1023,5.0
1024,-15.0
1025,-15.0
1026,-15.0
1027,-5.0
1028,-9.0
1029,21.0
1030,1.0
1031,-15.0
1032,-10.0
1033,-9.0
1034,1.0
1035,-10.0
1036,0.0
1037,-5.0
1038,-5.0
1039,31.0
1040,1.0
1041,-14.0
1042,-10.0
1043,-15.0
1044,-3.0
1045,-15.0
1046,0.0
1047,-9.0
1048,5.0
1049,36.0
1050,11.0
1051,-4.0
1052,16.0
1053,-15.0
1054,-5.0
1055,-10.0
1056,-5.0
1057,-9.0
1058,1.0
1059,-15.0
1060,-5.0
1061,30.0
1062,-15.0
1063,-15.0
1064,-15.0
1065,5.0
1066,-15.0
1067,-15.0
1068,-15.0
1069,0.0
1070,1.0
1071,0.0
1072,-5.0
1073,20.0
1074,-4.0
1075,-14.0
1076,-15.0
1077,0.0
1078,-10.0
1079,0.0
1080,-9.0
1081,-10.0
1082,0.0
1083,5.0
1084,0.0
1085,0.0
1086,-15.0
1087,15.0
1088,-15.0
1089,16.0
1090,5.0
1091,-15.0
1092,-5.0
1093,0.0
1094,1.0
1095,-15.0
1096,11.0
1097,-15.0
1098,-15.0
1099,1.0
1100,-15.0
1101,0.0
1102,-14.0
1103,-5.0
1104,1.0
1105,-10.0
1106,-3.0
1107,-15.0
1108,-9.0
1109,1.0
1110,-10.0
1111,6.0
1112,-3.0
1113,-10.0
1114,15.0
1115,-10.0
1116,-9.0
1117,-10.0
1118,-15.0
1119,5.0
1120,-4.0
1121,-15.0
1122,0.0
1123,11.0
1124,-9.0
1125,8.0
1126,-5.0
1127,-4.0
1128,6.0
1129,-10.0
1130,-15.0
1131,0.0
1132,-3.0
1133,35.0
1134,-5.0
1135,-15.0
1136,1.0
1137,35.0
1138,-10.0
1139,-10.0
1140,-15.0
1141,-5.0
1142,9.0
1143,0.0
1144,-15.0
1145,-10.0
1146,-9.0
1147,20.0
1148,8.0
1149,21.0
1150,13.0
1151,3.0
1152,5.0
1153,-10.0
1154,-8.0
1155,-10.0
1156,-15.0
1157,-9.0
1158,0.0
1159,-10.0
1160,-14.0
1161,-4.0
1162,-15.0
1163,46.0
1164,10.0
1165,-10.0
1166,0.0
1167,11.0
1168,-14.0
1169,0.0
1170,10.0
1171,-5.0
1172,-8.0
1173,-10.0
1174,-15.0
1175,-5.0
1176,21.0
1177,0.0
1178,0.0
1179,2.0
1180,35.0
1181,-15.0
1182,-14.0
1183,-15.0
1184,-10.0
1185,-15.0
1186,-10.0
1187,-10.0
1188,-15.0
1189,-10.0
1190,-15.0
1191,0.0
1192,21.0
1193,6.0
1194,10.0
1195,-5.0
1196,-10.0
1197,6.0
1198,5.0
1199,12.0
1200,45.0
1201,-14.0
1202,-8.0
1203,0.0
1204,31.0
1205,1.0
1206,1.0
1207,15.0
1208,-15.0
1209,21.0
1210,-10.0
1211,-15.0
1212,-15.0
1213,21.0
1214,-9.0
1215,1.0
1216,-10.0
1217,29.0
1218,-15.0
1219,-15.0
1220,-15.0
1221,-5.0
1222,-8.0
1223,31.0
1224,21.0
1225,-10.0
1226,16.0
1227,-5.0
1228,-15.0
1229,3.0
1230,23.0
1231,1.0
1232,0.0
1233,-9.0
1234,-5.0
1235,20.0
1236,7.0
1237,-3.0
1238,-15.0
1239,-14.0
1240,18.0
1241,-4.0
1242,44.0
1243,-15.0
1244,15.0
1245,-15.0
1246,-10.0
1247,-10.0
1248,-9.0
1249,-9.0
1250,-10.0
1251,14.0
1252,-9.0
1253,-15.0
1254,-9.0
1255,-4.0
1256,-10.0
1257,-9.0
1258,-10.0
1259,-10.0
1260,6.0
1261,35.0
1262,-5.0
1263,-15.0
1264,-15.0
1265,-9.0
1266,30.0
1267,6.0
1268,-5.0
1269,-10.0
1270,-10.0
1271,5.0
1272,-15.0
1273,19.0
1274,-9.0
1275,-15.0
1276,-15.0
1277,-15.0
1278,1.0
1279,21.0
1280,5.0
1281,-10.0
1282,-15.0
1283,-8.0
1284,-15.0
1285,-4.0
1286,-14.0
1287,5.0
1288,-15.0
1289,-10.0
1290,-15.0
1291,-5.0
1292,-15.0
1293,-10.0
1294,-15.0
1295,5.0
1296,-9.0
1297,-5.0
1298,0.0
1299,1.0
1300,12.0
1301,-5.0
1302,-10.0
1303,-2.0
1304,37.0
1305,-5.0
1306,0.0
1307,-10.0
1308,-15.0
1309,1.0
1310,-15.0
1311,-15.0
1312,-5.0
1313,16.0
1314,-4.0
1315,-15.0
1316,8.0
1317,-15.0
1318,-15.0
1319,-15.0
1320,29.0
1321,-9.0
1322,-9.0
1323,5.0
1324,15.0
1325,-4.0
1326,-9.0
1327,1.0
1328,0.0
1329,-10.0
1330,-9.0
1331,-14.0
1332,21.0
1333,-5.0
1334,-15.0
1335,45.0
1336,25.0
1337,-9.0
1338,5.0
1339,-10.0
1340,-14.0
1341,1.0
1342,28.0
1343,-10.0
1344,27.0
1345,-3.0
1346,-10.0
1347,-10.0
1348,-10.0
1349,2.0
1350,-10.0
1351,-15.0
1352,-5.0
1353,-15.0
1354,-15.0
1355,16.0
1356,10.0
1357,-15.0
1358,5.0
1359,-5.0
1360,49.0
1361,-15.0
1362,-10.0
1363,-15.0
1364,10.0
1365,-15.0
1366,-5.0
1367,-15.0
1368,-15.0
1369,-14.0
1370,-9.0
1371,10.0
1372,-5.0
1373,11.0
1374,-10.0
1375,0.0
1376,-4.0
1377,23.0
1378,-15.0
1379,11.0
1380,-10.0
1381,-10.0
1382,-10.0
1383,5.0
1384,-5.0
1385,-15.0
1386,-5.0
1387,16.0
1388,-15.0
1389,-10.0
1390,-10.0
1391,20.0
1392,-15.0
1393,-10.0
1394,-10.0
1395,-8.0
1396,-4.0
1397,-14.0
1398,-15.0
1399,-9.0
1400,-4.0
1401,-5.0
1402,-9.0
1403,16.0
1404,43.0
1405,-15.0
1406,-5.0
1407,11.0
1408,0.0
1409,10.0
1410,-9.0
1411,-9.0
1412,-10.0
1413,-15.0
1414,43.0
1415,-9.0
1416,31.0
1417,-15.0
1418,-9.0
1419,-9.0
1420,-9.0
1421,-8.0
1422,11.0
1423,-3.0
1424,-4.0
1425,5.0
1426,4.0
1427,-15.0
1428,-15.0
1429,61.0
1430,-15.0
1431,-10.0
1432,-10.0
1433,-15.0
1434,-14.0
1435,-9.0
1436,-4.0
1437,-10.0
1438,10.0
1439,10.0
1440,-15.0
1441,0.0
1442,-5.0
1443,-15.0
1444,-15.0
1445,-15.0
1446,-9.0
1447,-9.0
1448,-15.0
1449,-5.0
1450,1.0
1451,-10.0
1452,22.0
1453,-5.0
1454,-5.0
1455,5.0
1456,-5.0
1457,-8.0
1458,-10.0
1459,-3.0
1460,-15.0
1461,-9.0
1462,-5.0
1463,-5.0
1464,21.0
1465,9.0
1466,45.0
1467,-15.0
1468,-10.0
1469,-15.0
1470,-10.0
1471,-10.0
1472,-5.0
1473,-15.0
1474,-15.0
1475,10.0
1476,-9.0
1477,0.0
1478,-9.0
1479,5.0
1480,17.0
1481,22.0
1482,-14.0
1483,-10.0
1484,-15.0
1485,-15.0
1486,10.0
1487,-10.0
1488,-10.0
1489,-4.0
1490,-9.0
1491,-15.0
1492,-10.0
1493,-4.0
1494,-15.0
1495,2.0
1496,1.0
1497,40.0
1498,1.0
1499,26.0
1500,-5.0
1501,-5.0
1502,-15.0
1503,1.0
1504,-9.0
1505,-14.0
1506,-9.0
1507,1.0
1508,5.0
1509,0.0
1510,-5.0
1511,45.0
1512,6.0
1513,-14.0
1514,28.0
1515,6.0
1516,-10.0
1517,2.0
1518,1.0
1519,0.0
1520,-14.0
1521,-9.0
1522,0.0
1523,-10.0
1524,-10.0
1525,-15.0
1526,21.0
1527,10.0
1528,11.0
1529,-10.0
1530,-9.0
1531,-15.0
1532,-4.0
1533,1.0
1534,-15.0
1535,5.0
1536,-2.0
1537,-9.0
1538,-10.0
1539,-14.0
1540,0.0
1541,-9.0
1542,-15.0
1543,-15.0
1544,0.0
1545,2.0
1546,-14.0
1547,-15.0
1548,27.0
1549,15.0
1550,2.0
1551,17.0
1552,16.0
1553,-9.0
1554,2.0
1555,-5.0
1556,-15.0
1557,-9.0
1558,-14.0
1559,-5.0
1560,-15.0
1561,0.0
1562,-10.0
1563,9.0
1564,0.0
1565,6.0
1566,-9.0
1567,-15.0
1568,10.0
1569,-10.0
1570,-10.0
1571,-14.0
1572,-9.0
1573,17.0
1574,2.0
1575,-10.0
1576,11.0
1577,12.0
1578,-5.0
1579,-15.0
1580,-10.0
1581,-10.0
1582,-9.0
1583,-15.0
1584,-10.0
1585,-5.0
1586,30.0
1587,-14.0
1588,27.0
1589,49.0
1590,20.0
1591,-10.0
1592,-5.0
1593,31.0
1594,23.0
1595,-10.0
1596,2.0
1597,-5.0
1598,-15.0
1599,6.0
1600,0.0
1601,5.0
1602,11.0
1603,-3.0
1604,-10.0
1605,15.0
1606,5.0
1607,-15.0
1608,17.0
1609,-15.0
1610,-15.0
1611,-10.0
1612,20.0
1613,2.0
1614,-15.0
1615,5.0
1616,-10.0
1617,0.0
1618,-4.0
1619,21.0
1620,10.0
1621,0.0
1622,-9.0
1623,-8.0
1624,-15.0
1625,16.0
1626,2.0
1627,-3.0
1628,-10.0
1629,-8.0
1630,7.0
1631,27.0
1632,0.0
1633,-15.0
1634,-5.0
1635,-5.0
1636,-4.0
1637,-15.0
1638,-9.0
1639,-10.0
1640,1.0
1641,-10.0
1642,-15.0
1643,43.0
1644,-15.0
1645,10.0
1646,-10.0
1647,-9.0
1648,-15.0
1649,-5.0
1650,-9.0
1651,-15.0
1652,1.0
1653,6.0
1654,0.0
1655,6.0
1656,7.0
1657,13.0
1658,-5.0
1659,25.0
1660,-15.0
1661,-5.0
1662,-4.0
1663,-9.0
1664,27.0
1665,-15.0
1666,-9.0
1667,10.0
1668,1.0
1669,-15.0
1670,-3.0
1671,34.0
1672,-14.0
1673,0.0
1674,12.0
1675,50.0
1676,-4.0
1677,-15.0
1678,4.0
1679,-15.0
1680,-10.0
1681,0.0
1682,7.0
1683,6.0
1684,-15.0
1685,-15.0
1686,-4.0
1687,11.0
1688,0.0
1689,6.0
1690,-3.0
1691,0.0
1692,-14.0
1693,-14.0
1694,10.0
1695,-10.0
1696,-9.0
1697,-10.0
1698,-10.0
1699,-14.0
1700,12.0
1701,2.0
1702,5.0
1703,-10.0
1704,20.0
1705,-15.0
1706,-15.0
1707,-4.0
1708,43.0
1709,5.0
1710,-10.0
1711,6.0
1712,-5.0
1713,-10.0
1714,-15.0
1715,-10.0
1716,28.0
1717,22.0
1718,-15.0
1719,-10.0
1720,-10.0
1721,-15.0
1722,57.0
1723,-9.0
1724,-9.0
1725,17.0
1726,1.0
1727,-15.0
1728,6.0
1729,0.0
1730,-14.0
1731,-8.0
1732,5.0
1733,-5.0
1734,5.0
1735,0.0
1736,20.0
1737,-9.0
1738,-4.0
1739,35.0
1740,-15.0
1741,-15.0
1742,7.0
1743,-10.0
1744,45.0
1745,-5.0
1746,1.0
1747,15.0
1748,15.0
1749,-10.0
1750,0.0
1751,-15.0
1752,6.0
1753,-5.0
1754,7.0
1755,-5.0
1756,10.0
1757,32.0
1758,27.0
1759,70.0
1760,-9.0
1761,39.0
1762,-10.0
1763,-9.0
1764,0.0
1765,-5.0
1766,11.0
1767,-15.0
1768,-10.0
1769,32.0
1770,-9.0
1771,10.0
1772,-10.0
1773,12.0
1774,8.0
1775,1.0
1776,-15.0
1777,0.0
1778,-4.0
1779,40.0
1780,6.0
1781,1.0
1782,22.0
1783,13.0
1784,15.0
1785,-10.0
1786,-10.0
1787,10.0
1788,-9.0
1789,-4.0
1790,-9.0
1791,6.0
1792,5.0
1793,10.0
1794,-10.0
1795,-3.0
1796,1.0
1797,6.0
1798,-4.0
1799,10.0
1800,0.0
1801,-15.0
1802,5.0
1803,-5.0
1804,-15.0
1805,-15.0
1806,1.0
1807,-15.0
1808,-15.0
1809,21.0
1810,39.0
1811,-10.0
1812,-4.0
1813,-9.0
1814,40.0
1815,-10.0
1816,-10.0
1817,-14.0
1818,15.0
1819,-10.0
1820,-15.0
1821,-15.0
1822,-9.0
1823,-10.0
1824,10.0
1825,1.0
1826,6.0
1827,23.0
1828,-10.0
1829,-10.0
1830,0.0
1831,-15.0
1832,-15.0
1833,-10.0
1834,-14.0
1835,-5.0
1836,2.0
1837,-9.0
1838,15.0
1839,28.0
1840,-10.0
1841,0.0
1842,-10.0
1843,1.0
1844,27.0
1845,-10.0
1846,-15.0
1847,0.0
1848,16.0
1849,-5.0
1850,-5.0
1851,-15.0
1852,0.0
1853,-15.0
1854,14.0
1855,-5.0
1856,-10.0
1857,-10.0
1858,30.0
1859,13.0
1860,-4.0
1861,0.0
1862,0.0
1863,-5.0
1864,-9.0
1865,-10.0
1866,-15.0
1867,5.0
1868,-5.0
1869,-4.0
1870,-15.0
1871,-5.0
1872,-4.0
1873,5.0
1874,23.0
1875,1.0
1876,31.0
1877,0.0
1878,-15.0
1879,1.0
1880,20.0
1881,-10.0
1882,12.0
1883,15.0
1884,-2.0
1885,-15.0
1886,-3.0
1887,-10.0
1888,-5.0
1889,-10.0
1890,-10.0
1891,-5.0
1892,20.0
1893,10.0
1894,-9.0
1895,-10.0
1896,-4.0
1897,1.0
1898,-10.0
1899,-10.0
1900,21.0
1901,-9.0
1902,-10.0
1903,-10.0
1904,-10.0
1905,-10.0
1906,-10.0
1907,1.0
1908,-14.0
1909,-4.0
1910,7.0
1911,0.0
1912,-5.0
1913,-4.0
1914,-15.0
1915,-15.0
1916,-10.0
1917,-15.0
1918,20.0
1919,-5.0
1920,-10.0
1921,-10.0
1922,-10.0
1923,-10.0
1924,3.0
1925,-9.0
1926,-5.0
1927,25.0
1928,20.0
1929,12.0
1930,-15.0
1931,14.0
1932,-15.0
1933,10.0
1934,6.0
1935,-5.0
1936,-15.0
1937,-15.0
1938,0.0
1939,-4.0
1940,12.0
1941,-15.0
1942,-10.0
1943,10.0
1944,-10.0
1945,10.0
1946,-10.0
1947,24.0
1948,15.0
1949,25.0
1950,6.0
1951,1.0
1952,-15.0
1953,-15.0
1954,-15.0
1955,-15.0
1956,-15.0
1957,30.0
1958,0.0
1959,-10.0
1960,12.0
1961,-10.0
1962,0.0
1963,-10.0
1964,25.0
1965,-10.0
1966,-15.0
1967,37.0
1968,5.0
1969,0.0
1970,2.0
1971,10.0
1972,-4.0
1973,-9.0
1974,-10.0
1975,10.0
1976,3.0
1977,0.0
1978,-10.0
1979,-15.0
1980,7.0
1981,55.0
1982,1.0
1983,-9.0
1984,-15.0
1985,-10.0
1986,0.0
1987,10.0
1988,39.0
1989,-9.0
1990,-15.0
1991,-10.0
1992,-10.0
1993,-10.0
1994,-10.0
1995,-10.0
1996,-8.0
1997,0.0
1998,-5.0
1999,-5.0
2000,22.0
2001,-5.0
2002,10.0
2003,25.0
2004,-15.0
2005,7.0
2006,-15.0
2007,24.0
2008,-4.0
2009,-15.0
2010,25.0
2011,12.0
2012,-15.0
2013,-15.0
2014,-10.0
2015,1.0
2016,2.0
2017,17.0
2018,5.0
2019,10.0
2020,32.0
2021,47.0
2022,-14.0
2023,30.0
2024,-8.0
2025,-9.0
2026,30.0
2027,-15.0
2028,-9.0
2029,7.0
2030,0.0
2031,-10.0
2032,48.0
2033,16.0
2034,10.0
2035,-14.0
2036,-10.0
2037,12.0
2038,0.0
2039,0.0
2040,5.0
2041,0.0
2042,-15.0
2043,-10.0
2044,17.0
2045,-15.0
2046,-5.0
2047,5.0
2048,-9.0
2049,-10.0
2050,-15.0
2051,-14.0
2052,-4.0
2053,-4.0
2054,-10.0
2055,10.0
2056,-10.0
2057,-9.0
2058,-10.0
2059,-15.0
2060,-14.0
2061,30.0
2062,-9.0
2063,-5.0
2064,-9.0
2065,-14.0
2066,-2.0
2067,0.0
2068,11.0
2069,-15.0
2070,-10.0
2071,-15.0
2072,-14.0
2073,-5.0
2074,10.0
2075,-15.0
2076,-5.0
2077,-9.0
2078,-4.0
2079,30.0
2080,11.0
2081,1.0
2082,15.0
2083,-15.0
2084,0.0
2085,-15.0
2086,-10.0
2087,-15.0
2088,65.0
2089,-10.0
2090,-10.0
2091,-9.0
2092,12.0
2093,-4.0
2094,25.0
2095,-10.0
2096,6.0
2097,-15.0
2098,-5.0
2099,5.0
2100,-10.0
2101,10.0
2102,20.0
2103,3.0
2104,-15.0
2105,-5.0
2106,2.0
2107,22.0
2108,-9.0
2109,20.0
2110,15.0
2111,-10.0
2112,0.0
2113,-5.0
2114,-15.0
2115,10.0
2116,-8.0
2117,-15.0
2118,-10.0
2119,10.0
2120,28.0
2121,-5.0
2122,1.0
2123,-4.0
2124,37.0
2125,7.0
2126,25.0
2127,-15.0
2128,-10.0
2129,5.0
2130,0.0
2131,-9.0
2132,-3.0
2133,0.0
2134,25.0
2135,-10.0
2136,-15.0
2137,-15.0
2138,-15.0
2139,-14.0
2140,0.0
2141,26.0
2142,-14.0
2143,-5.0
2144,-15.0
2145,11.0
2146,5.0
2147,-9.0
2148,-10.0
2149,0.0
2150,38.0
2151,5.0
2152,-10.0
2153,-10.0
2154,-15.0
2155,-10.0
2156,-5.0
2157,1.0
2158,15.0
2159,5.0
2160,-10.0
2161,12.0
2162,5.0
2163,5.0
2164,-10.0
2165,23.0
2166,11.0
2167,-10.0
2168,-9.0
2169,50.0
2170,-15.0
2171,10.0
2172,-10.0
2173,0.0
2174,-15.0
2175,-15.0
2176,-15.0
2177,-15.0
2178,11.0
2179,1.0
2180,16.0
2181,0.0
2182,0.0
2183,-4.0
2184,1.0
2185,0.0
2186,-15.0
2187,1.0
2188,20.0
2189,-15.0
2190,1.0
2191,3.0
2192,10.0
2193,-10.0
2194,35.0
2195,0.0
2196,-10.0
2197,-10.0
2198,15.0
2199,-15.0
2200,-4.0
2201,43.0
2202,-10.0
2203,-5.0
2204,43.0
2205,-10.0
2206,14.0
2207,-5.0
2208,-10.0
2209,0.0
2210,24.0
2211,26.0
2212,25.0
2213,-15.0
2214,-3.0
2215,1.0
2216,35.0
2217,12.0
2218,-9.0
2219,6.0
2220,-5.0
2221,1.0
2222,-2.0
2223,20.0
2224,5.0
2225,10.0
2226,5.0
2227,-10.0
2228,38.0
2229,16.0
2230,10.0
2231,-5.0
2232,-15.0
2233,5.0
2234,-15.0
2235,-3.0
2236,-10.0
2237,30.0
2238,-10.0
2239,5.0
2240,-10.0
2241,-14.0
2242,5.0
2243,6.0
2244,0.0
2245,12.0
2246,10.0
2247,1.0
2248,0.0
2249,-4.0
2250,5.0
2251,-10.0
2252,45.0
2253,-5.0
2254,26.0
2255,-9.0
2256,-10.0
2257,20.0
2258,49.0
2259,-5.0
2260,37.0
2261,-10.0
2262,-10.0
2263,0.0
2264,-10.0
2265,10.0
2266,0.0
2267,8.0
2268,45.0
2269,-10.0
2270,15.0
2271,16.0
2272,0.0
2273,10.0
2274,-15.0
2275,22.0
2276,-5.0
2277,-15.0
2278,0.0
2279,11.0
2280,5.0
2281,30.0
2282,0.0
2283,10.0
2284,-14.0
2285,1.0
2286,27.0
2287,-10.0
2288,32.0
2289,11.0
2290,-14.0
2291,-3.0
2292,-15.0
2293,13.0
2294,0.0
2295,-10.0
2296,1.0
2297,-9.0
2298,10.0
2299,21.0
2300,12.0
2301,-3.0
2302,11.0
2303,-10.0
2304,51.0
2305,-9.0
2306,0.0
2307,-15.0
2308,-10.0
2309,-4.0
2310,-10.0
2311,0.0
2312,-10.0
2313,5.0
2314,-10.0
2315,-10.0
2316,0.0
2317,-10.0
2318,50.0
2319,1.0
2320,-9.0
2321,66.0
2322,22.0
2323,5.0
2324,-14.0
2325,-9.0
2326,-9.0
2327,-10.0
2328,21.0
2329,22.0
2330,-10.0
2331,-5.0
2332,0.0
2333,-5.0
2334,70.0
2335,-5.0
2336,25.0
2337,45.0
2338,53.0
2339,-15.0
2340,-15.0
2341,-15.0
2342,-9.0
2343,3.0
2344,30.0
2345,15.0
2346,-15.0
2347,2.0
2348,1.0
2349,15.0
2350,-5.0
2351,-10.0
2352,12.0
2353,25.0
2354,31.0
2355,-5.0
2356,0.0
2357,6.0
2358,-10.0
2359,9.0
2360,-15.0
2361,-15.0
2362,-15.0
2363,5.0
2364,-8.0
2365,-15.0
2366,-15.0
2367,-10.0
2368,-4.0
2369,25.0
2370,5.0
2371,-5.0
2372,0.0
2373,5.0
2374,13.0
2375,1.0
2376,-5.0
2377,-10.0
2378,5.0
2379,-14.0
2380,-4.0
2381,0.0
2382,-15.0
2383,-10.0
2384,-10.0
2385,-5.0
2386,6.0
2387,1.0
2388,61.0
2389,6.0
2390,0.0
2391,-5.0
2392,50.0
2393,-4.0
2394,13.0
2395,-10.0
2396,22.0
2397,25.0
2398,-10.0
2399,20.0
2400,-9.0
2401,-10.0
2402,15.0
2403,53.0
2404,12.0
2405,25.0
2406,-8.0
2407,-8.0
2408,-15.0
2409,-10.0
2410,35.0
2411,28.0
2412,25.0
2413,-10.0
2414,22.0
2415,-9.0
2416,-15.0
2417,15.0
2418,24.0
2419,-10.0
2420,-10.0
2421,-10.0
2422,-8.0
2423,-15.0
2424,-10.0
2425,-10.0
2426,53.0
2427,-5.0
2428,24.0
2429,5.0
2430,-9.0
2431,-9.0
2432,-15.0
2433,20.0
2434,17.0
2435,-10.0
2436,35.0
2437,15.0
2438,-9.0
2439,30.0
2440,-10.0
2441,25.0
2442,2.0
2443,36.0
2444,1.0
2445,10.0
2446,16.0
2447,-15.0
2448,-15.0
2449,10.0
2450,-5.0
2451,-15.0
2452,5.0
2453,-15.0
2454,-9.0
2455,-4.0
2456,-9.0
2457,-10.0
2458,-9.0
2459,-10.0
2460,-9.0
2461,0.0
2462,-4.0
2463,-10.0
2464,15.0
2465,-14.0
2466,-10.0
2467,40.0
2468,5.0
2469,-5.0
2470,51.0
2471,-10.0
2472,10.0
2473,-10.0
2474,10.0
2475,-10.0
2476,-15.0
2477,-10.0
2478,-9.0
2479,-10.0
2480,-15.0
2481,-5.0
2482,20.0
2483,-10.0
2484,0.0
2485,-10.0
2486,-10.0
2487,10.0
2488,16.0
2489,-10.0
2490,20.0
2491,-15.0
2492,6.0
2493,-15.0
2494,-10.0
2495,17.0
2496,25.0
2497,5.0
2498,-15.0
2499,10.0
2500,-10.0
2501,20.0
2502,1.0
2503,25.0
2504,-5.0
2505,20.0
2506,-5.0
2507,-5.0
2508,-10.0
2509,46.0
2510,61.0
2511,-10.0
2512,-5.0
2513,5.0
2514,20.0
2515,-10.0
2516,10.0
2517,-14.0
2518,0.0
2519,-15.0
2520,6.0
2521,-10.0
2522,-3.0
2523,2.0
2524,-15.0
2525,15.0
2526,-5.0
2527,0.0
2528,-8.0
2529,-15.0
2530,51.0
2531,0.0
2532,47.0
2533,0.0
2534,-10.0
2535,-10.0
2536,0.0
2537,30.0
2538,11.0
2539,1.0
2540,1.0
2541,-10.0
2542,-5.0
2543,10.0
2544,-15.0
2545,0.0
2546,5.0
2547,5.0
2548,-8.0
2549,-10.0
2550,34.0
2551,1.0
2552,22.0
2553,21.0
2554,20.0
2555,-10.0
2556,15.0
2557,-10.0
2558,-3.0
2559,60.0
2560,67.0
2561,20.0
2562,0.0
2563,42.0
2564,81.0
2565,25.0
2566,-5.0
2567,-10.0
2568,21.0
2569,2.0
2570,13.0
2571,-15.0
2572,0.0
2573,-10.0
2574,-5.0
2575,10.0
2576,22.0
2577,5.0
2578,12.0
2579,-14.0
2580,-10.0
2581,0.0
2582,-15.0
2583,2.0
2584,22.0
2585,103.0
2586,1.0
2587,35.0
2588,5.0
2589,-15.0
2590,5.0
2591,-5.0
2592,-9.0
2593,15.0
2594,-10.0
2595,61.0
2596,0.0
2597,12.0
2598,5.0
2599,20.0
2600,15.0
2601,-10.0
2602,-4.0
2603,51.0
2604,20.0
2605,0.0
2606,-14.0
2607,-15.0
2608,39.0
2609,25.0
2610,25.0
2611,-5.0
2612,-15.0
2613,26.0
2614,30.0
2615,6.0
2616,6.0
2617,27.0
2618,20.0
2619,-10.0
2620,10.0
2621,40.0
2622,-3.0
2623,20.0
2624,13.0
2625,27.0
2626,-14.0
2627,25.0
2628,-10.0
2629,-5.0
2630,-15.0
2631,-15.0
2632,-14.0
2633,-5.0
2634,-9.0
2635,23.0
2636,0.0
2637,13.0
2638,20.0
2639,20.0
2640,30.0
2641,1.0
2642,16.0
2643,-9.0
2644,5.0
2645,20.0
2646,-14.0
2647,26.0
2648,32.0
2649,0.0
2650,-10.0
2651,-10.0
2652,-10.0
2653,1.0
2654,38.0
2655,12.0
2656,-9.0
2657,11.0
2658,20.0
2659,-14.0
2660,-15.0
2661,27.0
2662,-15.0
2663,6.0
2664,-10.0
2665,-10.0
2666,-9.0
2667,-5.0
2668,-10.0
2669,-10.0
2670,-15.0
2671,-10.0
2672,-10.0
2673,-5.0
2674,0.0
2675,0.0
2676,0.0
2677,7.0
2678,-10.0
2679,0.0
2680,20.0
2681,-5.0
2682,13.0
2683,0.0
2684,-5.0
2685,1.0
2686,-5.0
2687,-5.0
2688,15.0
2689,-8.0
2690,40.0
2691,-15.0
2692,20.0
2693,5.0
2694,-10.0
2695,1.0
2696,-9.0
2697,-5.0
2698,-10.0
2699,-15.0
2700,-5.0
2701,-4.0
2702,-10.0
2703,30.0
2704,0.0
2705,-15.0
2706,-15.0
2707,20.0
2708,-10.0
2709,1.0
2710,-9.0
2711,12.0
2712,-10.0
2713,-15.0
2714,5.0
2715,-15.0
2716,12.0
2717,-5.0
2718,-10.0
2719,6.0
2720,15.0
2721,-9.0
2722,-14.0
2723,10.0
2724,11.0
2725,-4.0
2726,-5.0
2727,-15.0
2728,5.0
2729,-10.0
2730,-15.0
2731,-14.0
2732,40.0
2733,-15.0
2734,-14.0
2735,-10.0
2736,40.0
2737,17.0
2738,27.0
2739,-5.0
2740,-9.0
2741,-5.0
2742,0.0
2743,60.0
2744,0.0
2745,67.0
2746,-10.0
2747,-5.0
2748,-5.0
2749,-15.0
2750,5.0
2751,-4.0
2752,-5.0
2753,41.0
2754,25.0
2755,25.0
2756,40.0
2757,10.0
2758,-8.0
2759,44.0
2760,22.0
2761,-9.0
2762,-14.0
2763,-5.0
2764,95.0
2765,10.0
2766,-9.0
2767,20.0
2768,-9.0
2769,29.0
2770,22.0
2771,10.0
2772,-5.0
2773,67.0
2774,32.0
2775,30.0
2776,25.0
2777,-10.0
2778,-15.0
2779,0.0
2780,10.0
2781,25.0
2782,-10.0
2783,35.0
2784,7.0
2785,-15.0
2786,-9.0
2787,12.0
2788,-15.0
2789,2.0
2790,-5.0
2791,-10.0
2792,-5.0
2793,-9.0
2794,-10.0
2795,-10.0
2796,10.0
2797,-9.0
2798,-10.0
2799,7.0
2800,30.0
2801,30.0
2802,40.0
2803,-9.0
2804,-10.0
2805,1.0
2806,0.0
2807,-5.0
2808,3.0
2809,35.0
2810,45.0
2811,21.0
2812,1.0
2813,-4.0
2814,25.0
2815,-9.0
2816,31.0
2817,-5.0
2818,0.0
2819,-10.0
2820,-10.0
2821,-15.0
2822,-8.0
2823,10.0
2824,-9.0
2825,11.0
2826,-10.0
2827,-4.0
2828,-4.0
2829,72.0
2830,2.0
2831,10.0
2832,62.0
2833,41.0
2834,-9.0
2835,-10.0
2836,21.0
2837,3.0
2838,40.0
2839,-15.0
2840,10.0
2841,-10.0
2842,-10.0
2843,16.0
2844,-10.0
2845,5.0
2846,25.0
2847,-10.0
2848,10.0
2849,-9.0
2850,-9.0
2851,1.0
2852,-15.0
2853,6.0
2854,4.0
2855,7.0
2856,-10.0
2857,-15.0
2858,-14.0
2859,-9.0
2860,0.0
2861,1.0
2862,-15.0
2863,26.0
2864,20.0
2865,11.0
2866,-15.0
2867,20.0
2868,0.0
2869,0.0
2870,12.0
2871,-15.0
2872,-15.0
2873,0.0
2874,-14.0
2875,0.0
2876,-9.0
2877,-15.0
2878,7.0
2879,2.0
2880,1.0
2881,31.0
2882,0.0
2883,32.0
2884,0.0
2885,0.0
2886,-5.0
2887,21.0
2888,0.0
2889,-10.0
2890,36.0
2891,-14.0
2892,11.0
2893,10.0
2894,1.0
2895,0.0
2896,-14.0
2897,11.0
2898,-15.0
2899,16.0
2900,5.0
2901,-5.0
2902,10.0
2903,5.0
2904,-10.0
2905,1.0
2906,0.0
2907,11.0
2908,-5.0
2909,33.0
2910,20.0
2911,-4.0
2912,-14.0
2913,-9.0
2914,20.0
2915,-4.0
2916,-10.0
2917,45.0
2918,1.0
2919,-10.0
2920,-10.0
2921,38.0
2922,35.0
2923,30.0
2924,-10.0
2925,-9.0
2926,20.0
2927,-10.0
2928,-5.0
2929,25.0
2930,15.0
2931,0.0
2932,11.0
2933,-10.0
2934,-10.0
2935,2.0
2936,10.0
2937,7.0
2938,-10.0
2939,10.0
2940,0.0
2941,-15.0
2942,-4.0
2943,51.0
2944,1.0
2945,-9.0
2946,-10.0
2947,-15.0
2948,-9.0
2949,1.0
2950,1.0
2951,-10.0
2952,0.0
2953,-5.0
2954,-15.0
2955,5.0
2956,5.0
2957,5.0
2958,15.0
2959,25.0
2960,-10.0
2961,11.0
2962,25.0
2963,-9.0
2964,-5.0
2965,-15.0
2966,10.0
2967,5.0
2968,0.0
2969,-10.0
2970,10.0
2971,-5.0
2972,22.0
2973,30.0
2974,0.0
2975,11.0
2976,-10.0
2977,1.0
2978,15.0
2979,10.0
2980,30.0
2981,11.0
2982,0.0
2983,35.0
2984,-10.0
2985,-9.0
2986,-9.0
2987,1.0
2988,-5.0
2989,0.0
2990,-15.0
2991,10.0
2992,20.0
2993,5.0
2994,-5.0
2995,31.0
2996,-9.0
2997,-9.0
2998,15.0
2999,-8.0
3000,-5.0
3001,0.0
3002,1.0
3003,-10.0
3004,-9.0
3005,35.0
3006,-10.0
3007,-10.0
3008,1.0
3009,2.0
3010,0.0
3011,20.0
3012,60.0
3013,-9.0
3014,17.0
3015,-15.0
3016,7.0
3017,22.0
3018,-10.0
3019,-10.0
3020,-10.0
3021,11.0
3022,-15.0
3023,-9.0
3024,-3.0
3025,20.0
3026,1.0
3027,-10.0
3028,-15.0
3029,30.0
3030,22.0
3031,2.0
3032,-9.0
3033,6.0
3034,15.0
3035,10.0
3036,-15.0
3037,30.0
3038,7.0
3039,15.0
3040,20.0
3041,15.0
3042,-10.0
3043,20.0
3044,6.0
3045,-10.0
3046,-15.0
3047,5.0
3048,5.0
3049,-10.0
3050,-3.0
3051,-5.0
3052,0.0
3053,-15.0
3054,10.0
3055,-10.0
3056,-15.0
3057,-5.0
3058,41.0
3059,11.0
3060,-10.0
3061,10.0
3062,5.0
3063,0.0
3064,-9.0
3065,-9.0
3066,-9.0
3067,40.0
3068,1.0
3069,-10.0
3070,-4.0
3071,20.0
3072,-10.0
3073,-10.0
3074,2.0
3075,35.0
3076,0.0
3077,10.0
3078,0.0
3079,0.0
3080,30.0
3081,5.0
3082,25.0
3083,30.0
3084,-10.0
3085,21.0
3086,5.0
3087,21.0
3088,48.0
3089,-5.0
3090,60.0
3091,0.0
3092,20.0
3093,-15.0
3094,35.0
3095,-10.0
3096,-10.0
3097,5.0
3098,36.0
3099,-10.0
3100,65.0
3101,-9.0
3102,-14.0
3103,36.0
3104,-10.0
3105,30.0
3106,10.0
3107,22.0
3108,0.0
3109,0.0
3110,-10.0
3111,25.0
3112,1.0
3113,-10.0
3114,21.0
3115,22.0
3116,-9.0
3117,5.0
3118,-15.0
3119,5.0
3120,30.0
3121,-14.0
3122,-15.0
3123,-4.0
3124,-10.0
3125,-10.0
3126,0.0
3127,10.0
3128,-15.0
3129,-9.0
3130,-10.0
3131,0.0
3132,-15.0
3133,-10.0
3134,10.0
3135,-9.0
3136,-9.0
3137,21.0
3138,5.0
3139,30.0
3140,1.0
3141,0.0
3142,0.0
3143,-10.0
3144,-14.0
3145,-15.0
3146,30.0
3147,-5.0
3148,1.0
3149,1.0
3150,21.0
3151,1.0
3152,20.0
3153,43.0
3154,-5.0
3155,25.0
3156,20.0
3157,-10.0
3158,30.0
3159,2.0
3160,-10.0
3161,65.0
3162,-15.0
3163,1.0
3164,26.0
3165,0.0
3166,-10.0
3167,-5.0
3168,10.0
3169,-10.0
3170,62.0
3171,31.0
3172,5.0
3173,1.0
3174,-10.0
3175,20.0
3176,22.0
3177,-4.0
3178,-15.0
3179,-10.0
3180,50.0
3181,40.0
3182,-9.0
3183,1.0
3184,-10.0
3185,12.0
3186,-10.0
3187,-5.0
3188,1.0
3189,-15.0
3190,-14.0
3191,30.0
3192,20.0
3193,0.0
3194,-9.0
3195,0.0
3196,-4.0
3197,1.0
3198,-10.0
3199,-10.0
3200,35.0
3201,15.0
3202,-9.0
3203,-9.0
3204,1.0
3205,17.0
3206,0.0
3207,-9.0
3208,-10.0
3209,27.0
3210,-10.0
3211,23.0
3212,35.0
3213,-10.0
3214,28.0
3215,40.0
3216,65.0
3217,5.0
3218,0.0
3219,5.0
3220,20.0
3221,-5.0
3222,-5.0
3223,11.0
3224,-15.0
3225,11.0
3226,10.0
3227,-10.0
3228,21.0
3229,1.0
3230,20.0
3231,-5.0
3232,5.0
3233,-15.0
3234,5.0
3235,47.0
3236,-10.0
3237,-15.0
3238,1.0
3239,-5.0
3240,0.0
3241,-10.0
3242,0.0
3243,-9.0
3244,-10.0
3245,-10.0
3246,10.0
3247,-10.0
3248,-10.0
3249,-10.0
3250,-9.0
3251,-10.0
3252,-10.0
3253,-10.0
3254,10.0
3255,0.0
3256,-10.0
3257,10.0
3258,40.0
3259,25.0
3260,6.0
3261,-10.0
3262,5.0
3263,-15.0
3264,-15.0
3265,5.0
3266,-15.0
3267,-10.0
3268,-10.0
3269,5.0
3270,-5.0
3271,11.0
3272,-15.0
3273,0.0
3274,-15.0
3275,5.0
3276,11.0
3277,3.0
3278,6.0
3279,-15.0
3280,-9.0
3281,-9.0
3282,-10.0
3283,-5.0
3284,0.0
3285,3.0
3286,-5.0
3287,0.0
3288,26.0
3289,-10.0
3290,-15.0
3291,-10.0
3292,-15.0
3293,10.0
3294,30.0
3295,0.0
3296,17.0
3297,26.0
3298,11.0
3299,20.0
3300,-10.0
3301,-15.0
3302,1.0
3303,-9.0
3304,-10.0
3305,-15.0
3306,0.0
3307,30.0
3308,1.0
3309,17.0
3310,11.0
3311,20.0
3312,-15.0
3313,6.0
3314,-10.0
3315,36.0
3316,-10.0
3317,26.0
3318,-10.0
3319,21.0
3320,-10.0
3321,21.0
3322,1.0
3323,5.0
3324,5.0
3325,21.0
3326,20.0
3327,-5.0
3328,-5.0
3329,5.0
3330,-10.0
3331,6.0
3332,25.0
3333,-10.0
3334,21.0
3335,-15.0
3336,-10.0
3337,12.0
3338,-14.0
3339,-10.0
3340,-2.0
3341,-5.0
3342,11.0
3343,21.0
3344,-15.0
3345,-9.0
3346,-4.0
3347,-10.0
3348,-10.0
3349,16.0
3350,22.0
3351,-10.0
3352,-14.0
3353,30.0
3354,5.0
3355,5.0
3356,-10.0
3357,11.0
3358,10.0
3359,-10.0
3360,-5.0
3361,25.0
3362,0.0
3363,-10.0
3364,0.0
3365,-9.0
3366,16.0
3367,-10.0
3368,-5.0
3369,-5.0
3370,-9.0
3371,22.0
3372,28.0
3373,5.0
3374,2.0
3375,-15.0
3376,16.0
3377,-10.0
3378,12.0
3379,17.0
3380,-15.0
3381,-10.0
3382,12.0
3383,5.0
3384,6.0
3385,-5.0
3386,-15.0
3387,17.0
3388,6.0
3389,23.0
3390,-15.0
3391,1.0
3392,-3.0
3393,32.0
3394,-4.0
3395,25.0
3396,38.0
3397,31.0
3398,8.0
3399,35.0
3400,7.0
3401,-10.0
3402,1.0
3403,-5.0
3404,10.0
3405,11.0
3406,-5.0
3407,6.0
3408,42.0
3409,-5.0
3410,1.0
3411,0.0
3412,-15.0
3413,25.0
3414,0.0
3415,-3.0
3416,0.0
3417,0.0
3418,-9.0
3419,-15.0
3420,56.0
3421,37.0
3422,26.0
3423,-10.0
3424,-5.0
3425,-9.0
3426,-10.0
3427,-15.0
3428,0.0
3429,-10.0
3430,-10.0
3431,6.0
3432,-15.0
3433,1.0
3434,26.0
3435,5.0
3436,13.0
3437,-15.0
3438,-15.0
3439,46.0
3440,-10.0
3441,20.0
3442,-5.0
3443,41.0
3444,-15.0
3445,-10.0
3446,-4.0
3447,37.0
3448,1.0
3449,5.0
3450,61.0
3451,10.0
3452,5.0
3453,0.0
3454,-9.0
3455,-5.0
3456,22.0
3457,-15.0
3458,-5.0
3459,31.0
3460,21.0
3461,31.0
3462,5.0
3463,-10.0
3464,0.0
3465,0.0
3466,0.0
3467,1.0
3468,11.0
3469,-15.0
3470,7.0
3471,-14.0
3472,10.0
3473,12.0
3474,0.0
3475,-9.0
3476,13.0
3477,10.0
3478,1.0
3479,1.0
3480,10.0
3481,-9.0
3482,-14.0
3483,-9.0
3484,29.0
3485,15.0
3486,-10.0
3487,-4.0
3488,-5.0
3489,-10.0
3490,41.0
3491,-9.0
3492,-10.0
3493,-10.0
3494,-15.0
3495,31.0
3496,33.0
3497,11.0
3498,-10.0
3499,1.0
3500,5.0
3501,26.0
3502,36.0
3503,-15.0
3504,-15.0
3505,-10.0
3506,0.0
3507,33.0
3508,16.0
3509,27.0
3510,16.0
3511,25.0
3512,-10.0
3513,15.0
3514,6.0
3515,40.0
3516,-10.0
3517,31.0
3518,-3.0
3519,-10.0
3520,10.0
3521,-15.0
3522,-5.0
3523,55.0
3524,71.0
3525,0.0
3526,30.0
3527,-10.0
3528,15.0
3529,-10.0
3530,-14.0
3531,-4.0
3532,11.0
3533,-5.0
3534,0.0
3535,-5.0
3536,11.0
3537,1.0
3538,-10.0
3539,18.0
3540,11.0
3541,20.0
3542,20.0
3543,0.0
3544,5.0
3545,10.0
3546,-14.0
3547,6.0
3548,-15.0
3549,43.0
3550,-14.0
3551,1.0
3552,50.0
3553,-5.0
3554,22.0
3555,-5.0
3556,11.0
3557,68.0
3558,10.0
3559,10.0
3560,45.0
3561,0.0
3562,16.0
3563,42.0
3564,20.0
3565,32.0
3566,20.0
3567,-14.0
3568,22.0
3569,65.0
3570,31.0
3571,-14.0
3572,-5.0
3573,-8.0
3574,6.0
3575,-3.0
3576,-5.0
3577,-10.0
3578,2.0
3579,-3.0
3580,7.0
3581,37.0
3582,0.0
3583,26.0
3584,21.0
3585,-5.0
3586,-10.0
3587,-10.0
3588,42.0
3589,31.0
3590,-8.0
3591,21.0
3592,6.0
3593,-15.0
3594,23.0
3595,-10.0
3596,12.0
3597,-9.0
3598,-4.0
3599,0.0
3600,11.0
3601,12.0
3602,-4.0
3603,-9.0
3604,68.0
3605,35.0
3606,45.0
3607,-4.0
3608,10.0
3609,25.0
3610,6.0
3611,-9.0
3612,-15.0
3613,11.0
3614,-9.0
3615,-15.0
3616,-15.0
3617,11.0
3618,-4.0
3619,-15.0
3620,1.0
3621,-10.0
3622,21.0
3623,-5.0
3624,5.0
3625,0.0
3626,27.0
3627,-10.0
3628,58.0
3629,1.0
3630,-10.0
3631,11.0
3632,-10.0
3633,10.0
3634,5.0
3635,-15.0
3636,-9.0
3637,-9.0
3638,-10.0
3639,-10.0
3640,-9.0
3641,8.0
3642,-10.0
3643,0.0
3644,0.0
3645,-15.0
3646,-15.0
3647,-10.0
3648,-9.0
3649,0.0
3650,-15.0
3651,40.0
3652,0.0
3653,-10.0
3654,5.0
3655,-15.0
3656,52.0
3657,15.0
3658,-10.0
3659,39.0
3660,-10.0
3661,-10.0
3662,0.0
3663,-10.0
3664,1.0
3665,-5.0
3666,27.0
3667,10.0
3668,-4.0
3669,6.0
3670,5.0
3671,0.0
3672,-10.0
3673,32.0
3674,10.0
3675,-10.0
3676,5.0
3677,-4.0
3678,20.0
3679,-9.0
3680,10.0
3681,-10.0
3682,-5.0
3683,2.0
3684,1.0
3685,-4.0
3686,16.0
3687,15.0
3688,35.0
3689,5.0
3690,-14.0
3691,-9.0
3692,31.0
3693,30.0
3694,0.0
3695,31.0
3696,15.0
3697,2.0
3698,0.0
3699,1.0
3700,-10.0
3701,25.0
3702,26.0
3703,0.0
3704,0.0
3705,1.0
3706,0.0
3707,-9.0
3708,-10.0
3709,-15.0
3710,-15.0
3711,22.0
3712,-15.0
3713,-15.0
3714,5.0
3715,2.0
3716,10.0
3717,-9.0
3718,1.0
3719,-4.0
3720,6.0
3721,12.0
3722,7.0
3723,-5.0
3724,-15.0
3725,30.0
3726,-5.0
3727,6.0
3728,-15.0
3729,1.0
3730,10.0
3731,30.0
3732,53.0
3733,-9.0
3734,-5.0
3735,41.0
3736,16.0
3737,-9.0
3738,15.0
3739,-9.0
3740,37.0
3741,50.0
3742,-5.0
3743,15.0
3744,13.0
3745,-15.0
3746,31.0
3747,25.0
3748,-4.0
3749,-5.0
3750,-15.0
3751,23.0
3752,21.0
3753,65.0
3754,7.0
3755,-5.0
3756,36.0
3757,27.0
3758,-10.0
3759,6.0
3760,11.0
3761,20.0
3762,56.0
3763,-15.0
3764,40.0
3765,1.0
3766,21.0
3767,16.0
3768,20.0
3769,37.0
3770,0.0
3771,-10.0
3772,20.0
3773,-5.0
3774,-10.0
3775,21.0
3776,31.0
3777,35.0
3778,21.0
3779,-15.0
3780,-9.0
3781,2.0
3782,17.0
3783,23.0
3784,-5.0
3785,0.0
3786,0.0
3787,-5.0
3788,22.0
3789,5.0
3790,-10.0
3791,30.0
3792,15.0
3793,53.0
3794,-10.0
3795,2.0
3796,-9.0
3797,15.0
3798,56.0
3799,-10.0
3800,0.0
3801,33.0
3802,31.0
3803,-15.0
3804,-10.0
3805,51.0
3806,62.0
3807,5.0
3808,-5.0
3809,1.0
3810,-10.0
3811,10.0
3812,-15.0
3813,-5.0
3814,-4.0
3815,0.0
3816,-10.0
3817,-4.0
3818,-5.0
3819,15.0
3820,-15.0
3821,36.0
3822,-10.0
3823,-10.0
3824,27.0
3825,26.0
3826,-15.0
3827,-4.0
3828,-10.0
3829,21.0
3830,0.0
3831,-10.0
3832,22.0
3833,0.0
3834,-9.0
3835,-9.0
3836,-9.0
3837,1.0
3838,42.0
3839,10.0
3840,1.0
3841,5.0
3842,11.0
3843,10.0
3844,21.0
3845,20.0
3846,0.0
3847,15.0
3848,17.0
3849,-5.0
3850,1.0
3851,-15.0
3852,7.0
3853,-5.0
3854,0.0
3855,-10.0
3856,60.0
3857,-15.0
3858,6.0
3859,-14.0
3860,-9.0
3861,-10.0
3862,35.0
3863,1.0
3864,-5.0
3865,66.0
3866,-15.0
3867,-15.0
3868,20.0
3869,-9.0
3870,5.0
3871,-5.0
3872,0.0
3873,-10.0
3874,6.0
3875,-15.0
3876,-9.0
3877,50.0
3878,45.0
3879,-10.0
3880,15.0
3881,33.0
3882,25.0
3883,2.0
3884,11.0
3885,-10.0
3886,-15.0
3887,-15.0
3888,-15.0
3889,-9.0
3890,45.0
3891,-15.0
3892,11.0
3893,-5.0
3894,67.0
3895,-10.0
3896,-15.0
3897,-4.0
3898,-5.0
3899,-5.0
3900,0.0
3901,24.0
3902,-10.0
3903,-10.0
3904,-10.0
3905,-10.0
3906,-15.0
3907,-10.0
3908,-10.0
3909,-9.0
3910,5.0
3911,40.0
3912,-10.0
3913,1.0
3914,-15.0
3915,-10.0
3916,10.0
3917,-10.0
3918,60.0
3919,0.0
3920,-5.0
3921,30.0
3922,20.0
3923,40.0
3924,35.0
3925,-14.0
3926,-10.0
3927,22.0
3928,-10.0
3929,25.0
3930,30.0
3931,-15.0
3932,22.0
3933,15.0
3934,27.0
3935,-10.0
3936,-10.0
3937,11.0
3938,-14.0
3939,30.0
3940,-9.0
3941,1.0
3942,-15.0
3943,30.0
3944,6.0
3945,33.0
3946,-15.0
3947,12.0
3948,11.0
3949,2.0
3950,-15.0
3951,-10.0
3952,-5.0
3953,20.0
3954,-10.0
3955,10.0
3956,-10.0
3957,23.0
3958,-10.0
3959,40.0
3960,35.0
3961,42.0
3962,30.0
3963,1.0
3964,55.0
3965,-10.0
3966,-10.0
3967,0.0
3968,-9.0
3969,10.0
3970,-15.0
3971,-10.0
3972,21.0
3973,-5.0
3974,-5.0
3975,0.0
3976,0.0
3977,17.0
3978,0.0
3979,-15.0
3980,1.0
3981,6.0
3982,20.0
3983,1.0
3984,2.0
3985,-3.0
3986,-10.0
3987,-10.0
3988,-9.0
3989,-10.0
3990,40.0
3991,-9.0
3992,-14.0
3993,0.0
3994,37.0
3995,-15.0
3996,-10.0
3997,-9.0
3998,11.0
3999,11.0
4000,-14.0
4001,-10.0
4002,-9.0
4003,-9.0
4004,20.0
4005,-10.0
4006,37.0
4007,-4.0
4008,30.0
4009,-14.0
4010,0.0
4011,-10.0
4012,35.0
4013,-9.0
4014,16.0
4015,10.0
4016,5.0
4017,0.0
4018,-3.0
4019,1.0
4020,-5.0
4021,-14.0
4022,10.0
4023,-10.0
4024,57.0
4025,-9.0
4026,18.0
4027,11.0
4028,75.0
4029,34.0
4030,20.0
4031,10.0
4032,18.0
4033,0.0
4034,1.0
4035,-15.0
4036,-10.0
4037,21.0
4038,-15.0
4039,11.0
4040,40.0
4041,20.0
4042,16.0
4043,-5.0
4044,56.0
4045,-4.0
4046,5.0
4047,66.0
4048,-14.0
4049,-10.0
4050,5.0
4051,25.0
4052,-8.0
4053,-9.0
4054,-9.0
4055,-10.0
4056,-10.0
4057,12.0
4058,21.0
4059,-10.0
4060,-9.0
4061,33.0
4062,-5.0
4063,20.0
4064,-10.0
4065,10.0
4066,14.0
4067,33.0
4068,-10.0
4069,17.0
4070,21.0
4071,2.0
4072,-10.0
4073,-10.0
4074,-10.0
4075,0.0
4076,-10.0
4077,-10.0
4078,-15.0
4079,-10.0
4080,-10.0
4081,-10.0
4082,-10.0
4083,5.0
4084,36.0
4085,0.0
4086,46.0
4087,41.0
4088,7.0
4089,-10.0
4090,21.0
4091,1.0
4092,20.0
4093,-9.0
4094,11.0
4095,-10.0
4096,10.0
4097,10.0
4098,-5.0
4099,12.0
4100,41.0
4101,42.0
4102,22.0
4103,-15.0
4104,1.0
4105,0.0
4106,-15.0
4107,25.0
4108,0.0
4109,-4.0
4110,-9.0
4111,-15.0
4112,5.0
4113,-10.0
4114,-10.0
4115,20.0
4116,-14.0
4117,11.0
4118,2.0
4119,-10.0
4120,5.0
4121,0.0
4122,30.0
4123,10.0
4124,6.0
4125,55.0
4126,11.0
4127,-15.0
4128,20.0
4129,-8.0
4130,-5.0
4131,-10.0
4132,0.0
4133,22.0
4134,11.0
4135,5.0
4136,55.0
4137,-10.0
4138,-15.0
4139,5.0
4140,-10.0
4141,1.0
4142,-8.0
4143,0.0
4144,-15.0
4145,68.0
4146,1.0
4147,1.0
4148,-10.0
4149,-15.0
4150,-15.0
4151,11.0
4152,11.0
4153,47.0
4154,15.0
4155,60.0
4156,1.0
4157,0.0
4158,5.0
4159,23.0
4160,6.0
4161,0.0
4162,-10.0
4163,-8.0
4164,-10.0
4165,-5.0
4166,5.0
4167,-4.0
4168,-15.0
4169,27.0
4170,1.0
4171,1.0
4172,0.0
4173,20.0
4174,-15.0
4175,12.0
4176,-10.0
4177,-9.0
4178,11.0
4179,-9.0
4180,57.0
4181,22.0
4182,21.0
4183,24.0
4184,25.0
4185,0.0
4186,-4.0
4187,5.0
4188,12.0
4189,0.0
4190,-10.0
4191,20.0
4192,20.0
4193,-4.0
4194,0.0
4195,-9.0
4196,31.0
4197,21.0
4198,20.0
4199,26.0
4200,30.0
4201,-10.0
4202,0.0
4203,-15.0
4204,11.0
4205,-10.0
4206,1.0
4207,-9.0
4208,21.0
4209,-10.0
4210,-4.0
4211,1.0
4212,1.0
4213,-15.0
4214,-15.0
4215,-10.0
4216,0.0
4217,-10.0
4218,-15.0
4219,53.0
4220,26.0
4221,-10.0
4222,20.0
4223,-10.0
4224,-9.0
4225,-9.0
4226,-10.0
4227,10.0
4228,-14.0
4229,5.0
4230,1.0
4231,10.0
4232,-10.0
4233,0.0
4234,59.0
4235,10.0
4236,-15.0
4237,35.0
4238,5.0
4239,-5.0
4240,-5.0
4241,92.0
4242,-5.0
4243,-15.0
4244,-14.0
4245,-10.0
4246,-10.0
4247,-9.0
4248,30.0
4249,5.0
4250,8.0
4251,32.0
4252,-4.0
4253,-10.0
4254,13.0
4255,10.0
4256,-5.0
4257,6.0
4258,-9.0
4259,10.0
4260,1.0
4261,30.0
4262,21.0
4263,1.0
4264,-15.0
4265,5.0
4266,10.0
4267,25.0
4268,-5.0
4269,0.0
4270,55.0
4271,-10.0
4272,0.0
4273,10.0
4274,-9.0
4275,21.0
4276,0.0
4277,-10.0
4278,-8.0
4279,0.0
4280,10.0
4281,0.0
4282,-9.0
4283,1.0
4284,-10.0
4285,10.0
4286,55.0
4287,-15.0
4288,30.0
4289,21.0
4290,42.0
4291,5.0
4292,-9.0
4293,-9.0
4294,-10.0
4295,-15.0
4296,-5.0
4297,36.0
4298,35.0
4299,40.0
4300,6.0
4301,0.0
4302,-10.0
4303,0.0
4304,-9.0
4305,-15.0
4306,0.0
4307,-10.0
4308,-15.0
4309,-15.0
4310,0.0
4311,25.0
4312,-5.0
4313,-5.0
4314,-5.0
4315,-10.0
4316,0.0
4317,-9.0
4318,-4.0
4319,-15.0
4320,2.0
4321,10.0
4322,-10.0
4323,12.0
4324,-9.0
4325,6.0
4326,-5.0
4327,-15.0
4328,6.0
4329,-8.0
4330,-9.0
4331,-8.0
4332,22.0
4333,-15.0
4334,10.0
4335,1.0
4336,62.0
4337,-15.0
4338,-8.0
4339,20.0
4340,20.0
4341,5.0
4342,-5.0
4343,-10.0
4344,-10.0
4345,1.0
4346,-5.0
4347,-10.0
4348,-10.0
4349,33.0
4350,2.0
4351,29.0
4352,21.0
4353,65.0
4354,-15.0
4355,-9.0
4356,21.0
4357,-10.0
4358,24.0
4359,-15.0
4360,-4.0
4361,-10.0
4362,6.0
4363,6.0
4364,-9.0
4365,-9.0
4366,-4.0
4367,-4.0
4368,72.0
4369,-14.0
4370,32.0
4371,11.0
4372,1.0
4373,6.0
4374,-10.0
4375,15.0
4376,-10.0
4377,-9.0
4378,-9.0
4379,0.0
4380,0.0
4381,-8.0
4382,5.0
4383,30.0
4384,10.0
4385,-15.0
4386,56.0
4387,-15.0
4388,0.0
4389,6.0
4390,0.0
4391,25.0
4392,16.0
4393,21.0
4394,11.0
4395,0.0
4396,-5.0
4397,-5.0
4398,32.0
4399,46.0
4400,12.0
4401,35.0
4402,15.0
4403,-10.0
4404,-8.0
4405,-4.0
4406,1.0
4407,-4.0
4408,2.0
4409,5.0
4410,1.0
4411,-10.0
4412,28.0
4413,-10.0
4414,0.0
4415,45.0
4416,43.0
4417,-4.0
4418,25.0
4419,1.0
4420,25.0
4421,0.0
4422,0.0
4423,21.0
4424,7.0
4425,-10.0
4426,1.0
4427,-10.0
4428,-9.0
4429,-10.0
4430,0.0
4431,2.0
4432,52.0
4433,-5.0
4434,-10.0
4435,46.0
4436,20.0
4437,0.0
4438,-3.0
4439,-10.0
4440,-14.0
4441,70.0
4442,10.0
4443,-10.0
4444,20.0
4445,-15.0
4446,16.0
4447,1.0
4448,-5.0
4449,-15.0
4450,-5.0
4451,10.0
4452,2.0
4453,-5.0
4454,-5.0
4455,-5.0
4456,-10.0
4457,62.0
4458,20.0
4459,20.0
4460,6.0
4461,1.0
4462,20.0
4463,36.0
4464,-10.0
4465,25.0
4466,0.0
4467,-4.0
4468,34.0
4469,1.0
4470,-15.0
4471,-14.0
4472,16.0
4473,25.0
4474,27.0
4475,12.0
4476,13.0
4477,16.0
4478,0.0
4479,0.0
4480,5.0
4481,11.0
4482,-10.0
4483,-10.0
4484,15.0
4485,0.0
4486,1.0
4487,17.0
4488,-15.0
4489,11.0
4490,-10.0
4491,-10.0
4492,-5.0
4493,20.0
4494,-4.0
4495,-10.0
4496,-5.0
4497,20.0
4498,50.0
4499,11.0
4500,66.0
4501,0.0
4502,10.0
4503,10.0
4504,-14.0
4505,-10.0
4506,6.0
4507,-9.0
4508,28.0
4509,23.0
4510,20.0
4511,12.0
4512,-4.0
4513,-10.0
4514,-15.0
4515,57.0
4516,13.0
4517,16.0
4518,41.0
4519,-9.0
4520,-4.0
4521,52.0
4522,25.0
4523,15.0
4524,50.0
4525,0.0
4526,10.0
4527,-5.0
4528,42.0
4529,2.0
4530,24.0
4531,10.0
4532,22.0
4533,1.0
4534,5.0
4535,-4.0
4536,25.0
4537,-5.0
4538,-5.0
4539,-10.0
4540,30.0
4541,31.0
4542,15.0
4543,5.0
4544,11.0
4545,20.0
4546,-4.0
4547,0.0
4548,0.0
4549,27.0
4550,10.0
4551,-10.0
4552,-5.0
4553,-10.0
4554,-10.0
4555,-5.0
4556,5.0
4557,5.0
4558,-5.0
4559,-10.0
4560,15.0
4561,6.0
4562,10.0
4563,-14.0
4564,20.0
4565,-15.0
4566,-10.0
4567,0.0
4568,6.0
4569,-15.0
4570,1.0
4571,55.0
4572,-5.0
4573,0.0
4574,-15.0
4575,1.0
4576,41.0
4577,0.0
4578,16.0
4579,20.0
4580,0.0
4581,0.0
4582,-9.0
4583,10.0
4584,0.0
4585,22.0
4586,2.0
4587,23.0
4588,12.0
4589,0.0
4590,-15.0
4591,18.0
4592,-10.0
4593,-9.0
4594,-15.0
4595,12.0
4596,10.0
4597,-9.0
4598,20.0
4599,30.0
4600,-15.0
4601,5.0
4602,10.0
4603,2.0
4604,66.0
4605,1.0
4606,-15.0
4607,0.0
4608,25.0
4609,1.0
4610,-15.0
4611,-10.0
4612,20.0
4613,5.0
4614,30.0
4615,-10.0
4616,-15.0
4617,-9.0
4618,-10.0
4619,-9.0
4620,-15.0
4621,-10.0
4622,60.0
4623,-14.0
4624,46.0
4625,16.0
4626,6.0
4627,-5.0
4628,20.0
4629,1.0
4630,-5.0
4631,-10.0
4632,13.0
4633,-10.0
4634,51.0
4635,21.0
4636,0.0
4637,-10.0
4638,-15.0
4639,10.0
4640,2.0
4641,20.0
4642,-9.0
4643,-10.0
4644,58.0
4645,1.0
4646,57.0
4647,6.0
4648,30.0
4649,15.0
4650,21.0
4651,0.0
4652,21.0
4653,-14.0
4654,20.0
4655,1.0
4656,5.0
4657,36.0
4658,-10.0
4659,62.0
4660,-10.0
4661,0.0
4662,16.0
4663,20.0
4664,-15.0
4665,30.0
4666,23.0
4667,-10.0
4668,-9.0
4669,-10.0
4670,7.0
4671,-15.0
4672,-9.0
4673,0.0
4674,-4.0
4675,-15.0
4676,42.0
4677,6.0
4678,0.0
4679,0.0
4680,-3.0
4681,25.0
4682,-10.0
4683,-5.0
4684,16.0
4685,0.0
4686,56.0
4687,3.0
4688,-10.0
4689,6.0
4690,10.0
4691,-5.0
4692,-10.0
4693,16.0
4694,-9.0
4695,6.0
4696,5.0
4697,0.0
4698,54.0
4699,17.0
4700,21.0
4701,21.0
4702,-10.0
4703,45.0
4704,58.0
4705,25.0
4706,45.0
4707,20.0
4708,31.0
4709,-9.0
4710,16.0
4711,0.0
4712,0.0
4713,5.0
4714,21.0
4715,-10.0
4716,10.0
4717,6.0
4718,-4.0
4719,5.0
4720,-3.0
4721,20.0
4722,2.0
4723,-10.0
4724,-14.0
4725,11.0
4726,-5.0
4727,25.0
4728,-14.0
4729,1.0
4730,0.0
4731,12.0
4732,-10.0
4733,15.0
4734,5.0
4735,60.0
4736,-10.0
4737,0.0
4738,-10.0
4739,-15.0
4740,-10.0
4741,-10.0
4742,10.0
4743,67.0
4744,31.0
4745,5.0
4746,-9.0
4747,-10.0
4748,-5.0
4749,55.0
4750,20.0
4751,-10.0
4752,-15.0
4753,22.0
4754,-15.0
4755,32.0
4756,35.0
4757,0.0
4758,0.0
4759,-10.0
4760,-10.0
4761,6.0
4762,-5.0
4763,-9.0
4764,15.0
4765,66.0
4766,-10.0
4767,10.0
4768,-9.0
4769,-10.0
4770,20.0
4771,43.0
4772,-9.0
4773,-9.0
4774,-10.0
4775,-5.0
4776,48.0
4777,21.0
4778,-10.0
4779,25.0
4780,33.0
4781,16.0
4782,-9.0
4783,25.0
4784,22.0
4785,7.0
4786,-9.0
4787,32.0
4788,0.0
4789,-15.0
4790,0.0
4791,-15.0
4792,0.0
4793,13.0
4794,41.0
4795,-10.0
4796,15.0
4797,45.0
4798,11.0
4799,5.0
4800,1.0
4801,0.0
4802,-5.0
4803,20.0
4804,30.0
4805,6.0
4806,-10.0
4807,-10.0
4808,40.0
4809,-10.0
4810,20.0
4811,21.0
4812,1.0
4813,33.0
4814,0.0
4815,1.0
4816,25.0
4817,-15.0
4818,-10.0
4819,-8.0
4820,-4.0
4821,-10.0
4822,20.0
4823,-3.0
4824,7.0
4825,-10.0
4826,22.0
4827,-15.0
4828,56.0
4829,1.0
4830,51.0
4831,20.0
4832,-14.0
4833,-10.0
4834,-5.0
4835,5.0
4836,10.0
4837,-10.0
4838,-15.0
4839,-4.0
4840,11.0
4841,36.0
4842,0.0
4843,-5.0
4844,-10.0
4845,-4.0
4846,-10.0
4847,-9.0
4848,-3.0
4849,20.0
4850,-3.0
4851,0.0
4852,-15.0
4853,-3.0
4854,11.0
4855,-10.0
4856,-10.0
4857,11.0
4858,5.0
4859,0.0
4860,-10.0
4861,-9.0
4862,60.0
4863,-10.0
4864,0.0
4865,10.0
4866,-15.0
4867,-15.0
4868,-5.0
4869,0.0
4870,-10.0
4871,-9.0
4872,-10.0
4873,1.0
4874,0.0
4875,-15.0
4876,-10.0
4877,-4.0
4878,-15.0
4879,-10.0
4880,-14.0
4881,1.0
4882,-10.0
4883,0.0
4884,55.0
4885,21.0
4886,16.0
4887,-15.0
4888,20.0
4889,61.0
4890,-10.0
4891,-15.0
4892,-2.0
4893,25.0
4894,-4.0
4895,1.0
4896,-10.0
4897,7.0
4898,0.0
4899,45.0
4900,-10.0
4901,-5.0
4902,61.0
4903,15.0
4904,5.0
4905,11.0
4906,-10.0
4907,0.0
4908,22.0
4909,-15.0
4910,0.0
4911,0.0
4912,-8.0
4913,-10.0
4914,0.0
4915,-10.0
4916,-15.0
4917,-4.0
4918,29.0
4919,50.0
4920,-10.0
4921,15.0
4922,-10.0
4923,92.0
4924,21.0
4925,15.0
4926,15.0
4927,11.0
4928,-15.0
4929,-10.0
4930,-9.0
4931,-8.0
4932,-15.0
4933,5.0
4934,-10.0
4935,-10.0
4936,1.0
4937,35.0
4938,20.0
4939,-5.0
4940,-10.0
4941,15.0
4942,10.0
4943,-15.0
4944,0.0
4945,-10.0
4946,10.0
4947,1.0
4948,15.0
4949,10.0
4950,-9.0
4951,0.0
4952,2.0
4953,-10.0
4954,0.0
4955,11.0
4956,26.0
4957,-10.0
4958,20.0
4959,-10.0
4960,-10.0
4961,26.0
4962,-10.0
4963,-10.0
4964,24.0
4965,-15.0
4966,-14.0
4967,-5.0
4968,20.0
4969,40.0
4970,2.0
4971,41.0
4972,-15.0
4973,35.0
4974,6.0
4975,35.0
4976,32.0
4977,-14.0
4978,-5.0
4979,-5.0
4980,15.0
4981,11.0
4982,25.0
4983,-9.0
4984,21.0
4985,-5.0
4986,-9.0
4987,-3.0
4988,-3.0
4989,-10.0
4990,5.0
4991,5.0
4992,-5.0
4993,-10.0
4994,6.0
4995,-15.0
4996,1.0
4997,10.0
4998,-5.0
4999,-5.0
5000,18.0
