episode,return
1,-15.0
2,-15.0
3,-9.0
4,-5.0
5,-9.0
6,-15.0
7,-15.0
8,-15.0
9,-15.0
10,-15.0
11,-15.0
12,-15.0
13,-15.0
14,-15.0
15,-10.0
16,-9.0
17,0.0
18,-10.0
19,-15.0
20,-10.0
21,-9.0
22,-10.0
23,1.0
24,-4.0
25,-10.0
26,-14.0
27,-5.0
28,-15.0
29,-10.0
30,-15.0
31,-10.0
32,-10.0
33,7.0
34,-5.0
35,-5.0
36,-9.0
37,0.0
38,-15.0
39,-10.0
40,5.0
41,0.0
42,2.0
43,-14.0
44,1.0
45,0.0
46,5.0
47,-10.0
48,-5.0
49,-15.0
50,-14.0
51,-5.0
52,0.0
53,-15.0
54,-15.0
55,0.0
56,-4.0
57,1.0
58,1.0
59,-4.0
60,1.0
61,0.0
62,12.0
63,-4.0
64,-5.0
65,-15.0
66,-10.0
67,-15.0
68,-15.0
69,0.0
70,-9.0
71,-15.0
72,-9.0
73,16.0
74,-5.0
75,11.0
76,-9.0
77,-15.0
78,-10.0
79,-10.0
80,-9.0
81,-14.0
82,-10.0
83,-10.0
84,-9.0
85,-15.0
86,-15.0
87,21.0
88,6.0
89,-15.0
90,-10.0
91,-5.0
92,-10.0
93,12.0
94,8.0
95,-10.0
96,-15.0
97,-10.0
98,5.0
99,15.0
100,-4.0
101,12.0
102,-5.0
103,-5.0
104,-15.0
105,37.0
106,5.0
107,-9.0
108,-14.0
109,11.0
110,-9.0
111,-10.0
112,-5.0
113,1.0
114,30.0
115,-3.0
116,-5.0
117,-9.0
118,-15.0
119,-2.0
120,-15.0
121,-15.0
122,-10.0
123,-14.0
124,-14.0
125,-10.0
126,-5.0
127,-4.0
128,-9.0
129,-5.0
130,-15.0
131,7.0
132,0.0
133,-10.0
134,-9.0
135,30.0
136,-14.0
137,-10.0
138,-15.0
139,-10.0
140,-8.0
141,-10.0
142,-5.0
143,20.0
144,-15.0
145,-10.0
146,24.0
147,1.0
148,-14.0
149,-10.0
150,-5.0
151,-10.0
152,-14.0
153,25.0
154,1.0
155,-5.0
156,-9.0
157,18.0
158,-10.0
159,-10.0
160,-15.0
161,15.0
162,-10.0
163,-9.0
164,-9.0
165,12.0
166,-15.0
167,-15.0
168,-15.0
169,10.0
170,-10.0
171,25.0
172,-5.0
173,-10.0
174,-15.0
175,-15.0
176,-15.0
177,-14.0
178,0.0
179,-10.0
180,-14.0
181,-10.0
182,20.0
183,10.0
184,0.0
185,-10.0
186,-4.0
187,10.0
188,-15.0
189,2.0
190,-5.0
191,-8.0
192,-14.0
193,0.0
194,-4.0
195,10.0
196,-10.0
197,-15.0
198,-5.0
199,-15.0
200,-10.0
201,-5.0
202,-9.0
203,0.0
204,0.0
205,-15.0
206,22.0
207,-5.0
208,-14.0
209,-5.0
210,-15.0
211,3.0
212,-5.0
213,2.0
214,-5.0
215,-15.0
216,-10.0
217,-14.0
218,-5.0
219,-9.0
220,-15.0
221,-4.0
222,-15.0
223,-9.0
224,20.0
225,-10.0
226,-5.0
227,-9.0
228,-15.0
229,-4.0
230,-5.0
231,50.0
232,-10.0
233,-15.0
234,-10.0
235,-15.0
236,-15.0
237,-9.0
238,-5.0
239,1.0
240,-15.0
241,-10.0
242,5.0
243,11.0
244,41.0
245,2.0
246,5.0
247,-10.0
248,2.0
249,0.0
250,20.0
251,-9.0
252,-10.0
253,-5.0
254,5.0
255,-15.0
256,-4.0
257,13.0
258,1.0
259,-8.0
260,-3.0
261,-5.0
262,0.0
263,30.0
264,-4.0
265,-15.0
266,0.0
267,-10.0
268,20.0
269,-15.0
270,-5.0
271,11.0
272,-5.0
273,-10.0
274,35.0
275,13.0
276,-5.0
277,-4.0
278,-9.0
279,-9.0
280,7.0
281,3.0
282,-9.0
283,0.0
284,-15.0
285,-15.0
286,-15.0
287,-10.0
288,18.0
289,1.0
290,22.0
291,22.0
292,15.0
293,-8.0
294,-15.0
295,-9.0
296,-15.0
297,-10.0
298,-5.0
299,6.0
300,21.0
301,2.0
302,18.0
303,-10.0
304,-5.0
305,-5.0
306,-10.0
307,-5.0
308,-9.0
309,0.0
310,30.0
311,-5.0
312,24.0
313,1.0
314,-10.0
315,-15.0
316,-10.0
317,-9.0
318,1.0
319,-14.0
320,-14.0
321,-10.0
322,-4.0
323,2.0
324,-4.0
325,-15.0
326,40.0
327,-10.0
328,23.0
329,40.0
330,-10.0
331,-14.0
332,-3.0
333,-5.0
334,6.0
335,-10.0
336,10.0
337,-10.0
338,-15.0
339,-10.0
340,5.0
341,-9.0
342,-15.0
343,-15.0
344,-10.0
345,-14.0
346,-14.0
347,-10.0
348,2.0
349,0.0
350,-8.0
351,-15.0
352,11.0
353,-10.0
354,5.0
355,-14.0
356,-15.0
357,10.0
358,28.0
359,1.0
360,0.0
361,3.0
362,-9.0
363,-9.0
364,-8.0
365,-15.0
366,-10.0
367,20.0
368,-5.0
369,-15.0
370,-10.0
371,1.0
372,-9.0
373,1.0
374,-9.0
375,-10.0
376,-15.0
377,-15.0
378,1.0
379,-5.0
380,0.0
381,6.0
382,-15.0
383,-15.0
384,10.0
385,10.0
386,-15.0
387,3.0
388,-14.0
389,-14.0
390,50.0
391,-15.0
392,-5.0
393,-5.0
394,5.0
395,-5.0
396,-4.0
397,57.0
398,-5.0
399,19.0
400,5.0
401,33.0
402,-15.0
403,-9.0
404,-4.0
405,38.0
406,-9.0
407,-15.0
408,-15.0
409,-15.0
410,17.0
411,-15.0
412,-15.0
413,26.0
414,-10.0
415,-14.0
416,54.0
417,-9.0
418,-5.0
419,-15.0
420,-4.0
421,-4.0
422,13.0
423,26.0
424,6.0
425,2.0
426,23.0
427,-15.0
428,-15.0
429,20.0
430,16.0
431,10.0
432,-10.0
433,1.0
434,-14.0
435,-9.0
436,-14.0
437,-9.0
438,-9.0
439,5.0
440,-4.0
441,-10.0
442,-10.0
443,2.0
444,-10.0
445,-15.0
446,1.0
447,-10.0
448,-3.0
449,-14.0
450,-8.0
451,-15.0
452,-4.0
453,6.0
454,-5.0
455,-10.0
456,5.0
457,-5.0
458,0.0
459,-14.0
460,-5.0
461,-14.0
462,-10.0
463,-14.0
464,0.0
465,-9.0
466,-15.0
467,-15.0
468,-15.0
469,-15.0
470,-5.0
471,10.0
472,8.0
473,-10.0
474,-15.0
475,-10.0
476,14.0
477,-5.0
478,17.0
479,16.0
480,-15.0
481,-15.0
482,-9.0
483,7.0
484,0.0
485,-10.0
486,-10.0
487,20.0
488,27.0
489,-9.0
490,0.0
491,-5.0
492,45.0
493,16.0
494,6.0
495,-5.0
496,-15.0
497,-15.0
498,-14.0
499,-4.0
500,-15.0
501,7.0
502,2.0
503,-5.0
504,-5.0
505,-10.0
506,1.0
507,-5.0
508,-15.0
509,-9.0
510,-10.0
511,0.0
512,-9.0
513,-3.0
514,0.0
515,-5.0
516,-10.0
517,-10.0
518,2.0
519,-10.0
520,-15.0
521,10.0
522,-5.0
523,5.0
524,-14.0
525,-14.0
526,0.0
527,-14.0
528,-14.0
529,-15.0
530,-10.0
531,-10.0
532,-10.0
533,0.0
534,-15.0
535,-14.0
536,38.0
537,0.0
538,20.0
539,40.0
540,25.0
541,-4.0
542,-10.0
543,14.0
544,35.0
545,10.0
546,-15.0
547,-10.0
548,0.0
549,-9.0
550,35.0
551,-10.0
552,0.0
553,1.0
554,-15.0
555,20.0
556,-10.0
557,-9.0
558,0.0
559,-15.0
560,-3.0
561,-10.0
562,-15.0
563,-15.0
564,-10.0
565,5.0
566,0.0
567,-5.0
568,20.0
569,-10.0
570,5.0
571,-10.0
572,-5.0
573,7.0
574,-9.0
575,5.0
576,0.0
577,-15.0
578,-10.0
579,15.0
580,-8.0
581,-15.0
582,-15.0
583,0.0
584,-10.0
585,-5.0
586,-10.0
587,-15.0
588,22.0
589,-8.0
590,-15.0
591,3.0
592,-15.0
593,-10.0
594,-14.0
595,-10.0
596,11.0
597,0.0
598,-10.0
599,20.0
600,0.0
601,-3.0
602,6.0
603,-14.0
604,-4.0
605,-10.0
606,25.0
607,-14.0
608,-15.0
609,-10.0
610,-9.0
611,-10.0
612,10.0
613,0.0
614,-4.0
615,-9.0
616,-15.0
617,-2.0
618,16.0
619,-15.0
620,-15.0
621,0.0
622,-10.0
623,-10.0
624,-15.0
625,-5.0
626,-10.0
627,-10.0
628,-5.0
629,-15.0
630,-14.0
631,-10.0
632,0.0
633,-10.0
634,5.0
635,5.0
636,-10.0
637,-10.0
638,-10.0
639,-10.0
640,40.0
641,0.0
642,-10.0
643,-3.0
644,-10.0
645,1.0
646,0.0
647,-15.0
648,-5.0
649,-8.0
650,-9.0
651,-10.0
652,-5.0
653,25.0
654,-9.0
655,-10.0
656,0.0
657,-15.0
658,-10.0
659,-14.0
660,-10.0
661,-10.0
662,5.0
663,1.0
664,-15.0
665,1.0
666,0.0
667,-10.0
668,6.0
669,-10.0
670,-15.0
671,-10.0
672,17.0
673,-10.0
674,-5.0
675,-15.0
676,38.0
677,-8.0
678,-15.0
679,10.0
680,-10.0
681,-15.0
682,-14.0
683,-10.0
684,-15.0
685,-9.0
686,5.0
687,-10.0
688,20.0
689,0.0
690,16.0
691,-5.0
692,-9.0
693,45.0
694,-15.0
695,0.0
696,-4.0
697,-15.0
698,21.0
699,-4.0
700,2.0
701,-9.0
702,-15.0
703,6.0
704,-10.0
705,5.0
706,-14.0
707,5.0
708,-10.0
709,10.0
710,-15.0
711,35.0
712,-15.0
713,5.0
714,-5.0
715,6.0
716,11.0
717,30.0
718,-15.0
719,10.0
720,-5.0
721,-10.0
722,-14.0
723,-4.0
724,-10.0
725,5.0
726,5.0
727,-5.0
728,-15.0
729,4.0
730,-9.0
731,25.0
732,-10.0
733,0.0
734,-5.0
735,-10.0
736,5.0
737,-10.0
738,10.0
739,-10.0
740,-4.0
741,-10.0
742,-4.0
743,22.0
744,15.0
745,-14.0
746,-8.0
747,-14.0
748,-15.0
749,-10.0
750,-10.0
751,-9.0
752,10.0
753,-10.0
754,-5.0
755,5.0
756,10.0
757,-9.0
758,-15.0
759,-15.0
760,-9.0
761,47.0
762,27.0
763,-10.0
764,-5.0
765,-14.0
766,0.0
767,-5.0
768,-9.0
769,-10.0
770,25.0
771,32.0
772,20.0
773,1.0
774,20.0
775,45.0
776,-15.0
777,-10.0
778,0.0
779,-14.0
780,-10.0
781,-10.0
782,-5.0
783,-10.0
784,-4.0
785,-15.0
786,-9.0
787,5.0
788,-3.0
789,-5.0
790,-10.0
791,-9.0
792,0.0
793,-15.0
794,0.0
795,-9.0
796,-10.0
797,-15.0
798,-14.0
799,-14.0
800,-14.0
801,-10.0
802,21.0
803,-10.0
804,0.0
805,0.0
806,-15.0
807,5.0
808,-9.0
809,11.0
810,-5.0
811,-15.0
812,-5.0
813,-15.0
814,-15.0
815,-5.0
816,-10.0
817,-5.0
818,0.0
819,-5.0
820,0.0
821,-9.0
822,60.0
823,-15.0
824,1.0
825,10.0
826,22.0
827,6.0
828,-15.0
829,15.0
830,0.0
831,-15.0
832,-10.0
833,-5.0
834,11.0
835,-9.0
836,-14.0
837,36.0
838,-8.0
839,8.0
840,20.0
841,-15.0
842,-10.0
843,0.0
844,-15.0
845,18.0
846,-10.0
847,0.0
848,-15.0
849,-15.0
850,0.0
851,-10.0
852,-10.0
853,17.0
854,-15.0
855,35.0
856,5.0
857,-14.0
858,20.0
859,-5.0
860,-9.0
861,0.0
862,-3.0
863,21.0
864,-5.0
865,2.0
866,16.0
867,-10.0
868,-15.0
869,-9.0
870,2.0
871,-14.0
872,-10.0
873,2.0
874,-9.0
875,-5.0
876,-5.0
877,-15.0
878,10.0
879,6.0
880,-14.0
881,-9.0
882,13.0
883,-9.0
884,-4.0
885,-5.0
886,1.0
887,-10.0
888,-15.0
889,-3.0
890,29.0
891,-5.0
892,-14.0
893,59.0
894,-10.0
895,0.0
896,11.0
897,-15.0
898,-15.0
899,-15.0
900,-15.0
901,-15.0
902,14.0
903,5.0
904,45.0
905,-10.0
906,-10.0
907,-5.0
908,-3.0
909,5.0
910,1.0
911,5.0
912,-10.0
913,-5.0
914,-5.0
915,62.0
916,0.0
917,5.0
918,-5.0
919,-5.0
920,-10.0
921,1.0
922,-10.0
923,21.0
924,0.0
925,22.0
926,36.0
927,-9.0
928,5.0
929,-10.0
930,-15.0
931,-10.0
932,-10.0
933,-4.0
934,6.0
935,-4.0
936,-10.0
937,7.0
938,-10.0
939,-4.0
940,-9.0
941,-14.0
942,-10.0
943,11.0
944,5.0
945,5.0
946,-5.0
947,5.0
948,-10.0
949,-10.0
950,-15.0
951,15.0
952,-10.0
953,10.0
954,-5.0
955,-10.0
956,-4.0
957,-5.0
958,-10.0
959,-5.0
960,-8.0
961,-10.0
962,0.0
963,-5.0
964,-5.0
965,-9.0
966,0.0
967,20.0
968,30.0
969,-10.0
970,0.0
971,-15.0
972,0.0
973,10.0
974,15.0
975,16.0
976,-5.0
977,-10.0
978,0.0
979,-5.0
980,-5.0
981,-5.0
982,0.0
983,-15.0
984,-15.0
985,-5.0
986,-5.0
987,11.0
988,-14.0
989,-9.0
990,-10.0
991,0.0
992,-10.0
993,-5.0
994,10.0
995,-15.0
996,0.0
997,-5.0
998,-15.0
999,-5.0
1000,-4.0
1001,-10.0
1002,-15.0
1003,-15.0
1004,-5.0
1005,-5.0
1006,-15.0
1007,-5.0
1008,20.0
1009,-5.0
1010,0.0
1011,-10.0
1012,-10.0
1013,10.0
1014,-10.0
1015,-5.0
1016,0.0
1017,0.0
1018,-15.0
1019,20.0
1020,-15.0
1021,1.0
1022,20.0
1023,-10.0
1024,31.0
1025,-4.0
1026,-10.0
1027,-10.0
1028,6.0
1029,-9.0
1030,-10.0
1031,-10.0
1032,-5.0
1033,-10.0
1034,-10.0
1035,21.0
1036,5.0
1037,-5.0
1038,-10.0
1039,-9.0
1040,-14.0
1041,32.0
1042,-5.0
1043,8.0
1044,-4.0
1045,-15.0
1046,-15.0
1047,0.0
1048,7.0
1049,-9.0
1050,10.0
1051,-5.0
1052,20.0
1053,-10.0
1054,-5.0
1055,11.0
1056,-15.0
1057,0.0
1058,-15.0
1059,-4.0
1060,-15.0
1061,-9.0
1062,5.0
1063,0.0
1064,-10.0
1065,0.0
1066,1.0
1067,-5.0
1068,0.0
1069,11.0
1070,5.0
1071,7.0
1072,0.0
1073,-10.0
1074,0.0
1075,5.0
1076,2.0
1077,-9.0
1078,-15.0
1079,-10.0
1080,-10.0
1081,-15.0
1082,-10.0
1083,-15.0
1084,10.0
1085,1.0
1086,1.0
1087,0.0
1088,0.0
1089,12.0
1090,-5.0
1091,12.0
1092,-5.0
1093,40.0
1094,-9.0
1095,-10.0
1096,5.0
1097,-5.0
1098,6.0
1099,-5.0
1100,-10.0
1101,-10.0
1102,-15.0
1103,-10.0
1104,-5.0
1105,10.0
1106,0.0
1107,-10.0
1108,-15.0
1109,-10.0
1110,39.0
1111,-9.0
1112,-15.0
1113,-14.0
1114,25.0
1115,-3.0
1116,-4.0
1117,-10.0
1118,1.0
1119,15.0
1120,-15.0
1121,16.0
1122,-5.0
1123,-14.0
1124,-10.0
1125,-9.0
1126,-9.0
1127,-10.0
1128,-5.0
1129,-15.0
1130,10.0
1131,-5.0
1132,-10.0
1133,0.0
1134,-15.0
1135,15.0
1136,-9.0
1137,-14.0
1138,11.0
1139,25.0
1140,-10.0
1141,-15.0
1142,0.0
1143,-10.0
1144,-15.0
1145,-15.0
1146,2.0
1147,-5.0
1148,34.0
1149,-15.0
1150,-9.0
1151,21.0
1152,0.0
1153,0.0
1154,0.0
1155,0.0
1156,-5.0
1157,-9.0
1158,0.0
1159,-15.0
1160,5.0
1161,-15.0
1162,-15.0
1163,0.0
1164,-10.0
1165,-9.0
1166,-10.0
1167,0.0
1168,-10.0
1169,-15.0
1170,-5.0
1171,5.0
1172,-9.0
1173,30.0
1174,11.0
1175,-9.0
1176,-9.0
1177,-15.0
1178,0.0
1179,0.0
1180,-15.0
1181,-15.0
1182,1.0
1183,-5.0
1184,0.0
1185,-15.0
1186,-15.0
1187,-9.0
1188,-10.0
1189,-10.0
1190,-15.0
1191,-14.0
1192,0.0
1193,-3.0
1194,15.0
1195,41.0
1196,-5.0
1197,25.0
1198,2.0
1199,-5.0
1200,20.0
1201,3.0
1202,-10.0
1203,-15.0
1204,-10.0
1205,-5.0
1206,-8.0
1207,-10.0
1208,-14.0
1209,-15.0
1210,-10.0
1211,-15.0
1212,-10.0
1213,-4.0
1214,-9.0
1215,-10.0
1216,11.0
1217,-10.0
1218,-10.0
1219,-8.0
1220,10.0
1221,0.0
1222,-10.0
1223,-4.0
1224,7.0
1225,-9.0
1226,10.0
1227,-10.0
1228,-9.0
1229,-15.0
1230,-10.0
1231,-10.0
1232,-15.0
1233,-5.0
1234,-15.0
1235,-15.0
1236,-5.0
1237,-15.0
1238,-10.0
1239,-10.0
1240,-5.0
1241,-15.0
1242,-14.0
1243,-10.0
1244,-10.0
1245,-9.0
1246,-5.0
1247,-10.0
1248,-9.0
1249,-9.0
1250,-9.0
1251,-15.0
1252,-15.0
1253,-9.0
1254,-9.0
1255,-15.0
1256,10.0
1257,-15.0
1258,6.0
1259,1.0
1260,10.0
1261,-10.0
1262,-15.0
1263,0.0
1264,5.0
1265,10.0
1266,-10.0
1267,-9.0
1268,-15.0
1269,-15.0
1270,0.0
1271,-15.0
1272,1.0
1273,10.0
1274,-15.0
1275,0.0
1276,10.0
1277,-5.0
1278,-15.0
1279,-5.0
1280,5.0
1281,-10.0
1282,-14.0
1283,-9.0
1284,-10.0
1285,-10.0
1286,-10.0
1287,11.0
1288,15.0
1289,-15.0
1290,0.0
1291,-10.0
1292,-9.0
1293,-14.0
1294,-10.0
1295,-10.0
1296,-10.0
1297,0.0
1298,-9.0
1299,-9.0
1300,8.0
1301,-9.0
1302,-9.0
1303,10.0
1304,1.0
1305,-10.0
1306,-10.0
1307,-15.0
1308,-10.0
1309,-8.0
1310,-10.0
1311,-15.0
1312,-9.0
1313,-15.0
1314,-9.0
1315,-15.0
1316,-10.0
1317,-10.0
1318,-15.0
1319,-15.0
1320,0.0
1321,-9.0
1322,-15.0
1323,-3.0
1324,-4.0
1325,-10.0
1326,-10.0
1327,10.0
1328,0.0
1329,-15.0
1330,20.0
1331,-5.0
1332,-10.0
1333,-10.0
1334,-15.0
1335,-15.0
1336,11.0
1337,-4.0
1338,-15.0
1339,-9.0
1340,1.0
1341,5.0
1342,-15.0
1343,-5.0
1344,-5.0
1345,-10.0
1346,-10.0
1347,0.0
1348,7.0
1349,0.0
1350,-9.0
1351,11.0
1352,-15.0
1353,-15.0
1354,5.0
1355,-10.0
1356,-15.0
1357,-3.0
1358,-15.0
1359,0.0
1360,-5.0
1361,-9.0
1362,-5.0
1363,-14.0
1364,-10.0
1365,-9.0
1366,-10.0
1367,-14.0
1368,-15.0
1369,2.0
1370,-9.0
1371,5.0
1372,-9.0
1373,6.0
1374,-10.0
1375,75.0
1376,1.0
1377,-5.0
1378,-15.0
1379,10.0
1380,-10.0
1381,10.0
1382,-15.0
1383,0.0
1384,-10.0
1385,-10.0
1386,-15.0
1387,-10.0
1388,-10.0
1389,0.0
1390,-3.0
1391,-15.0
1392,-10.0
1393,0.0
1394,-15.0
1395,-8.0
1396,-10.0
1397,-10.0
1398,-14.0
1399,-15.0
1400,-4.0
1401,-14.0
1402,-10.0
1403,-15.0
1404,21.0
1405,-10.0
1406,-10.0
1407,-10.0
1408,0.0
1409,-15.0
1410,-15.0
1411,0.0
1412,0.0
1413,1.0
1414,-5.0
1415,5.0
1416,-15.0
1417,-10.0
1418,-5.0
1419,-10.0
1420,-5.0
1421,-9.0
1422,0.0
1423,-9.0
1424,-5.0
1425,-9.0
1426,-10.0
1427,-10.0
1428,-15.0
1429,5.0
1430,-10.0
1431,1.0
1432,0.0
1433,-14.0
1434,-15.0
1435,-10.0
1436,-9.0
1437,-10.0
1438,0.0
1439,0.0
1440,-9.0
1441,-10.0
1442,-15.0
1443,-9.0
1444,-15.0
1445,-15.0
1446,-10.0
1447,-15.0
1448,-10.0
1449,-9.0
1450,-10.0
1451,12.0
1452,-15.0
1453,-15.0
1454,0.0
1455,-15.0
1456,-5.0
1457,-15.0
1458,-9.0
1459,-10.0
1460,-10.0
1461,-9.0
1462,-5.0
1463,40.0
1464,-5.0
1465,-5.0
1466,-9.0
1467,10.0
1468,-10.0
1469,-10.0
1470,-10.0
1471,-10.0
1472,-5.0
1473,-10.0
1474,-15.0
1475,0.0
1476,5.0
1477,-10.0
1478,-9.0
1479,25.0
1480,-15.0
1481,5.0
1482,0.0
1483,-10.0
1484,-10.0
1485,-10.0
1486,12.0
1487,-10.0
1488,22.0
1489,10.0
1490,-14.0
1491,-8.0
1492,-15.0
1493,-5.0
1494,-15.0
1495,-10.0
1496,30.0
1497,-9.0
1498,-15.0
1499,-14.0
1500,5.0
1501,-10.0
1502,-5.0
1503,10.0
1504,-5.0
1505,15.0
1506,-5.0
1507,-10.0
1508,-10.0
1509,15.0
1510,-5.0
1511,-10.0
1512,-10.0
1513,-15.0
1514,-15.0
1515,-14.0
1516,-10.0
1517,2.0
1518,15.0
1519,-9.0
1520,-10.0
1521,22.0
1522,-10.0
1523,-15.0
1524,-14.0
1525,-10.0
1526,-9.0
1527,-10.0
1528,-15.0
1529,-10.0
1530,-15.0
1531,30.0
1532,-15.0
1533,10.0
1534,-10.0
1535,-9.0
1536,-5.0
1537,-15.0
1538,-15.0
1539,-15.0
1540,-9.0
1541,-14.0
1542,-10.0
1543,-10.0
1544,10.0
1545,-15.0
1546,-14.0
1547,-5.0
1548,-10.0
1549,-5.0
1550,-15.0
1551,20.0
1552,-9.0
1553,-8.0
1554,-15.0
1555,5.0
1556,-5.0
1557,-15.0
1558,-14.0
1559,-9.0
1560,26.0
1561,-10.0
1562,-10.0
1563,1.0
1564,-10.0
1565,0.0
1566,-5.0
1567,1.0
1568,11.0
1569,-15.0
1570,0.0
1571,-9.0
1572,-5.0
1573,10.0
1574,-10.0
1575,-4.0
1576,-14.0
1577,-9.0
1578,0.0
1579,-8.0
1580,20.0
1581,-15.0
1582,-10.0
1583,-15.0
1584,-5.0
1585,-10.0
1586,1.0
1587,20.0
1588,-10.0
1589,-4.0
1590,0.0
1591,-15.0
1592,-10.0
1593,-10.0
1594,30.0
1595,-15.0
1596,5.0
1597,7.0
1598,-5.0
1599,-10.0
1600,-15.0
1601,10.0
1602,0.0
1603,-15.0
1604,-15.0
1605,-5.0
1606,0.0
1607,-15.0
1608,-9.0
1609,-9.0
1610,0.0
1611,11.0
1612,-15.0
1613,-10.0
1614,-9.0
1615,-10.0
1616,-9.0
1617,-15.0
1618,-15.0
1619,-5.0
1620,-15.0
1621,16.0
1622,-10.0
1623,-10.0
1624,6.0
1625,-15.0
1626,1.0
1627,-15.0
1628,-4.0
1629,-10.0
1630,-9.0
1631,16.0
1632,-10.0
1633,5.0
1634,11.0
1635,-5.0
1636,-10.0
1637,-10.0
1638,-5.0
1639,-15.0
1640,-15.0
1641,0.0
1642,-10.0
1643,-10.0
1644,10.0
1645,-10.0
1646,-3.0
1647,1.0
1648,6.0
1649,-9.0
1650,-10.0
1651,13.0
1652,-15.0
1653,1.0
1654,10.0
1655,-4.0
1656,15.0
1657,-13.0
1658,-14.0
1659,0.0
1660,-15.0
1661,-10.0
1662,-10.0
1663,-10.0
1664,-14.0
1665,-15.0
1666,-14.0
1667,6.0
1668,-5.0
1669,-10.0
1670,-15.0
1671,5.0
1672,-5.0
1673,5.0
1674,-15.0
1675,0.0
1676,-15.0
1677,5.0
1678,-10.0
1679,-3.0
1680,-15.0
1681,-15.0
1682,10.0
1683,16.0
1684,-10.0
1685,-15.0
1686,-15.0
1687,7.0
1688,5.0
1689,-10.0
1690,4.0
1691,-9.0
1692,-5.0
1693,-10.0
1694,64.0
1695,-15.0
1696,23.0
1697,-15.0
1698,10.0
1699,0.0
1700,-10.0
1701,10.0
1702,-5.0
1703,1.0
1704,17.0
1705,-10.0
1706,0.0
1707,-15.0
1708,-10.0
1709,-15.0
1710,-10.0
1711,5.0
1712,-10.0
1713,-15.0
1714,-10.0
1715,1.0
1716,-8.0
1717,0.0
1718,10.0
1719,-15.0
1720,-15.0
1721,-15.0
1722,-10.0
1723,-10.0
1724,-9.0
1725,-10.0
1726,-10.0
1727,-10.0
1728,-15.0
1729,-9.0
1730,-15.0
1731,-4.0
1732,-10.0
1733,-5.0
1734,-2.0
1735,20.0
1736,-10.0
1737,-5.0
1738,25.0
1739,-15.0
1740,-15.0
1741,5.0
1742,-15.0
1743,-5.0
1744,-5.0
1745,16.0
1746,16.0
1747,-14.0
1748,-10.0
1749,-9.0
1750,-15.0
1751,15.0
1752,-10.0
1753,5.0
1754,-10.0
1755,-10.0
1756,-10.0
1757,-10.0
1758,-4.0
1759,-10.0
1760,-5.0
1761,11.0
1762,-10.0
1763,-10.0
1764,-4.0
1765,-10.0
1766,-10.0
1767,-10.0
1768,-10.0
1769,-15.0
1770,-8.0
1771,-15.0
1772,2.0
1773,-15.0
1774,-15.0
1775,-10.0
1776,10.0
1777,0.0
1778,5.0
1779,-15.0
1780,-10.0
1781,-15.0
1782,-10.0
1783,36.0
1784,-15.0
1785,-15.0
1786,-15.0
1787,-15.0
1788,-14.0
1789,-10.0
1790,-10.0
1791,0.0
1792,-5.0
1793,-5.0
1794,26.0
1795,-10.0
1796,-10.0
1797,-10.0
1798,0.0
1799,-15.0
1800,-15.0
1801,-4.0
1802,-15.0
1803,-10.0
1804,-10.0
1805,1.0
1806,-15.0
1807,-10.0
1808,-10.0
1809,-9.0
1810,22.0
1811,-10.0
1812,0.0
1813,-15.0
1814,-15.0
1815,16.0
1816,-15.0
1817,0.0
1818,-10.0
1819,-10.0
1820,10.0
1821,-10.0
1822,-5.0
1823,-14.0
1824,-10.0
1825,-15.0
1826,-15.0
1827,5.0
1828,25.0
1829,20.0
1830,-14.0
1831,-15.0
1832,1.0
1833,-15.0
1834,-9.0
1835,-15.0
1836,-10.0
1837,-10.0
1838,-15.0
1839,-10.0
1840,30.0
1841,-10.0
1842,-10.0
1843,-8.0
1844,-5.0
1845,-10.0
1846,-15.0
1847,-15.0
1848,-10.0
1849,0.0
1850,0.0
1851,-10.0
1852,0.0
1853,-5.0
1854,-15.0
1855,20.0
1856,17.0
1857,-5.0
1858,0.0
1859,0.0
1860,-14.0
1861,-14.0
1862,-4.0
1863,-15.0
1864,-9.0
1865,12.0
1866,-10.0
1867,-3.0
1868,-15.0
1869,5.0
1870,0.0
1871,-14.0
1872,10.0
1873,-5.0
1874,-10.0
1875,21.0
1876,-10.0
1877,-15.0
1878,-10.0
1879,-10.0
1880,-9.0
1881,-10.0
1882,-10.0
1883,-9.0
1884,0.0
1885,-5.0
1886,-15.0
1887,-10.0
1888,-5.0
1889,-15.0
1890,-3.0
1891,5.0
1892,-15.0
1893,-9.0
1894,30.0
1895,-14.0
1896,11.0
1897,-5.0
1898,-5.0
1899,-4.0
1900,-10.0
1901,-5.0
1902,-15.0
1903,0.0
1904,-10.0
1905,-4.0
1906,-5.0
1907,0.0
1908,0.0
1909,30.0
1910,-10.0
1911,11.0
1912,-10.0
1913,-9.0
1914,-10.0
1915,-10.0
1916,-9.0
1917,-9.0
1918,-9.0
1919,-4.0
1920,-15.0
1921,-10.0
1922,1.0
1923,-15.0
1924,-10.0
1925,-5.0
1926,-5.0
1927,21.0
1928,10.0
1929,-8.0
1930,0.0
1931,-14.0
1932,-10.0
1933,-15.0
1934,-5.0
1935,25.0
1936,-9.0
1937,10.0
1938,-10.0
1939,-15.0
1940,-10.0
1941,-9.0
1942,-15.0
1943,5.0
1944,0.0
1945,-10.0
1946,5.0
1947,-15.0
1948,-10.0
1949,0.0
1950,8.0
1951,-9.0
1952,-9.0
1953,10.0
1954,0.0
1955,-9.0
1956,20.0
1957,1.0
1958,-5.0
1959,-10.0
1960,-10.0
1961,-10.0
1962,-14.0
1963,-10.0
1964,1.0
1965,-9.0
1966,-9.0
1967,10.0
1968,5.0
1969,-10.0
1970,-14.0
1971,-5.0
1972,12.0
1973,20.0
1974,-9.0
1975,-10.0
1976,-10.0
1977,-10.0
1978,0.0
1979,-4.0
1980,-10.0
1981,-10.0
1982,0.0
1983,0.0
1984,-10.0
1985,-10.0
1986,-10.0
1987,-15.0
1988,-10.0
1989,-10.0
1990,-15.0
1991,-9.0
1992,0.0
1993,0.0
1994,-15.0
1995,-15.0
1996,-15.0
1997,-15.0
1998,-10.0
1999,6.0
2000,-10.0
2001,-5.0
2002,-10.0
2003,-15.0
2004,-10.0
2005,-5.0
2006,-10.0
2007,-4.0
2008,-9.0
2009,6.0
2010,-14.0
2011,-14.0
2012,5.0
2013,-14.0
2014,-10.0
2015,-4.0
2016,-10.0
2017,-15.0
2018,-5.0
2019,1.0
2020,-9.0
2021,-15.0
2022,-4.0
2023,-4.0
2024,-5.0
2025,1.0
2026,-9.0
2027,-15.0
2028,20.0
2029,-10.0
2030,-15.0
2031,0.0
2032,-9.0
2033,-15.0
2034,-5.0
2035,-10.0
2036,-10.0
2037,5.0
2038,-10.0
2039,-10.0
2040,0.0
2041,0.0
2042,-15.0
2043,-15.0
2044,-10.0
2045,-9.0
2046,-10.0
2047,-14.0
2048,-15.0
2049,-15.0
2050,-5.0
2051,-4.0
2052,1.0
2053,-10.0
2054,-5.0
2055,-10.0
2056,-5.0
2057,-14.0
2058,-9.0
2059,-15.0
2060,-5.0
2061,-10.0
2062,-10.0
2063,-15.0
2064,12.0
2065,-10.0
2066,-15.0
2067,5.0
2068,-10.0
2069,11.0
2070,0.0
2071,-10.0
2072,1.0
2073,20.0
2074,-15.0
2075,-15.0
2076,-10.0
2077,-15.0
2078,-4.0
2079,-9.0
2080,-10.0
2081,-15.0
2082,-9.0
2083,1.0
2084,-15.0
2085,-15.0
2086,-5.0
2087,5.0
2088,-4.0
2089,-15.0
2090,25.0
2091,-10.0
2092,-10.0
2093,-10.0
2094,-10.0
2095,-10.0
2096,-15.0
2097,1.0
2098,-15.0
2099,-5.0
2100,-15.0
2101,-10.0
2102,6.0
2103,30.0
2104,-10.0
2105,-10.0
2106,-10.0
2107,-10.0
2108,-15.0
2109,-15.0
2110,-10.0
2111,-10.0
2112,-10.0
2113,-9.0
2114,-5.0
2115,-9.0
2116,-4.0
2117,-4.0
2118,-15.0
2119,-15.0
2120,-9.0
2121,21.0
2122,-5.0
2123,-15.0
2124,0.0
2125,-10.0
2126,-10.0
2127,-10.0
2128,-10.0
2129,-10.0
2130,17.0
2131,-9.0
2132,0.0
2133,-10.0
2134,10.0
2135,0.0
2136,-10.0
2137,5.0
2138,-10.0
2139,2.0
2140,-14.0
2141,-14.0
2142,-10.0
2143,-9.0
2144,5.0
2145,-10.0
2146,15.0
2147,-15.0
2148,-4.0
2149,-15.0
2150,-10.0
2151,0.0
2152,-9.0
2153,-10.0
2154,-9.0
2155,-5.0
2156,-10.0
2157,-4.0
2158,1.0
2159,-5.0
2160,-4.0
2161,-10.0
2162,12.0
2163,-15.0
2164,-15.0
2165,1.0
2166,-15.0
2167,-10.0
2168,-15.0
2169,5.0
2170,-15.0
2171,-15.0
2172,0.0
2173,0.0
2174,-10.0
2175,-10.0
2176,-10.0
2177,-10.0
2178,-14.0
2179,-15.0
2180,-10.0
2181,-3.0
2182,15.0
2183,1.0
2184,-9.0
2185,-15.0
2186,-10.0
2187,-14.0
2188,-15.0
2189,6.0
2190,11.0
2191,1.0
2192,10.0
2193,-10.0
2194,-10.0
2195,-14.0
2196,-10.0
2197,-15.0
2198,-15.0
2199,-10.0
2200,-15.0
2201,-15.0
2202,-10.0
2203,-5.0
2204,-10.0
2205,-9.0
2206,0.0
2207,5.0
2208,-15.0
2209,-9.0
2210,-10.0
2211,-5.0
2212,0.0
2213,-9.0
2214,0.0
2215,-9.0
2216,-3.0
2217,-15.0
2218,-10.0
2219,-15.0
2220,-10.0
2221,-10.0
2222,-9.0
2223,10.0
2224,-10.0
2225,-10.0
2226,-10.0
2227,-8.0
2228,20.0
2229,-5.0
2230,-10.0
2231,-10.0
2232,-3.0
2233,-10.0
2234,-5.0
2235,-15.0
2236,-15.0
2237,-4.0
2238,0.0
2239,15.0
2240,-9.0
2241,20.0
2242,-15.0
2243,-10.0
2244,-10.0
2245,-10.0
2246,-10.0
2247,-15.0
2248,-10.0
2249,5.0
2250,-15.0
2251,10.0
2252,0.0
2253,-15.0
2254,-15.0
2255,-15.0
2256,-15.0
2257,-10.0
2258,0.0
2259,-15.0
2260,-10.0
2261,-15.0
2262,0.0
2263,-5.0
2264,-15.0
2265,-15.0
2266,-10.0
2267,-9.0
2268,25.0
2269,20.0
2270,-4.0
2271,-9.0
2272,-15.0
2273,-9.0
2274,10.0
2275,-15.0
2276,17.0
2277,-5.0
2278,35.0
2279,-10.0
2280,-10.0
2281,-10.0
2282,1.0
2283,-10.0
2284,-4.0
2285,-5.0
2286,-14.0
2287,-15.0
2288,-10.0
2289,-15.0
2290,-15.0
2291,-10.0
2292,0.0
2293,-10.0
2294,1.0
2295,-10.0
2296,-8.0
2297,-5.0
2298,0.0
2299,25.0
2300,-9.0
2301,-15.0
2302,6.0
2303,-9.0
2304,-10.0
2305,-10.0
2306,1.0
2307,-15.0
2308,-15.0
2309,-15.0
2310,-9.0
2311,-9.0
2312,-15.0
2313,-15.0
2314,-9.0
2315,0.0
2316,32.0
2317,10.0
2318,-10.0
2319,-10.0
2320,-9.0
2321,-4.0
2322,0.0
2323,5.0
2324,-9.0
2325,2.0
2326,-5.0
2327,15.0
2328,1.0
2329,0.0
2330,-9.0
2331,5.0
2332,-10.0
2333,-15.0
2334,-10.0
2335,-10.0
2336,0.0
2337,-5.0
2338,-10.0
2339,-5.0
2340,-9.0
2341,0.0
2342,0.0
2343,0.0
2344,-15.0
2345,-15.0
2346,10.0
2347,0.0
2348,1.0
2349,-5.0
2350,0.0
2351,1.0
2352,-10.0
2353,-9.0
2354,-5.0
2355,-9.0
2356,-15.0
2357,-5.0
2358,20.0
2359,-4.0
2360,-15.0
2361,-10.0
2362,-5.0
2363,-10.0
2364,-5.0
2365,-10.0
2366,-5.0
2367,2.0
2368,-10.0
2369,25.0
2370,0.0
2371,7.0
2372,-15.0
2373,-15.0
2374,-5.0
2375,-15.0
2376,-15.0
2377,-15.0
2378,26.0
2379,-10.0
2380,-5.0
2381,0.0
2382,-5.0
2383,-15.0
2384,-5.0
2385,-9.0
2386,-10.0
2387,-5.0
2388,-10.0
2389,-10.0
2390,-9.0
2391,-5.0
2392,-5.0
2393,-15.0
2394,0.0
2395,-10.0
2396,-15.0
2397,0.0
2398,-15.0
2399,-5.0
2400,-10.0
2401,11.0
2402,0.0
2403,9.0
2404,-10.0
2405,-15.0
2406,0.0
2407,-5.0
2408,-5.0
2409,-15.0
2410,-3.0
2411,-15.0
2412,-10.0
2413,-10.0
2414,-15.0
2415,-15.0
2416,10.0
2417,-5.0
2418,-15.0
2419,-15.0
2420,0.0
2421,-10.0
2422,5.0
2423,-5.0
2424,-5.0
2425,-14.0
2426,-10.0
2427,-15.0
2428,-15.0
2429,-15.0
2430,10.0
2431,-10.0
2432,-10.0
2433,-15.0
2434,1.0
2435,-9.0
2436,1.0
2437,10.0
2438,-10.0
2439,-10.0
2440,-10.0
2441,-10.0
2442,-4.0
2443,-10.0
2444,-15.0
2445,-10.0
2446,11.0
2447,-9.0
2448,-15.0
2449,-4.0
2450,-15.0
2451,-10.0
2452,-10.0
2453,0.0
2454,-15.0
2455,-15.0
2456,-14.0
2457,-9.0
2458,0.0
2459,-4.0
2460,12.0
2461,39.0
2462,-14.0
2463,15.0
2464,-5.0
2465,-15.0
2466,0.0
2467,10.0
2468,-10.0
2469,0.0
2470,-10.0
2471,0.0
2472,-9.0
2473,20.0
2474,-10.0
2475,7.0
2476,-5.0
2477,-14.0
2478,-15.0
2479,-15.0
2480,-15.0
2481,-15.0
2482,-9.0
2483,0.0
2484,-3.0
2485,-15.0
2486,-9.0
2487,-15.0
2488,32.0
2489,-15.0
2490,25.0
2491,-9.0
2492,-15.0
2493,0.0
2494,-5.0
2495,15.0
2496,3.0
2497,0.0
2498,-15.0
2499,5.0
2500,-10.0
2501,-15.0
2502,11.0
2503,1.0
2504,-15.0
2505,-10.0
2506,-15.0
2507,-9.0
2508,-10.0
2509,-10.0
2510,-10.0
2511,-10.0
2512,20.0
2513,-10.0
2514,-4.0
2515,-5.0
2516,-14.0
2517,0.0
2518,0.0
2519,-4.0
2520,0.0
2521,-10.0
2522,0.0
2523,-9.0
2524,0.0
2525,-4.0
2526,15.0
2527,-10.0
2528,-10.0
2529,-15.0
2530,6.0
2531,5.0
2532,0.0
2533,-10.0
2534,-14.0
2535,-9.0
2536,-5.0
2537,-4.0
2538,-15.0
2539,-10.0
2540,-10.0
2541,-15.0
2542,-10.0
2543,-15.0
2544,-10.0
2545,-15.0
2546,-10.0
2547,17.0
2548,-5.0
2549,-10.0
2550,-15.0
2551,-9.0
2552,-15.0
2553,-10.0
2554,-10.0
2555,-9.0
2556,-15.0
2557,-5.0
2558,10.0
2559,-15.0
2560,-15.0
2561,-10.0
2562,-15.0
2563,-15.0
2564,-10.0
2565,1.0
2566,-14.0
2567,-10.0
2568,0.0
2569,-9.0
2570,-9.0
2571,-5.0
2572,-10.0
2573,-10.0
2574,-15.0
2575,-14.0
2576,-9.0
2577,-9.0
2578,-15.0
2579,0.0
2580,-10.0
2581,-10.0
2582,-5.0
2583,-15.0
2584,-9.0
2585,-10.0
2586,-15.0
2587,-10.0
2588,-10.0
2589,-9.0
2590,0.0
2591,-5.0
2592,15.0
2593,-15.0
2594,-3.0
2595,-5.0
2596,5.0
2597,-10.0
2598,-10.0
2599,-14.0
2600,-10.0
2601,1.0
2602,-15.0
2603,-9.0
2604,-10.0
2605,0.0
2606,-9.0
2607,-10.0
2608,15.0
2609,-10.0
2610,5.0
2611,-9.0
2612,-10.0
2613,-4.0
2614,-9.0
2615,-15.0
2616,-5.0
2617,-10.0
2618,-5.0
2619,0.0
2620,-5.0
2621,37.0
2622,-10.0
2623,-5.0
2624,-5.0
2625,0.0
2626,-15.0
2627,-10.0
2628,5.0
2629,-9.0
2630,35.0
2631,-15.0
2632,-4.0
2633,-10.0
2634,-15.0
2635,-9.0
2636,10.0
2637,-9.0
2638,1.0
2639,15.0
2640,-15.0
2641,-15.0
2642,5.0
2643,-14.0
2644,0.0
2645,-3.0
2646,-4.0
2647,-10.0
2648,6.0
2649,-15.0
2650,15.0
2651,-15.0
2652,-15.0
2653,0.0
2654,-10.0
2655,15.0
2656,-15.0
2657,-5.0
2658,-4.0
2659,-10.0
2660,-5.0
2661,-10.0
2662,-10.0
2663,-10.0
2664,-15.0
2665,-10.0
2666,-10.0
2667,10.0
2668,-14.0
2669,-10.0
2670,-15.0
2671,-15.0
2672,-10.0
2673,-14.0
2674,0.0
2675,-10.0
2676,-5.0
2677,-15.0
2678,1.0
2679,-5.0
2680,-9.0
2681,0.0
2682,0.0
2683,-5.0
2684,20.0
2685,20.0
2686,-10.0
2687,-9.0
2688,-5.0
2689,-10.0
2690,-9.0
2691,-10.0
2692,15.0
2693,-10.0
2694,-5.0
2695,-15.0
2696,-5.0
2697,20.0
2698,0.0
2699,-9.0
2700,-10.0
2701,-15.0
2702,-5.0
2703,-9.0
2704,-10.0
2705,-10.0
2706,-14.0
2707,-4.0
2708,-15.0
2709,-5.0
2710,15.0
2711,-10.0
2712,-10.0
2713,5.0
2714,-15.0
2715,-15.0
2716,-10.0
2717,-10.0
2718,-15.0
2719,-10.0
2720,-10.0
2721,20.0
2722,10.0
2723,-10.0
2724,-10.0
2725,-9.0
2726,-10.0
2727,-10.0
2728,2.0
2729,-14.0
2730,-10.0
2731,-15.0
2732,-5.0
2733,-15.0
2734,-10.0
2735,-3.0
2736,0.0
2737,-15.0
2738,-15.0
2739,-10.0
2740,-10.0
2741,0.0
2742,-15.0
2743,-9.0
2744,0.0
2745,-10.0
2746,15.0
2747,-15.0
2748,-15.0
2749,-10.0
2750,-5.0
2751,-10.0
2752,5.0
2753,-10.0
2754,-10.0
2755,-15.0
2756,-10.0
2757,-10.0
2758,-15.0
2759,-15.0
2760,40.0
2761,-9.0
2762,-15.0
2763,-15.0
2764,-10.0
2765,-10.0
2766,0.0
2767,-10.0
2768,-14.0
2769,-15.0
2770,-9.0
2771,-15.0
2772,-9.0
2773,-5.0
2774,-10.0
2775,-15.0
2776,-5.0
2777,-10.0
2778,-9.0
2779,-10.0
2780,-10.0
2781,-15.0
2782,-10.0
2783,-10.0
2784,-10.0
2785,-10.0
2786,-15.0
2787,-10.0
2788,-10.0
2789,0.0
2790,-14.0
2791,-15.0
2792,-5.0
2793,-15.0
2794,-15.0
2795,-10.0
2796,-5.0
2797,-15.0
2798,-10.0
2799,25.0
2800,-10.0
2801,-10.0
2802,0.0
2803,-10.0
2804,-15.0
2805,-5.0
2806,-10.0
2807,-10.0
2808,20.0
2809,-10.0
2810,0.0
2811,-5.0
2812,-4.0
2813,-15.0
2814,-5.0
2815,-5.0
2816,-15.0
2817,0.0
2818,-10.0
2819,-10.0
2820,-10.0
2821,-5.0
2822,-10.0
2823,0.0
2824,-14.0
2825,-10.0
2826,-10.0
2827,-14.0
2828,-10.0
2829,5.0
2830,-15.0
2831,-5.0
2832,-15.0
2833,-15.0
2834,-14.0
2835,-5.0
2836,20.0
2837,-10.0
2838,-15.0
2839,-10.0
2840,-10.0
2841,-10.0
2842,30.0
2843,-15.0
2844,-10.0
2845,-10.0
2846,-10.0
2847,-3.0
2848,6.0
2849,5.0
2850,-15.0
2851,-10.0
2852,-9.0
2853,1.0
2854,5.0
2855,-4.0
2856,-10.0
2857,-14.0
2858,-10.0
2859,-15.0
2860,0.0
2861,-9.0
2862,-15.0
2863,-10.0
2864,-5.0
2865,15.0
2866,-5.0
2867,0.0
2868,-5.0
2869,-10.0
2870,-15.0
2871,-10.0
2872,15.0
2873,-10.0
2874,-10.0
2875,-10.0
2876,0.0
2877,-10.0
2878,-10.0
2879,-10.0
2880,-10.0
2881,-5.0
2882,-15.0
2883,0.0
2884,-10.0
2885,2.0
2886,-10.0
2887,-15.0
2888,-15.0
2889,-10.0
2890,-15.0
2891,-15.0
2892,0.0
2893,-10.0
2894,-10.0
2895,-15.0
2896,-10.0
2897,-5.0
2898,0.0
2899,-14.0
2900,0.0
2901,-5.0
2902,0.0
2903,-10.0
2904,-10.0
2905,-10.0
2906,-8.0
2907,-10.0
2908,-5.0
2909,-10.0
2910,-10.0
2911,20.0
2912,-15.0
2913,-10.0
2914,-9.0
2915,-3.0
2916,-5.0
2917,-5.0
2918,-10.0
2919,-5.0
2920,-15.0
2921,-10.0
2922,-15.0
2923,-9.0
2924,-9.0
2925,-15.0
2926,-10.0
2927,-15.0
2928,-5.0
2929,0.0
2930,-10.0
2931,-10.0
2932,-10.0
2933,-14.0
2934,-10.0
2935,-10.0
2936,-15.0
2937,-15.0
2938,-10.0
2939,-15.0
2940,-10.0
2941,10.0
2942,-9.0
2943,-10.0
2944,-10.0
2945,-15.0
2946,-15.0
2947,-14.0
2948,-10.0
2949,-10.0
2950,-10.0
2951,-10.0
2952,-10.0
2953,-15.0
2954,-14.0
2955,-15.0
2956,-15.0
2957,-15.0
2958,-15.0
2959,0.0
2960,0.0
2961,-15.0
2962,-5.0
2963,-15.0
2964,-5.0
2965,-15.0
2966,10.0
2967,-15.0
2968,-10.0
2969,-4.0
2970,10.0
2971,-4.0
2972,0.0
2973,-10.0
2974,-10.0
2975,-10.0
2976,-10.0
2977,-10.0
2978,-9.0
2979,-10.0
2980,-10.0
2981,-15.0
2982,10.0
2983,-9.0
2984,20.0
2985,-14.0
2986,-10.0
2987,0.0
2988,-4.0
2989,-5.0
2990,-15.0
2991,-15.0
2992,-10.0
2993,25.0
2994,15.0
2995,-15.0
2996,-4.0
2997,-15.0
2998,-10.0
2999,-10.0
3000,-10.0
3001,0.0
3002,-15.0
3003,-10.0
3004,-10.0
3005,-10.0
3006,-10.0
3007,-10.0
3008,-10.0
3009,-15.0
3010,-10.0
3011,-15.0
3012,-4.0
3013,-15.0
3014,0.0
3015,-9.0
3016,-5.0
3017,-5.0
3018,-9.0
3019,-9.0
3020,-10.0
3021,-9.0
3022,-15.0
3023,1.0
3024,10.0
3025,-10.0
3026,-5.0
3027,-5.0
3028,-10.0
3029,-10.0
3030,-10.0
3031,5.0
3032,-10.0
3033,-10.0
3034,-9.0
3035,0.0
3036,-15.0
3037,-5.0
3038,-15.0
3039,-10.0
3040,-5.0
3041,-10.0
3042,-10.0
3043,-15.0
3044,-14.0
3045,-15.0
3046,-4.0
3047,-5.0
3048,10.0
3049,10.0
3050,-10.0
3051,-5.0
3052,0.0
3053,-10.0
3054,-10.0
3055,10.0
3056,-15.0
3057,15.0
3058,-15.0
3059,20.0
3060,2.0
3061,-15.0
3062,-15.0
3063,-15.0
3064,-14.0
3065,1.0
3066,-9.0
3067,3.0
3068,-9.0
3069,2.0
3070,-10.0
3071,0.0
3072,-10.0
3073,6.0
3074,-15.0
3075,-10.0
3076,-10.0
3077,-10.0
3078,1.0
3079,1.0
3080,-15.0
3081,-15.0
3082,-15.0
3083,-14.0
3084,-10.0
3085,-5.0
3086,-15.0
3087,-9.0
3088,0.0
3089,-10.0
3090,-10.0
3091,-4.0
3092,5.0
3093,-10.0
3094,-15.0
3095,-15.0
3096,0.0
3097,-15.0
3098,-10.0
3099,-14.0
3100,-14.0
3101,30.0
3102,5.0
3103,-10.0
3104,-14.0
3105,-14.0
3106,-10.0
3107,-10.0
3108,-15.0
3109,-10.0
3110,1.0
3111,-9.0
3112,-15.0
3113,0.0
3114,-4.0
3115,-3.0
3116,10.0
3117,-10.0
3118,-10.0
3119,-10.0
3120,-2.0
3121,-5.0
3122,2.0
3123,-10.0
3124,-5.0
3125,-10.0
3126,-15.0
3127,-15.0
3128,0.0
3129,-14.0
3130,-3.0
3131,-5.0
3132,-10.0
3133,-15.0
3134,-15.0
3135,-10.0
3136,-5.0
3137,-15.0
3138,1.0
3139,0.0
3140,-15.0
3141,-15.0
3142,-5.0
3143,5.0
3144,-10.0
3145,-14.0
3146,-9.0
3147,-15.0
3148,5.0
3149,-10.0
3150,-5.0
3151,-15.0
3152,-15.0
3153,-5.0
3154,-15.0
3155,-10.0
3156,-5.0
3157,-9.0
3158,-10.0
3159,-10.0
3160,10.0
3161,-10.0
3162,-9.0
3163,-10.0
3164,-9.0
3165,-10.0
3166,-5.0
3167,-9.0
3168,-15.0
3169,-15.0
3170,-15.0
3171,-9.0
3172,-10.0
3173,-15.0
3174,-15.0
3175,-9.0
3176,0.0
3177,-9.0
3178,-14.0
3179,-5.0
3180,-15.0
3181,-14.0
3182,-5.0
3183,0.0
3184,-15.0
3185,-10.0
3186,0.0
3187,-10.0
3188,-4.0
3189,-5.0
3190,-10.0
3191,-5.0
3192,-9.0
3193,-9.0
3194,-15.0
3195,-10.0
3196,-5.0
3197,-14.0
3198,10.0
3199,-15.0
3200,2.0
3201,0.0
3202,-15.0
3203,-10.0
3204,-15.0
3205,-9.0
3206,-5.0
3207,-5.0
3208,0.0
3209,-10.0
3210,0.0
3211,-10.0
3212,-10.0
3213,-15.0
3214,-5.0
3215,-10.0
3216,-15.0
3217,-10.0
3218,-9.0
3219,-15.0
3220,-14.0
3221,-5.0
3222,-10.0
3223,-15.0
3224,-10.0
3225,-15.0
3226,-15.0
3227,-15.0
3228,-15.0
3229,10.0
3230,-10.0
3231,-5.0
3232,0.0
3233,-9.0
3234,-10.0
3235,0.0
3236,2.0
3237,20.0
3238,-15.0
3239,-10.0
3240,-4.0
3241,-10.0
3242,-15.0
3243,0.0
3244,2.0
3245,-10.0
3246,-10.0
3247,-15.0
3248,-10.0
3249,0.0
3250,-15.0
3251,-15.0
3252,-15.0
3253,-10.0
3254,-5.0
3255,-4.0
3256,-14.0
3257,21.0
3258,-15.0
3259,-14.0
3260,-10.0
3261,-10.0
3262,-15.0
3263,-10.0
3264,-5.0
3265,-10.0
3266,-5.0
3267,1.0
3268,-5.0
3269,-15.0
3270,10.0
3271,21.0
3272,-5.0
3273,-5.0
3274,-14.0
3275,0.0
3276,-10.0
3277,-15.0
3278,-15.0
3279,-10.0
3280,27.0
3281,-10.0
3282,-9.0
3283,-9.0
3284,2.0
3285,0.0
3286,-15.0
3287,-15.0
3288,0.0
3289,6.0
3290,-10.0
3291,-5.0
3292,-10.0
3293,-5.0
3294,42.0
3295,-10.0
3296,-5.0
3297,-15.0
3298,-15.0
3299,-15.0
3300,-10.0
3301,-14.0
3302,-15.0
3303,-10.0
3304,-10.0
3305,-10.0
3306,-15.0
3307,-9.0
3308,5.0
3309,-15.0
3310,-14.0
3311,-14.0
3312,-10.0
3313,-5.0
3314,-10.0
3315,-10.0
3316,-8.0
3317,-10.0
3318,-10.0
3319,-15.0
3320,-5.0
3321,0.0
3322,-10.0
3323,10.0
3324,-10.0
3325,-10.0
3326,-5.0
3327,-14.0
3328,-5.0
3329,-10.0
3330,-5.0
3331,-15.0
3332,10.0
3333,-10.0
3334,-10.0
3335,-3.0
3336,-10.0
3337,-10.0
3338,-15.0
3339,-10.0
3340,-15.0
3341,-10.0
3342,-15.0
3343,10.0
3344,5.0
3345,-10.0
3346,-10.0
3347,10.0
3348,-15.0
3349,-10.0
3350,-10.0
3351,-10.0
3352,-5.0
3353,-9.0
3354,-10.0
3355,27.0
3356,-15.0
3357,-15.0
3358,-5.0
3359,-9.0
3360,-10.0
3361,0.0
3362,0.0
3363,-10.0
3364,-5.0
3365,-15.0
3366,-9.0
3367,-15.0
3368,-15.0
3369,-9.0
3370,10.0
3371,-10.0
3372,0.0
3373,-14.0
3374,-15.0
3375,-15.0
3376,0.0
3377,-10.0
3378,-9.0
3379,-14.0
3380,-10.0
3381,-10.0
3382,-4.0
3383,20.0
3384,-10.0
3385,-10.0
3386,-5.0
3387,-15.0
3388,-15.0
3389,-9.0
3390,-9.0
3391,-5.0
3392,-10.0
3393,-4.0
3394,0.0
3395,-15.0
3396,-15.0
3397,-5.0
3398,-10.0
3399,-9.0
3400,-5.0
3401,-15.0
3402,-10.0
3403,-14.0
3404,-15.0
3405,-15.0
3406,0.0
3407,10.0
3408,-14.0
3409,-5.0
3410,11.0
3411,0.0
3412,-10.0
3413,-10.0
3414,0.0
3415,-9.0
3416,-5.0
3417,-9.0
3418,-15.0
3419,-10.0
3420,-10.0
3421,-15.0
3422,20.0
3423,-9.0
3424,-10.0
3425,-9.0
3426,0.0
3427,-10.0
3428,-10.0
3429,-5.0
3430,11.0
3431,-9.0
3432,6.0
3433,6.0
3434,-10.0
3435,-10.0
3436,-10.0
3437,-9.0
3438,-10.0
3439,0.0
3440,-15.0
3441,-15.0
3442,-5.0
3443,-15.0
3444,0.0
3445,-15.0
3446,26.0
3447,-9.0
3448,-10.0
3449,-5.0
3450,24.0
3451,-10.0
3452,-10.0
3453,-10.0
3454,-10.0
3455,-10.0
3456,-10.0
3457,-9.0
3458,-10.0
3459,-9.0
3460,-10.0
3461,-15.0
3462,-10.0
3463,-15.0
3464,-10.0
3465,-15.0
3466,-10.0
3467,-5.0
3468,-14.0
3469,1.0
3470,0.0
3471,-10.0
3472,-10.0
3473,-10.0
3474,-10.0
3475,-4.0
3476,-15.0
3477,0.0
3478,-10.0
3479,0.0
3480,20.0
3481,-10.0
3482,-10.0
3483,5.0
3484,6.0
3485,6.0
3486,-14.0
3487,5.0
3488,-9.0
3489,-15.0
3490,25.0
3491,-14.0
3492,-10.0
3493,42.0
3494,-3.0
3495,-15.0
3496,20.0
3497,0.0
3498,-10.0
3499,-10.0
3500,1.0
3501,-5.0
3502,-4.0
3503,25.0
3504,7.0
3505,-10.0
3506,1.0
3507,0.0
3508,-10.0
3509,-15.0
3510,0.0
3511,-4.0
3512,-10.0
3513,-10.0
3514,-9.0
3515,-10.0
3516,-10.0
3517,0.0
3518,-9.0
3519,-10.0
3520,-9.0
3521,-15.0
3522,-10.0
3523,-10.0
3524,-10.0
3525,-15.0
3526,10.0
3527,-5.0
3528,-15.0
3529,-10.0
3530,6.0
3531,0.0
3532,25.0
3533,-15.0
3534,-9.0
3535,-15.0
3536,-5.0
3537,10.0
3538,-10.0
3539,20.0
3540,-15.0
3541,-15.0
3542,-10.0
3543,-10.0
3544,-9.0
3545,-10.0
3546,-9.0
3547,-15.0
3548,-9.0
3549,-15.0
3550,-10.0
3551,-9.0
3552,-15.0
3553,-15.0
3554,-15.0
3555,-10.0
3556,-5.0
3557,-10.0
3558,-15.0
3559,-10.0
3560,1.0
3561,-10.0
3562,-9.0
3563,-15.0
3564,20.0
3565,-10.0
3566,-14.0
3567,-15.0
3568,-15.0
3569,-4.0
3570,20.0
3571,-14.0
3572,-10.0
3573,-5.0
3574,0.0
3575,-15.0
3576,-14.0
3577,0.0
3578,5.0
3579,-5.0
3580,-15.0
3581,-15.0
3582,5.0
3583,0.0
3584,-9.0
3585,0.0
3586,-15.0
3587,-10.0
3588,0.0
3589,-5.0
3590,-15.0
3591,10.0
3592,-15.0
3593,-15.0
3594,-15.0
3595,-15.0
3596,5.0
3597,0.0
3598,-10.0
3599,-4.0
3600,-10.0
3601,1.0
3602,-10.0
3603,-5.0
3604,-9.0
3605,0.0
3606,-10.0
3607,-9.0
3608,-15.0
3609,-5.0
3610,-15.0
3611,-15.0
3612,-14.0
3613,-10.0
3614,-9.0
3615,-14.0
3616,-15.0
3617,-15.0
3618,-9.0
3619,-10.0
3620,-5.0
3621,-14.0
3622,-15.0
3623,-15.0
3624,-10.0
3625,-14.0
3626,1.0
3627,-10.0
3628,-10.0
3629,-15.0
3630,-5.0
3631,-15.0
3632,0.0
3633,-10.0
3634,-9.0
3635,-5.0
3636,-10.0
3637,-9.0
3638,-14.0
3639,-9.0
3640,-15.0
3641,-9.0
3642,2.0
3643,-10.0
3644,-10.0
3645,-10.0
3646,-15.0
3647,-9.0
3648,0.0
3649,7.0
3650,10.0
3651,-5.0
3652,-10.0
3653,-10.0
3654,-5.0
3655,0.0
3656,-10.0
3657,-9.0
3658,-10.0
3659,0.0
3660,-10.0
3661,-10.0
3662,1.0
3663,-5.0
3664,-15.0
3665,0.0
3666,-10.0
3667,-10.0
3668,-15.0
3669,10.0
3670,0.0
3671,0.0
3672,-9.0
3673,10.0
3674,0.0
3675,-5.0
3676,5.0
3677,0.0
3678,-10.0
3679,11.0
3680,-10.0
3681,-10.0
3682,-10.0
3683,-10.0
3684,-10.0
3685,0.0
3686,-5.0
3687,-10.0
3688,-10.0
3689,-10.0
3690,-10.0
3691,-15.0
3692,-9.0
3693,-9.0
3694,-14.0
3695,-10.0
3696,0.0
3697,-15.0
3698,-10.0
3699,-15.0
3700,-10.0
3701,25.0
3702,-9.0
3703,-10.0
3704,-5.0
3705,-10.0
3706,-5.0
3707,-15.0
3708,-10.0
3709,-10.0
3710,12.0
3711,-10.0
3712,-15.0
3713,-9.0
3714,-9.0
3715,-5.0
3716,-5.0
3717,-15.0
3718,-10.0
3719,-15.0
3720,-10.0
3721,-5.0
3722,-10.0
3723,0.0
3724,-10.0
3725,-5.0
3726,5.0
3727,-9.0
3728,-14.0
3729,-10.0
3730,-10.0
3731,-4.0
3732,10.0
3733,-4.0
3734,-10.0
3735,0.0
3736,-10.0
3737,0.0
3738,-14.0
3739,-15.0
3740,10.0
3741,-15.0
3742,1.0
3743,-10.0
3744,20.0
3745,-10.0
3746,-15.0
3747,20.0
3748,-10.0
3749,0.0
3750,-9.0
3751,-15.0
3752,-15.0
3753,-10.0
3754,-9.0
3755,-15.0
3756,-15.0
3757,-15.0
3758,-15.0
3759,-5.0
3760,5.0
3761,5.0
3762,-10.0
3763,1.0
3764,5.0
3765,12.0
3766,-15.0
3767,-15.0
3768,-5.0
3769,-9.0
3770,-9.0
3771,13.0
3772,-15.0
3773,-15.0
3774,5.0
3775,-9.0
3776,-10.0
3777,-15.0
3778,-4.0
3779,-14.0
3780,-15.0
3781,-5.0
3782,-5.0
3783,-5.0
3784,0.0
3785,-9.0
3786,66.0
3787,-15.0
3788,-15.0
3789,-10.0
3790,-14.0
3791,-4.0
3792,-10.0
3793,-15.0
3794,0.0
3795,0.0
3796,-10.0
3797,-5.0
3798,-15.0
3799,2.0
3800,-10.0
3801,-10.0
3802,6.0
3803,-15.0
3804,-15.0
3805,-15.0
3806,-15.0
3807,1.0
3808,-10.0
3809,-10.0
3810,-15.0
3811,-9.0
3812,-10.0
3813,-15.0
3814,41.0
3815,-10.0
3816,-15.0
3817,0.0
3818,-10.0
3819,3.0
3820,-10.0
3821,20.0
3822,-10.0
3823,10.0
3824,-10.0
3825,0.0
3826,-9.0
3827,10.0
3828,-15.0
3829,-10.0
3830,-10.0
3831,7.0
3832,-15.0
3833,-8.0
3834,-10.0
3835,-10.0
3836,-5.0
3837,-15.0
3838,-10.0
3839,-10.0
3840,-9.0
3841,-15.0
3842,11.0
3843,-10.0
3844,0.0
3845,1.0
3846,-14.0
3847,-10.0
3848,-15.0
3849,5.0
3850,-9.0
3851,-5.0
3852,-15.0
3853,-5.0
3854,-5.0
3855,-9.0
3856,-10.0
3857,-10.0
3858,-9.0
3859,-10.0
3860,40.0
3861,-15.0
3862,-5.0
3863,-14.0
3864,12.0
3865,-10.0
3866,-15.0
3867,-10.0
3868,-14.0
3869,10.0
3870,-9.0
3871,16.0
3872,6.0
3873,0.0
3874,-10.0
3875,-8.0
3876,-14.0
3877,-9.0
3878,-10.0
3879,-10.0
3880,-5.0
3881,-10.0
3882,-9.0
3883,-15.0
3884,-8.0
3885,-5.0
3886,-15.0
3887,-10.0
3888,10.0
3889,-15.0
3890,-10.0
3891,-10.0
3892,2.0
3893,47.0
3894,-3.0
3895,-3.0
3896,-10.0
3897,0.0
3898,1.0
3899,-5.0
3900,-15.0
3901,-10.0
3902,-10.0
3903,15.0
3904,-10.0
3905,0.0
3906,-15.0
3907,2.0
3908,-10.0
3909,0.0
3910,10.0
3911,-15.0
3912,7.0
3913,-15.0
3914,-9.0
3915,-10.0
3916,-15.0
3917,0.0
3918,2.0
3919,-14.0
3920,-15.0
3921,1.0
3922,-9.0
3923,10.0
3924,12.0
3925,-15.0
3926,10.0
3927,-4.0
3928,-9.0
3929,8.0
3930,-9.0
3931,-5.0
3932,-15.0
3933,-10.0
3934,-4.0
3935,-14.0
3936,-15.0
3937,-10.0
3938,-14.0
3939,-5.0
3940,5.0
3941,-9.0
3942,0.0
3943,21.0
3944,1.0
3945,10.0
3946,-14.0
3947,-10.0
3948,6.0
3949,-15.0
3950,1.0
3951,-14.0
3952,-15.0
3953,-10.0
3954,-9.0
3955,7.0
3956,-10.0
3957,-9.0
3958,-9.0
3959,1.0
3960,-3.0
3961,-10.0
3962,-4.0
3963,-10.0
3964,-9.0
3965,-5.0
3966,-15.0
3967,-10.0
3968,-4.0
3969,-10.0
3970,-10.0
3971,21.0
3972,1.0
3973,0.0
3974,-9.0
3975,-10.0
3976,17.0
3977,15.0
3978,-15.0
3979,5.0
3980,-15.0
3981,-14.0
3982,-5.0
3983,-5.0
3984,-9.0
3985,-9.0
3986,-5.0
3987,-10.0
3988,-10.0
3989,0.0
3990,-10.0
3991,-4.0
3992,0.0
3993,-9.0
3994,-10.0
3995,-5.0
3996,-9.0
3997,-5.0
3998,-5.0
3999,1.0
4000,-10.0
4001,22.0
4002,5.0
4003,-15.0
4004,-9.0
4005,-9.0
4006,-15.0
4007,-9.0
4008,-15.0
4009,0.0
4010,25.0
4011,0.0
4012,-5.0
4013,0.0
4014,21.0
4015,-15.0
4016,-4.0
4017,-5.0
4018,10.0
4019,-5.0
4020,-5.0
4021,-10.0
4022,-15.0
4023,-15.0
4024,-10.0
4025,0.0
4026,-5.0
4027,-15.0
4028,-15.0
4029,-10.0
4030,-10.0
4031,15.0
4032,-10.0
4033,-14.0
4034,-15.0
4035,-10.0
4036,16.0
4037,-4.0
4038,-15.0
4039,-9.0
4040,16.0
4041,-15.0
4042,-15.0
4043,-10.0
4044,-15.0
4045,30.0
4046,-10.0
4047,-5.0
4048,-10.0
4049,-14.0
4050,20.0
4051,6.0
4052,-5.0
4053,-15.0
4054,1.0
4055,-10.0
4056,0.0
4057,-15.0
4058,-10.0
4059,-10.0
4060,-10.0
4061,-10.0
4062,-9.0
4063,-10.0
4064,1.0
4065,1.0
4066,-15.0
4067,1.0
4068,-9.0
4069,-4.0
4070,-2.0
4071,-10.0
4072,1.0
4073,6.0
4074,5.0
4075,38.0
4076,-10.0
4077,-10.0
4078,-5.0
4079,-15.0
4080,-4.0
4081,-10.0
4082,5.0
4083,0.0
4084,7.0
4085,0.0
4086,0.0
4087,-14.0
4088,-5.0
4089,-15.0
4090,5.0
4091,-5.0
4092,6.0
4093,-10.0
4094,-10.0
4095,1.0
4096,-10.0
4097,-5.0
4098,0.0
4099,-9.0
4100,-5.0
4101,20.0
4102,-15.0
4103,1.0
4104,-15.0
4105,-10.0
4106,-10.0
4107,-15.0
4108,-10.0
4109,-4.0
4110,0.0
4111,-9.0
4112,-15.0
4113,-15.0
4114,-9.0
4115,-15.0
4116,-4.0
4117,0.0
4118,-15.0
4119,1.0
4120,-10.0
4121,5.0
4122,-14.0
4123,10.0
4124,-15.0
4125,-5.0
4126,-9.0
4127,6.0
4128,5.0
4129,-10.0
4130,-15.0
4131,-10.0
4132,-15.0
4133,-9.0
4134,15.0
4135,-10.0
4136,-15.0
4137,11.0
4138,-10.0
4139,-9.0
4140,0.0
4141,-15.0
4142,-5.0
4143,10.0
4144,-14.0
4145,-5.0
4146,11.0
4147,7.0
4148,-10.0
4149,-10.0
4150,-15.0
4151,10.0
4152,5.0
4153,-15.0
4154,-5.0
4155,3.0
4156,-10.0
4157,-15.0
4158,-4.0
4159,-10.0
4160,-5.0
4161,0.0
4162,-14.0
4163,-15.0
4164,-15.0
4165,-10.0
4166,-9.0
4167,-15.0
4168,-15.0
4169,1.0
4170,-5.0
4171,-5.0
4172,-4.0
4173,-4.0
4174,-5.0
4175,-15.0
4176,5.0
4177,-10.0
4178,-10.0
4179,-15.0
4180,-14.0
4181,-15.0
4182,6.0
4183,-5.0
4184,-10.0
4185,-10.0
4186,21.0
4187,0.0
4188,-10.0
4189,-10.0
4190,-5.0
4191,-9.0
4192,-5.0
4193,5.0
4194,-5.0
4195,-15.0
4196,5.0
4197,-3.0
4198,-14.0
4199,-10.0
4200,-10.0
4201,-15.0
4202,-15.0
4203,-15.0
4204,-5.0
4205,-10.0
4206,0.0
4207,-10.0
4208,10.0
4209,11.0
4210,-10.0
4211,-15.0
4212,-15.0
4213,-15.0
4214,-15.0
4215,-9.0
4216,-10.0
4217,-15.0
4218,0.0
4219,-10.0
4220,35.0
4221,7.0
4222,-4.0
4223,5.0
4224,-15.0
4225,-15.0
4226,-10.0
4227,-9.0
4228,-14.0
4229,2.0
4230,-9.0
4231,-14.0
4232,-15.0
4233,-3.0
4234,-3.0
4235,0.0
4236,0.0
4237,-9.0
4238,-5.0
4239,-15.0
4240,1.0
4241,7.0
4242,-15.0
4243,-10.0
4244,-5.0
4245,-10.0
4246,0.0
4247,-15.0
4248,-15.0
4249,-4.0
4250,-10.0
4251,-5.0
4252,-15.0
4253,-10.0
4254,-10.0
4255,0.0
4256,0.0
4257,-15.0
4258,0.0
4259,-5.0
4260,12.0
4261,-10.0
4262,-4.0
4263,-9.0
4264,6.0
4265,10.0
4266,1.0
4267,-15.0
4268,-10.0
4269,-15.0
4270,-9.0
4271,-15.0
4272,-9.0
4273,-4.0
4274,-5.0
4275,-5.0
4276,-10.0
4277,-10.0
4278,-5.0
4279,-15.0
4280,1.0
4281,-10.0
4282,0.0
4283,-15.0
4284,-14.0
4285,-10.0
4286,-9.0
4287,-10.0
4288,-5.0
4289,11.0
4290,-15.0
4291,1.0
4292,-14.0
4293,-15.0
4294,-10.0
4295,-5.0
4296,-15.0
4297,-15.0
4298,1.0
4299,-15.0
4300,-15.0
4301,-15.0
4302,0.0
4303,26.0
4304,-10.0
4305,-10.0
4306,0.0
4307,-9.0
4308,25.0
4309,-10.0
4310,-9.0
4311,-10.0
4312,11.0
4313,0.0
4314,-14.0
4315,2.0
4316,-15.0
4317,5.0
4318,-5.0
4319,0.0
4320,-10.0
4321,-4.0
4322,1.0
4323,21.0
4324,-10.0
4325,-10.0
4326,-10.0
4327,-10.0
4328,-10.0
4329,1.0
4330,-10.0
4331,-15.0
4332,-5.0
4333,5.0
4334,41.0
4335,5.0
4336,25.0
4337,12.0
4338,10.0
4339,-15.0
4340,-10.0
4341,-5.0
4342,-14.0
4343,-10.0
4344,-4.0
4345,7.0
4346,-5.0
4347,-9.0
4348,-10.0
4349,-10.0
4350,-15.0
4351,-15.0
4352,-10.0
4353,-10.0
4354,-10.0
4355,16.0
4356,11.0
4357,-15.0
4358,-9.0
4359,-15.0
4360,0.0
4361,0.0
4362,-15.0
4363,-15.0
4364,0.0
4365,-9.0
4366,-10.0
4367,-8.0
4368,-10.0
4369,-10.0
4370,-9.0
4371,-5.0
4372,-5.0
4373,0.0
4374,-5.0
4375,5.0
4376,0.0
4377,1.0
4378,-5.0
4379,0.0
4380,-4.0
4381,-15.0
4382,-15.0
4383,12.0
4384,-15.0
4385,-10.0
4386,-10.0
4387,-10.0
4388,-5.0
4389,-9.0
4390,-10.0
4391,-10.0
4392,-5.0
4393,0.0
4394,-10.0
4395,10.0
4396,-15.0
4397,-14.0
4398,-10.0
4399,0.0
4400,-15.0
4401,-4.0
4402,-10.0
4403,-10.0
4404,-10.0
4405,-10.0
4406,-10.0
4407,-10.0
4408,-15.0
4409,5.0
4410,10.0
4411,-10.0
4412,-10.0
4413,6.0
4414,-15.0
4415,10.0
4416,-15.0
4417,5.0
4418,-10.0
4419,0.0
4420,-10.0
4421,-15.0
4422,-15.0
4423,-10.0
4424,-15.0
4425,-9.0
4426,-14.0
4427,-4.0
4428,-10.0
4429,3.0
4430,0.0
4431,-10.0
4432,25.0
4433,-10.0
4434,-14.0
4435,-15.0
4436,-15.0
4437,0.0
4438,0.0
4439,1.0
4440,-10.0
4441,-15.0
4442,-5.0
4443,3.0
4444,-10.0
4445,-10.0
4446,-10.0
4447,6.0
4448,-5.0
4449,-15.0
4450,-5.0
4451,7.0
4452,-5.0
4453,-4.0
4454,0.0
4455,-4.0
4456,-5.0
4457,-10.0
4458,-10.0
4459,-9.0
4460,5.0
4461,1.0
4462,-10.0
4463,-15.0
4464,5.0
4465,-15.0
4466,-15.0
4467,-15.0
4468,-15.0
4469,0.0
4470,-10.0
4471,-10.0
4472,-10.0
4473,-10.0
4474,1.0
4475,-5.0
4476,-10.0
4477,-10.0
4478,1.0
4479,-10.0
4480,-10.0
4481,-5.0
4482,-10.0
4483,-10.0
4484,-14.0
4485,15.0
4486,-15.0
4487,-10.0
4488,-5.0
4489,7.0
4490,-10.0
4491,-15.0
4492,-10.0
4493,-10.0
4494,5.0
4495,6.0
4496,-10.0
4497,-15.0
4498,-9.0
4499,-10.0
4500,1.0
4501,0.0
4502,-10.0
4503,-15.0
4504,-10.0
4505,-10.0
4506,-10.0
4507,-15.0
4508,-10.0
4509,-15.0
4510,-14.0
4511,-15.0
4512,-10.0
4513,15.0
4514,-10.0
4515,5.0
4516,-15.0
4517,1.0
4518,-15.0
4519,-4.0
4520,-4.0
4521,-10.0
4522,-10.0
4523,-10.0
4524,-10.0
4525,-15.0
4526,-10.0
4527,-10.0
4528,-5.0
4529,-10.0
4530,-10.0
4531,-5.0
4532,-5.0
4533,-5.0
4534,-5.0
4535,0.0
4536,6.0
4537,0.0
4538,-15.0
4539,-5.0
4540,-10.0
4541,10.0
4542,-15.0
4543,16.0
4544,5.0
4545,6.0
4546,-9.0
4547,-15.0
4548,-5.0
4549,-10.0
4550,6.0
4551,-9.0
4552,-9.0
4553,-9.0
4554,-10.0
4555,-10.0
4556,-5.0
4557,-15.0
4558,-10.0
4559,-5.0
4560,-5.0
4561,-5.0
4562,-10.0
4563,1.0
4564,-10.0
4565,-4.0
4566,-9.0
4567,-4.0
4568,0.0
4569,-10.0
4570,-15.0
4571,0.0
4572,-5.0
4573,-10.0
4574,-3.0
4575,5.0
4576,-15.0
4577,15.0
4578,-10.0
4579,-5.0
4580,1.0
4581,-15.0
4582,-15.0
4583,-10.0
4584,-15.0
4585,5.0
4586,26.0
4587,-9.0
4588,-10.0
4589,-4.0
4590,-15.0
4591,0.0
4592,-10.0
4593,-10.0
4594,-10.0
4595,-14.0
4596,-10.0
4597,-5.0
4598,-4.0
4599,-10.0
4600,-5.0
4601,-15.0
4602,-10.0
4603,5.0
4604,-5.0
4605,-10.0
4606,-15.0
4607,1.0
4608,6.0
4609,6.0
4610,-15.0
4611,1.0
4612,-15.0
4613,-15.0
4614,-10.0
4615,-15.0
4616,-10.0
4617,-10.0
4618,-5.0
4619,-5.0
4620,-14.0
4621,-15.0
4622,-15.0
4623,5.0
4624,-9.0
4625,-10.0
4626,-10.0
4627,-15.0
4628,-10.0
4629,-10.0
4630,-10.0
4631,5.0
4632,-15.0
4633,-10.0
4634,-15.0
4635,-9.0
4636,-15.0
4637,-10.0
4638,-8.0
4639,2.0
4640,-9.0
4641,-4.0
4642,-15.0
4643,-10.0
4644,15.0
4645,-15.0
4646,0.0
4647,-4.0
4648,-5.0
4649,-15.0
4650,-15.0
4651,5.0
4652,-5.0
4653,-15.0
4654,-9.0
4655,-9.0
4656,-4.0
4657,-5.0
4658,0.0
4659,-15.0
4660,-10.0
4661,-10.0
4662,-4.0
4663,-10.0
4664,-5.0
4665,-14.0
4666,-5.0
4667,-15.0
4668,-15.0
4669,1.0
4670,0.0
4671,0.0
4672,0.0
4673,-10.0
4674,-10.0
4675,-15.0
4676,-15.0
4677,-10.0
4678,15.0
4679,-10.0
4680,-10.0
4681,-10.0
4682,-15.0
4683,-5.0
4684,30.0
4685,1.0
4686,-15.0
4687,-15.0
4688,1.0
4689,-15.0
4690,-15.0
4691,-10.0
4692,-14.0
4693,-15.0
4694,-9.0
4695,-10.0
4696,-14.0
4697,-10.0
4698,-10.0
4699,-10.0
4700,-10.0
4701,0.0
4702,-10.0
4703,-9.0
4704,0.0
4705,-5.0
4706,-15.0
4707,5.0
4708,-15.0
4709,2.0
4710,-5.0
4711,-9.0
4712,-15.0
4713,1.0
4714,-10.0
4715,-5.0
4716,-15.0
4717,-15.0
4718,-10.0
4719,-15.0
4720,-15.0
4721,-10.0
4722,-15.0
4723,28.0
4724,-10.0
4725,-15.0
4726,-5.0
4727,-10.0
4728,-5.0
4729,-10.0
4730,-15.0
4731,-10.0
4732,-10.0
4733,-15.0
4734,-15.0
4735,-15.0
4736,15.0
4737,-9.0
4738,-15.0
4739,-10.0
4740,-15.0
4741,-10.0
4742,-15.0
4743,-5.0
4744,-15.0
4745,-10.0
4746,-14.0
4747,-10.0
4748,-5.0
4749,-5.0
4750,-9.0
4751,20.0
4752,-15.0
4753,-10.0
4754,-10.0
4755,0.0
4756,0.0
4757,-9.0
4758,-10.0
4759,-9.0
4760,-5.0
4761,-8.0
4762,0.0
4763,-5.0
4764,-15.0
4765,-15.0
4766,-10.0
4767,-10.0
4768,-5.0
4769,-9.0
4770,-15.0
4771,-10.0
4772,-9.0
4773,1.0
4774,-9.0
4775,-15.0
4776,-10.0
4777,-9.0
4778,5.0
4779,-9.0
4780,45.0
4781,0.0
4782,-10.0
4783,-14.0
4784,-10.0
4785,-10.0
4786,-10.0
4787,-15.0
4788,0.0
4789,-15.0
4790,0.0
4791,-15.0
4792,-9.0
4793,-9.0
4794,27.0
4795,-5.0
4796,-9.0
4797,-10.0
4798,-10.0
4799,0.0
4800,-15.0
4801,-9.0
4802,-5.0
4803,-10.0
4804,-15.0
4805,-9.0
4806,45.0
4807,-14.0
4808,15.0
4809,0.0
4810,-10.0
4811,-5.0
4812,-15.0
4813,-10.0
4814,15.0
4815,-4.0
4816,-10.0
4817,-15.0
4818,-10.0
4819,-9.0
4820,-15.0
4821,0.0
4822,-15.0
4823,-10.0
4824,-5.0
4825,-9.0
4826,-10.0
4827,-10.0
4828,-14.0
4829,-10.0
4830,-15.0
4831,-14.0
4832,20.0
4833,-15.0
4834,-10.0
4835,-5.0
4836,10.0
4837,-5.0
4838,-10.0
4839,-15.0
4840,5.0
4841,-10.0
4842,-14.0
4843,16.0
4844,-15.0
4845,6.0
4846,-9.0
4847,-14.0
4848,-15.0
4849,-15.0
4850,11.0
4851,-9.0
4852,1.0
4853,0.0
4854,-14.0
4855,-9.0
4856,-4.0
4857,0.0
4858,-15.0
4859,-10.0
4860,-10.0
4861,0.0
4862,-15.0
4863,-9.0
4864,-15.0
4865,-10.0
4866,-15.0
4867,-14.0
4868,-15.0
4869,-5.0
4870,-10.0
4871,-4.0
4872,-10.0
4873,-10.0
4874,-14.0
4875,-15.0
4876,-9.0
4877,-15.0
4878,-15.0
4879,-9.0
4880,-15.0
4881,-9.0
4882,10.0
4883,-9.0
4884,0.0
4885,-15.0
4886,5.0
4887,-10.0
4888,-15.0
4889,0.0
4890,-4.0
4891,-5.0
4892,-15.0
4893,0.0
4894,-14.0
4895,-10.0
4896,-10.0
4897,-5.0
4898,-9.0
4899,-10.0
4900,-10.0
4901,10.0
4902,-10.0
4903,0.0
4904,-8.0
4905,-14.0
4906,-9.0
4907,-10.0
4908,-5.0
4909,0.0
4910,10.0
4911,-15.0
4912,20.0
4913,-4.0
4914,-3.0
4915,-10.0
4916,-10.0
4917,-10.0
4918,-15.0
4919,-10.0
4920,-10.0
4921,-10.0
4922,-10.0
4923,0.0
4924,-15.0
4925,-15.0
4926,-10.0
4927,-5.0
4928,15.0
4929,-15.0
4930,-15.0
4931,-10.0
4932,5.0
4933,-10.0
4934,-10.0
4935,-15.0
4936,5.0
4937,-4.0
4938,-5.0
4939,-15.0
4940,-5.0
4941,-15.0
4942,-15.0
4943,0.0
4944,-10.0
4945,10.0
4946,-9.0
4947,-5.0
4948,-14.0
4949,-15.0
4950,5.0
4951,-4.0
4952,-4.0
4953,-10.0
4954,-15.0
4955,-10.0
4956,-10.0
4957,-10.0
4958,-9.0
4959,-9.0
4960,0.0
4961,-15.0
4962,-10.0
4963,-8.0
4964,-10.0
4965,-4.0
4966,-15.0
4967,-15.0
4968,-15.0
4969,16.0
4970,-10.0
4971,-10.0
4972,1.0
4973,-15.0
4974,-9.0
4975,5.0
4976,-5.0
4977,-5.0
4978,-14.0
4979,10.0
4980,-5.0
4981,-10.0
4982,-15.0
4983,-5.0
4984,-10.0
4985,-5.0
4986,-5.0
4987,-9.0
4988,-5.0
4989,-10.0
4990,-9.0
4991,-15.0
4992,-10.0
4993,-4.0
4994,-15.0
4995,-10.0
4996,-10.0
4997,0.0
4998,-10.0
4999,-15.0
5000,-15.0
